// Auto-generated by train_novamax.py - do not edit by hand.
// SAC actor (NovaMax fine-tune):
// input(4) -> Linear(32) ReLU -> Linear(32) ReLU -> Linear(2) tanh.

#pragma once
#include <avr/pgmspace.h>
#include <math.h>

namespace mini_sumo_ai {

constexpr uint8_t INPUT_DIM  = 4;
constexpr uint8_t H1_DIM     = 32;
constexpr uint8_t H2_DIM     = 32;
constexpr uint8_t OUTPUT_DIM = 2;

const float W1[32][4] PROGMEM = {
    { +1.530158e-01f, -2.485322e-02f, -1.169385e+00f, +1.782731e-01f },
    { -1.330086e-02f, -1.150721e-01f, -4.483951e-01f, +1.422947e+00f },
    { +4.162198e-01f, -6.739399e-01f, +2.031119e-01f, +4.249904e-01f },
    { +2.684158e-01f, -3.497697e-01f, -6.602871e-02f, +3.293580e-01f },
    { +7.981756e-01f, +4.842329e-01f, -1.295845e+00f, +1.288132e+00f },
    { -2.705896e-02f, -1.275610e-01f, -2.171022e-01f, +5.867954e-01f },
    { -3.946851e-01f, -2.305052e-01f, -1.411874e-01f, -3.006362e-01f },
    { +3.596809e-01f, -4.804116e-01f, +3.508200e-01f, -1.132693e+00f },
    { +1.772383e-01f, -1.282661e-01f, +2.000083e-01f, +1.332433e+00f },
    { +1.522916e-02f, +3.412859e-01f, -8.050074e-03f, -1.988487e-01f },
    { -1.029656e+00f, -1.266937e-01f, +6.118377e-01f, +1.744183e+00f },
    { +5.232107e-01f, -4.743505e-01f, +4.394771e-01f, +7.135699e-01f },
    { +3.250115e-01f, -3.430289e-01f, -6.106203e-01f, -1.377544e+00f },
    { -5.464884e-01f, +5.377080e-01f, +2.238444e-01f, +5.675302e-01f },
    { +1.041000e-01f, -5.722491e-01f, +3.332938e-01f, -2.797505e-01f },
    { +3.148186e-02f, -3.412701e-01f, +1.541760e-01f, -1.721911e-01f },
    { +1.536688e-01f, -4.192260e-01f, +3.101464e-01f, +3.555866e-01f },
    { -1.787603e+00f, -4.284585e-01f, +4.074810e-01f, -1.403760e-02f },
    { +4.304915e-01f, -3.145151e-01f, -4.735502e-01f, -1.185324e-01f },
    { -3.661026e+00f, +3.784289e-02f, +1.165164e-02f, +2.025269e-02f },
    { -1.173347e-01f, -3.196717e-01f, +3.288088e-01f, +2.904294e-01f },
    { +4.616202e-01f, -6.974578e-01f, +4.603758e-01f, +3.020988e-01f },
    { -4.161626e-01f, +2.222822e-02f, -1.411503e-02f, +3.690102e-01f },
    { +4.989220e-01f, +5.853042e-01f, -1.152042e+00f, +2.479248e-01f },
    { +2.038650e-01f, -2.469250e-01f, -4.595520e-01f, -5.938162e-01f },
    { -2.863351e-01f, +1.249018e-01f, -6.599659e-02f, -3.629430e-01f },
    { +3.024053e-01f, -7.244918e-01f, -2.355230e-01f, -2.185266e-01f },
    { -4.376060e-01f, -3.183690e-01f, +4.998044e-01f, +9.443748e-02f },
    { +3.142108e-01f, -4.663279e-01f, -1.579846e-01f, -6.427757e-01f },
    { +2.830940e-01f, -6.665643e-01f, -2.827632e-02f, -7.296532e-01f },
    { +3.637191e-02f, -1.122974e-02f, -1.363733e-01f, -1.701394e+00f },
    { -3.431976e-01f, -2.917009e-01f, -1.711487e-01f, -3.946404e-01f }
};
const float B1[32] PROGMEM = {
    -4.994868e-02f, -3.122508e-01f, +3.710403e-03f, -2.480831e-01f, -1.067100e-02f, +2.720851e-01f, -1.375724e-01f, -2.926281e-01f, -6.248654e-01f, -5.597780e-01f, +1.126879e-01f, -2.580533e-01f, +1.018389e-01f, -3.094409e-01f, +2.976792e-01f, -3.670269e-01f, -4.120450e-01f, +2.083832e-02f, +1.960110e-01f, +2.325215e-01f, +5.201805e-01f, -2.422613e-01f, -8.618779e-03f, +4.104184e-03f, -3.419892e-01f, -3.742450e-01f, +6.483205e-01f, -3.669752e-01f, +4.561120e-01f, +3.723949e-01f, +7.535820e-02f, -2.703231e-01f
};

const float W2[32][32] PROGMEM = {
    { +3.977384e-01f, +5.111643e-02f, -2.553096e-01f, -2.014793e-01f, -2.740668e-01f, -6.130903e-01f, -8.098570e-02f, +5.326133e-01f, -3.824108e-01f, -9.780637e-02f, -4.583450e-01f, -3.057965e-01f, +9.907907e-01f, +3.445010e-01f, -1.231793e+00f, -6.053592e-02f, -1.380378e-01f, -1.821453e+00f, +8.258652e-02f, +2.281854e-01f, +4.145207e-01f, -8.432921e-01f, +4.242285e-01f, +6.893651e-01f, +4.232917e-01f, +9.289847e-02f, -1.268992e+00f, -3.106345e-02f, -4.638575e-01f, -2.149253e+00f, +7.275064e-01f, -5.267964e-02f },
    { +1.035059e-01f, -9.989155e-02f, +2.377475e-03f, -2.204542e-02f, -9.796277e-02f, -1.577155e-01f, +4.249911e-02f, -2.123856e-01f, -2.318774e-01f, -5.195281e-02f, +9.145987e-02f, +4.180847e-02f, -1.040952e-01f, -2.075947e-01f, -5.039003e-01f, -1.583507e-01f, +2.197897e-01f, -1.399478e-01f, +4.567536e-02f, -7.929063e-03f, -4.480986e-01f, -2.077707e-01f, +6.006365e-02f, -7.184029e-03f, -1.134309e-01f, -4.577999e-02f, -1.872688e-01f, -6.733098e-02f, -1.260929e-01f, +1.609850e-01f, -4.240663e-01f, -3.543785e-02f },
    { -4.277940e-01f, -4.043121e-02f, -2.947462e-01f, +6.536306e-02f, -2.512785e-01f, -5.284805e-01f, -1.435743e-01f, +4.243256e-01f, -2.939037e-02f, +1.487584e-01f, +3.700953e-02f, -5.328777e-02f, +4.211895e-01f, -4.035872e-01f, -7.002656e-01f, -1.653478e-01f, -2.813856e-02f, -5.436767e-01f, -2.698132e-01f, -4.290297e-02f, +9.231286e-02f, -9.521330e-01f, -1.896195e-01f, -7.621001e-02f, +6.280986e-02f, +1.091319e-01f, -1.229431e+00f, -1.296776e-01f, -7.106414e-01f, -1.295922e+00f, +3.086181e-01f, -1.682906e-01f },
    { +4.864632e-02f, -3.802266e-01f, +4.015461e-02f, +2.930576e-02f, -4.741568e-02f, -3.474003e-01f, +1.271372e-01f, -5.352250e-02f, -1.378149e-01f, +1.597326e-01f, -8.493666e-02f, -4.174969e-02f, -1.171817e-01f, +1.162020e-01f, +1.759404e-02f, -1.754894e-01f, +7.137126e-02f, +1.382731e-01f, +1.158879e-01f, -9.966839e-02f, -4.246602e-01f, -1.443339e-02f, +1.103661e-01f, -2.398378e-01f, -8.463231e-02f, -1.059698e-01f, -9.208586e-02f, -8.701187e-02f, -7.654407e-02f, -1.177671e-01f, -1.915718e-01f, +1.450466e-01f },
    { +1.173446e+00f, +1.797353e-01f, +2.288755e-01f, -2.288369e-01f, -3.687165e-01f, +3.519880e-01f, +6.570055e-02f, +5.208148e-01f, -1.151873e-01f, -1.711880e-01f, -2.431913e-01f, -6.700920e-02f, +5.055681e-01f, +1.608986e+00f, -9.024720e-01f, -8.464172e-02f, -4.690453e-01f, +2.350262e+00f, +1.440550e-02f, +1.906770e-01f, +2.836512e-01f, -7.850299e-01f, +1.706454e+00f, +5.684550e-01f, +3.639654e-01f, +7.016316e-02f, -5.869568e-01f, +4.650700e-02f, -1.482587e-02f, -1.177065e+00f, -1.820457e-01f, +3.669079e-02f },
    { -1.185391e-01f, +8.447624e-03f, +1.074361e-01f, +3.265294e-01f, -1.966395e-01f, -2.727676e-01f, -1.208028e-01f, +6.947152e-02f, -8.154307e-02f, -2.813168e-03f, -2.896594e-01f, -2.152934e-01f, -1.634634e-01f, -3.916056e-02f, +1.907291e-01f, -1.314938e-01f, +5.489857e-01f, -3.308921e-02f, -8.204345e-02f, -2.859825e-01f, -5.805198e-01f, -2.972746e-01f, +3.251654e-02f, -3.904308e-01f, -3.180483e-02f, -9.465715e-02f, +1.397065e-02f, -8.538574e-02f, -4.916910e-01f, -4.760533e-02f, -2.812808e-01f, +9.685768e-02f },
    { +5.898196e-01f, +6.221467e-01f, +7.852563e-01f, -1.968390e-01f, +2.521255e-01f, +6.090814e-01f, -1.041708e-01f, -1.135767e-01f, +7.499777e-02f, -9.273406e-02f, +3.663523e-01f, +3.777560e-01f, +1.553143e-02f, +3.887618e-01f, -4.587013e-01f, -1.340652e-01f, -2.193712e-01f, -6.627799e-02f, +4.868937e-01f, +1.868879e-01f, -4.288579e-02f, +7.987563e-01f, +1.775716e-01f, -1.464162e-01f, +1.069949e-01f, +9.626172e-02f, -1.128525e-01f, -1.622998e-01f, -8.084033e-01f, -2.762016e-01f, -8.523954e-02f, +1.495964e-01f },
    { +3.283706e-01f, +1.222154e+00f, -3.165900e-02f, -1.739845e-01f, -5.416773e-02f, +4.778621e-01f, -3.618623e-02f, -2.531801e-01f, +6.838845e-01f, +9.595158e-02f, +9.732949e-01f, +2.856612e-01f, +3.822546e-01f, +3.312022e-01f, -3.149372e-01f, -8.161990e-02f, -1.393358e+00f, -3.594995e+00f, +8.104058e-02f, -4.252606e-04f, +2.695736e-01f, +4.177688e-02f, -6.250546e-03f, +8.811974e-02f, -6.399013e-01f, +5.507541e-02f, -5.757980e-02f, -6.915895e-02f, +1.484283e-01f, -5.624070e-01f, -8.222206e-01f, -8.557985e-02f },
    { -1.405070e+00f, -6.196794e-01f, -4.197895e-01f, -1.194477e-01f, -3.203157e-01f, -5.896364e-01f, -1.325221e-01f, +4.498366e-01f, -2.684352e-01f, -1.145193e-02f, +3.848174e-02f, -4.994579e-01f, +1.807150e-01f, +2.654402e-01f, -5.666815e-01f, -2.234767e-02f, +7.229903e-02f, +2.718661e+00f, -1.034537e+00f, +2.249705e-01f, -3.032806e-01f, -1.127612e+00f, -3.582953e-01f, -7.062238e-01f, -1.637822e+00f, +1.285391e-01f, -1.203500e+00f, +1.379918e-01f, -9.519228e-01f, -1.158650e+00f, +6.975897e-02f, +1.418283e-01f },
    { -6.410461e-01f, -3.726170e-01f, -3.234125e-01f, -5.952916e-02f, +5.600155e-01f, -2.787386e-02f, +4.702872e-02f, +6.904426e-02f, -3.107439e-01f, +1.341896e-01f, -5.595885e-01f, -2.301910e-01f, +6.588647e-01f, -7.570667e-01f, +2.085144e-01f, -1.249954e-01f, +6.779686e-02f, +7.245951e-02f, +4.042471e-01f, -7.305877e-01f, +1.589934e-02f, +6.243001e-01f, -2.619098e-01f, +3.892373e-02f, +4.827130e-01f, -2.366151e-02f, +5.891410e-02f, +8.832763e-02f, +1.615522e-01f, -4.764645e-01f, +9.478863e-02f, +3.709823e-02f },
    { +1.797493e-01f, -1.454347e-01f, -7.286385e-02f, +6.953850e-02f, -7.268127e-01f, -2.479649e-01f, +9.214519e-02f, -1.382458e-01f, +3.263880e-01f, +1.858562e-01f, +2.368271e-01f, -1.474312e-01f, -2.036201e-01f, -3.562458e-01f, +6.158720e-02f, +2.429634e-03f, +5.337033e-01f, +6.336612e-02f, -2.601030e-01f, -2.895285e-01f, -1.128103e+00f, -1.268977e-01f, -1.753697e-01f, +1.336720e-01f, +1.169802e-01f, +8.116268e-02f, -4.473613e-01f, -9.487689e-02f, -2.607292e-01f, +1.599928e-01f, -3.143534e-01f, -1.622760e-01f },
    { -1.995563e-02f, -1.192635e-01f, -1.181872e-01f, -1.469691e-01f, +1.470405e-01f, -1.370999e-01f, +1.333545e-01f, -1.665647e-02f, -2.189766e-02f, +1.105700e-01f, -2.160889e-02f, +6.675880e-02f, +1.247272e-01f, -1.678894e-01f, +4.874402e-02f, +3.337173e-02f, +3.800906e-02f, +2.580789e-02f, +2.690107e-03f, -8.504140e-02f, -2.118482e-01f, +7.327602e-02f, +1.557088e-01f, +3.369410e-02f, -1.829600e-01f, +7.747725e-03f, -2.485183e-01f, +1.437533e-01f, -1.160130e-01f, -7.489143e-02f, -6.778240e-02f, +3.145809e-02f },
    { +4.443432e-01f, -4.004579e-01f, +4.680344e-01f, +7.967864e-02f, +3.588720e-03f, +4.296844e-02f, -3.953728e-02f, +5.299354e-01f, -3.825303e-01f, +7.311799e-02f, -6.748086e-01f, +6.238604e-01f, +4.932649e-01f, -2.368319e-01f, +2.384243e-01f, +1.756252e-01f, -1.302321e-01f, -7.175204e-01f, +2.438282e-01f, -1.359609e-01f, -3.902886e-01f, +4.758970e-01f, +1.411389e-01f, -2.804592e-04f, +2.699450e-02f, -1.630969e-01f, +1.254252e-01f, -1.742724e-01f, +4.545090e-01f, +9.142980e-01f, +5.832925e-01f, -5.258449e-02f },
    { -9.951559e-02f, +4.357596e-02f, -8.655623e-02f, -9.311272e-02f, +6.136777e-02f, -1.847255e-01f, +2.161533e-02f, +1.198323e-01f, +4.793544e-04f, +4.807332e-02f, -8.042046e-02f, -4.039835e-02f, -2.612613e-02f, -2.896428e-03f, +5.058832e-02f, +1.536062e-01f, -1.349336e-01f, -1.052459e-02f, -1.093862e-01f, -1.664927e-01f, -5.682487e-02f, -1.834966e-01f, +5.955882e-02f, -3.007524e-02f, -1.149487e-01f, +9.237979e-02f, -2.133611e-01f, -6.837709e-02f, -6.467019e-02f, -1.687100e-01f, -1.293139e-01f, -2.885325e-02f },
    { -1.428585e-01f, -4.660559e-01f, -2.944705e-01f, -8.672657e-03f, -7.211630e-01f, +2.321312e-01f, +6.252900e-02f, +1.010006e+00f, -3.246694e-01f, -1.207607e-01f, -2.790538e-01f, -1.549061e-03f, +7.273344e-01f, -1.271408e-01f, -1.065937e+00f, -9.889014e-02f, +3.808552e-01f, -1.642835e+00f, +1.523516e-01f, -4.393706e-01f, -4.058891e-01f, -5.177606e-01f, +1.072879e-01f, -2.789308e-01f, +6.070318e-01f, +1.405587e-01f, -4.958616e-01f, -7.257904e-02f, +4.270796e-01f, -1.862707e+00f, +7.723396e-01f, -4.045898e-02f },
    { -1.259634e+00f, -5.071022e-01f, -1.286505e+00f, +2.649746e-02f, -6.637949e-01f, -2.604307e-01f, +5.765663e-02f, -1.092927e+00f, -5.228382e-01f, -7.334859e-02f, +1.343202e+00f, -1.104034e+00f, -7.386966e-01f, +1.282821e+00f, +5.637146e-01f, +1.379091e-01f, +3.456465e-01f, +1.058210e+00f, -8.914677e-01f, +1.100234e+00f, +5.699092e-01f, -4.579090e-01f, +6.605590e-01f, -1.677275e-01f, -9.573123e-01f, +7.493958e-03f, -4.605280e-02f, +1.988262e-04f, -3.739295e-01f, -6.217620e-02f, -9.665219e-02f, +7.842071e-02f },
    { +3.562267e-01f, -1.959903e-01f, +8.629299e-01f, +3.225423e-01f, -9.545711e-01f, -1.191330e-01f, -1.606741e-01f, -3.824657e-01f, +2.121944e-01f, -6.929003e-02f, -4.969087e-01f, +1.060360e+00f, -3.117891e-01f, -8.874004e-02f, -3.783811e-01f, -5.583943e-02f, -2.245047e-02f, -2.928346e-01f, +1.496983e-01f, -5.671450e-02f, +1.933244e-01f, +4.789248e-01f, -1.280531e-01f, -6.114838e-01f, -1.086121e-01f, +1.477718e-01f, +2.044638e-01f, +1.625267e-01f, -4.887580e-02f, +3.954829e-01f, -4.287767e-01f, -1.482708e-01f },
    { -8.791344e-01f, +5.173130e-01f, +1.717528e+00f, +2.560826e-01f, -2.056376e-01f, +6.217999e-01f, -1.437734e-02f, +5.556103e-02f, +5.631940e-01f, -1.739459e-01f, +9.373277e-01f, +1.401604e+00f, -5.003856e-01f, +2.089857e-01f, +4.898461e-01f, -5.123146e-02f, +5.488840e-01f, -1.122970e+00f, +6.540924e-01f, +3.607976e-01f, +4.474185e-01f, +3.872285e-01f, +3.942981e-01f, +1.630120e-01f, -5.870296e-01f, -9.172750e-02f, +1.081133e+00f, -1.664281e-01f, -6.331441e-02f, -1.067897e+00f, -5.114598e-01f, +1.453799e-01f },
    { -7.993375e-01f, -1.878327e-01f, +2.268595e-01f, -1.991989e-01f, -3.958905e-02f, -1.066392e-01f, +5.826113e-02f, +2.465627e-02f, -1.225224e-01f, -8.025870e-02f, +5.390221e-02f, +4.081333e-02f, -2.909835e-01f, -4.205641e-01f, +1.370766e-01f, +5.711125e-02f, -6.902281e-02f, +1.338207e+00f, +2.602416e-02f, -1.201892e+00f, -2.617883e-01f, +4.573843e-01f, -9.999177e-01f, +1.574380e-01f, -2.004366e-01f, -4.245046e-02f, +2.692969e-01f, -1.151981e-01f, -1.970768e-01f, +5.997057e-01f, -2.067641e-01f, -1.655692e-01f },
    { +1.106711e-02f, +4.276429e-01f, +1.575225e-01f, +1.058328e-01f, -3.736785e-01f, -6.457564e-01f, -2.668518e-02f, -8.471120e-01f, -3.466801e-01f, -1.137385e-01f, +3.243777e-01f, -3.251685e-01f, -3.734252e-01f, -4.421852e-01f, -6.448675e-01f, +6.666963e-02f, +3.364804e-01f, -3.342410e-01f, +4.503039e-01f, +9.451496e-01f, +3.133783e-01f, -9.029616e-02f, +1.097286e-02f, -2.975700e-01f, +3.059789e-01f, -1.482110e-01f, -1.614872e-01f, -1.625414e-01f, -8.192521e-01f, -3.150041e-02f, -6.747522e-01f, +1.726949e-01f },
    { -3.309199e-01f, -4.961019e-01f, -3.156576e-01f, -2.441017e-01f, -6.581753e-01f, -7.766419e-02f, +2.584881e-02f, -2.353281e-01f, -5.625910e-01f, -1.478242e-01f, +9.977010e-02f, -4.151653e-01f, -4.180341e-01f, +8.924733e-01f, -5.565323e-02f, -4.008476e-02f, +1.476240e-01f, -7.939876e-01f, -5.402797e-01f, -6.904747e-01f, +2.982431e-02f, -3.017702e-01f, +8.077685e-02f, -3.892443e-01f, +3.903996e-01f, +8.967221e-03f, -3.996083e-01f, -1.009152e-01f, +8.484599e-02f, -3.955089e-02f, -4.058398e-01f, -8.392870e-03f },
    { -1.548717e-01f, -9.727065e-02f, -1.279425e-01f, +8.767460e-02f, -1.185373e-01f, -1.472872e-02f, +3.814059e-02f, -1.290144e-01f, +5.099478e-02f, -1.726089e-01f, -1.264852e-01f, -1.601815e-01f, -8.554576e-02f, -6.758282e-02f, +3.398086e-03f, -3.268857e-02f, +8.309956e-02f, +1.620681e-01f, +3.148090e-02f, -7.880835e-02f, -1.974939e-01f, +3.230921e-02f, -1.106869e-01f, +7.240757e-02f, +8.619106e-02f, +6.818639e-02f, +1.340573e-01f, +1.679019e-01f, +5.434757e-03f, -1.381587e-01f, +1.256691e-01f, -8.387979e-02f },
    { +1.306700e-01f, -7.433021e-01f, +1.916728e-01f, +7.881133e-03f, -2.604756e-01f, -2.344218e-01f, -1.835015e-02f, -2.145805e-01f, -5.138624e-01f, +3.152553e-02f, +3.418801e-01f, -3.169802e-01f, -9.059361e-02f, +7.088461e-01f, +3.510331e-01f, -3.128923e-02f, +4.604390e-01f, -8.714603e-01f, -3.708715e-01f, +9.007444e-01f, +6.986519e-01f, -3.522633e-01f, +6.192333e-01f, -1.079449e+00f, -4.809668e-01f, +3.231786e-02f, +1.278145e-01f, -4.610784e-02f, +4.093790e-02f, +1.156628e-01f, -3.890405e-01f, +5.510858e-02f },
    { +1.193289e-01f, -3.295333e-02f, +7.120474e-02f, -3.974055e-02f, -2.708554e-01f, +3.209835e-01f, +1.596251e-01f, -5.914687e-01f, +8.927850e-02f, +6.129992e-02f, -1.182267e+00f, +9.532279e-03f, -2.554551e-01f, +5.213733e-01f, +5.930398e-02f, +1.564959e-01f, +1.485924e-01f, +2.595870e-01f, -6.998571e-02f, -9.234474e-01f, +5.239045e-01f, +3.335254e-02f, +2.517744e-01f, +4.837607e-01f, +5.054437e-02f, +4.749306e-02f, +3.258115e-01f, +6.428704e-03f, +1.965222e-01f, +1.295272e-01f, -9.321515e-02f, +1.066516e-01f },
    { -1.572957e-01f, -4.735127e-02f, +1.764900e-01f, -9.839594e-02f, +3.304131e-02f, -2.709228e-01f, -4.901056e-02f, -1.687066e-01f, -8.922679e-02f, +7.140797e-02f, -2.789075e-01f, -1.638770e-01f, -7.960530e-02f, +1.038923e-01f, -8.066193e-02f, -5.752648e-02f, -1.684729e-01f, -6.351358e-02f, -1.060498e-01f, -5.069592e-01f, -3.148235e-01f, +1.576240e-01f, -2.746809e-01f, -2.404864e-01f, +1.070848e-01f, +9.386210e-02f, +2.192432e-01f, -1.678506e-01f, -3.052541e-01f, -1.961093e-01f, +5.418880e-02f, +1.808433e-02f },
    { -7.215318e-02f, -7.602428e-02f, +5.453108e-02f, -1.773629e-01f, -4.326316e-01f, -1.816827e-01f, +5.475423e-02f, -5.938261e-02f, -1.597189e-01f, -4.857739e-02f, -2.665597e-01f, +1.162922e-01f, -1.428019e-01f, -3.978905e-01f, -1.801028e-01f, -2.552125e-02f, -5.393048e-01f, -3.954527e-01f, -2.067971e-01f, -1.613200e-01f, +3.385688e-03f, -9.125593e-01f, -1.154277e-01f, +3.262915e-02f, -2.745039e-01f, -2.190033e-02f, -7.546571e-01f, +3.294407e-02f, -2.182023e-01f, -4.595075e-01f, +3.064502e-01f, +7.956909e-02f },
    { -2.150446e-01f, -3.504930e-01f, +2.905245e-02f, -1.261409e-01f, -4.842620e-02f, -2.703390e-01f, -1.062372e-02f, -3.767268e-01f, -5.106076e-02f, -7.199093e-02f, -2.679541e-01f, -2.294872e-01f, +7.394901e-02f, -1.772631e-01f, -2.689742e-01f, -6.641104e-02f, -9.066509e-02f, -7.003304e-02f, +4.353400e-02f, -9.763061e-02f, -9.182752e-02f, -1.329758e-01f, -7.698819e-02f, -3.830652e-02f, -1.335908e-01f, +5.642658e-02f, +1.040073e-01f, +9.815706e-02f, -3.243313e-01f, +7.203525e-02f, -1.223762e-01f, -1.118663e-01f },
    { -1.982355e-01f, -2.444740e-01f, +2.821175e-01f, -3.294481e-01f, -1.649278e-01f, -2.120793e-01f, +8.836927e-02f, -3.091829e-01f, -5.017678e-02f, -1.533770e-01f, -2.735478e-01f, +4.652496e-01f, +2.446846e-01f, -7.088788e-01f, -1.485039e-01f, -1.938330e-02f, -3.684755e-01f, -2.079816e-02f, -6.554337e-02f, +1.675030e-01f, -1.845804e-01f, -1.177915e-01f, +4.303239e-02f, +2.591246e-02f, -1.201747e-02f, -8.519665e-02f, +6.516591e-02f, -2.602230e-02f, -2.385836e-01f, -2.563048e-01f, +1.591314e-01f, +8.508563e-06f },
    { -9.979364e-01f, -5.889539e-01f, +4.931075e-01f, -8.998022e-02f, +4.145190e-02f, -2.523743e-01f, +1.512235e-01f, +5.819521e-01f, -6.220326e-01f, +6.698213e-03f, -9.100810e-01f, +4.999326e-01f, +7.729024e-01f, -8.340404e-01f, +1.702035e-02f, +1.105868e-01f, -1.662519e-01f, -3.569500e-01f, +4.927456e-01f, -3.510783e-01f, +3.984758e-01f, +5.775042e-02f, -5.871680e-01f, +2.506627e-01f, +3.484471e-01f, -5.963045e-02f, +3.171138e-01f, -1.590008e-01f, +2.154670e-01f, +8.522748e-01f, +6.350995e-01f, +1.031588e-01f },
    { -1.383137e+00f, -3.577214e-03f, +4.450545e-02f, +1.788698e-01f, -6.682053e-01f, -4.599068e-01f, +1.494607e-01f, +1.376665e-01f, +3.814665e-01f, +1.199253e-01f, +9.035740e-01f, -2.988586e-01f, -3.722647e-01f, -6.457695e-02f, -1.793595e-01f, +1.749195e-01f, +7.960981e-01f, +2.861978e+00f, -3.686877e-01f, +6.058802e-01f, -4.593155e-01f, -1.375929e-01f, -1.504567e-01f, -1.050964e+00f, -1.597357e+00f, +1.385113e-01f, -7.542516e-02f, +5.556417e-02f, -7.001994e-01f, +5.873129e-02f, -6.097069e-01f, +6.240459e-02f },
    { -5.427012e-01f, -6.084589e-01f, +6.681597e-01f, -9.844614e-02f, -3.790538e-01f, -2.329258e-01f, +7.899590e-02f, +4.941654e-01f, -2.386992e-01f, +9.111112e-02f, -3.931137e-01f, +6.835155e-01f, -3.061353e-01f, -2.416232e-01f, +3.581142e-01f, -7.193586e-02f, +1.077770e-01f, -1.024266e+00f, +5.203745e-01f, -5.696498e-01f, +8.111271e-01f, +7.604884e-01f, +1.024267e-01f, +1.176575e-01f, +1.927470e-01f, -7.862315e-02f, +1.353040e+00f, -1.618633e-01f, +8.238801e-01f, +4.095512e-02f, +3.885782e-01f, +1.402815e-01f },
    { +1.670379e-01f, +3.040000e-01f, -1.305969e-01f, +1.036464e-01f, +4.416861e-01f, -2.437060e-01f, -1.376861e-01f, -4.788112e-01f, +7.644152e-01f, +9.548841e-02f, +2.407925e-01f, +6.417558e-01f, -4.320335e-01f, -6.533554e-01f, -1.904556e-01f, +1.325226e-02f, -4.987833e-01f, -1.170702e+00f, +1.416509e-01f, -2.177899e-01f, -7.637775e-01f, +5.198605e-01f, -5.529925e-01f, -2.683976e-01f, -3.043848e-01f, +7.075442e-02f, +1.045090e-01f, -8.158073e-03f, -1.870321e-01f, -4.919480e-01f, -1.688608e-01f, -1.424037e-01f }
};
const float B2[32] PROGMEM = {
    +3.246858e-01f, -6.383134e-02f, -3.834614e-02f, -1.098338e-01f, +1.473505e+00f, +1.078499e-01f, -3.336365e-01f, +2.048639e-01f, -2.771899e-01f, +6.463504e-02f, -1.558232e-01f, -1.869071e-01f, +4.870459e-02f, -1.348637e-01f, +1.414873e-01f, +4.476825e-01f, +5.032701e-02f, +1.775174e-01f, -5.682225e-01f, +4.540220e-01f, -1.640127e-01f, -1.585852e-01f, +4.276722e-01f, +1.120989e-01f, +1.446854e-01f, +1.646529e-01f, -2.642716e-02f, -1.628596e-01f, +1.716382e-01f, +2.243405e-02f, -1.219145e-01f, -2.840018e-01f
};

const float W_OUT[2][32] PROGMEM = {
    { +1.561026e-01f, +5.282522e-03f, +8.711619e-01f, +1.577254e-01f, +1.580308e-01f, +4.348106e-01f, -9.661928e-01f, -3.515254e-01f, -9.369082e-02f, +9.565846e-02f, +6.190908e-01f, +1.162196e-01f, -2.142474e-01f, -1.413896e-01f, -7.929002e-01f, +5.571635e-01f, -3.802138e-02f, +1.866430e-01f, -9.360833e-01f, +1.424768e+00f, -7.147645e-01f, +8.213025e-02f, +1.712605e-01f, +2.949201e-02f, +2.445281e-01f, -1.748120e-01f, -2.552121e-01f, +1.623525e-01f, -1.841803e-01f, +2.093828e-01f, +1.823792e-01f, -2.023031e-01f },
    { -6.079403e-01f, +9.347082e-02f, -1.827117e-01f, -6.306894e-02f, +6.003895e-01f, -1.091453e-01f, -5.752136e-01f, +1.617947e-01f, +1.421164e+00f, +4.329399e-02f, +5.010378e-01f, -2.506209e-01f, +1.221749e-01f, +1.671626e-01f, +2.147027e-01f, -2.845381e-01f, -4.022897e-01f, -2.630190e-01f, +7.291369e-01f, +6.240479e-02f, -7.850271e-01f, -1.362745e-01f, -1.798263e-01f, -1.933776e-03f, +1.168342e-02f, -1.053299e-03f, -2.946055e-01f, +3.678152e-01f, +9.638784e-03f, +7.271222e-01f, -2.322295e-01f, +5.092615e-01f }
};
const float B_OUT[2] PROGMEM = {
    +2.334882e-01f, +9.083194e-01f
};

inline float relu(float x) { return x > 0.0f ? x : 0.0f; }

inline void predict_motors(
    float front, float left, float right, float last_seen,
    float &out_left, float &out_right
) {
    const float in[INPUT_DIM] = { front, left, right, last_seen };

    float h1_act[H1_DIM];
    for (uint8_t i = 0; i < H1_DIM; ++i) {
        float s = pgm_read_float(&B1[i]);
        for (uint8_t j = 0; j < INPUT_DIM; ++j) {
            s += pgm_read_float(&W1[i][j]) * in[j];
        }
        h1_act[i] = relu(s);
    }

    float h2_act[H2_DIM];
    for (uint8_t i = 0; i < H2_DIM; ++i) {
        float s = pgm_read_float(&B2[i]);
        for (uint8_t j = 0; j < H1_DIM; ++j) {
            s += pgm_read_float(&W2[i][j]) * h1_act[j];
        }
        h2_act[i] = relu(s);
    }

    float out[OUTPUT_DIM];
    for (uint8_t i = 0; i < OUTPUT_DIM; ++i) {
        float s = pgm_read_float(&B_OUT[i]);
        for (uint8_t j = 0; j < H2_DIM; ++j) {
            s += pgm_read_float(&W_OUT[i][j]) * h2_act[j];
        }
        out[i] = tanhf(s);
    }

    out_left  = out[0];
    out_right = out[1];
}

}  // namespace mini_sumo_ai
