// Auto-generated by train_novamax.py - do not edit by hand.
// SAC actor (NovaMax fine-tune):
// input(4) -> Linear(32) ReLU -> Linear(32) ReLU -> Linear(2) tanh.

#pragma once
#include <avr/pgmspace.h>
#include <math.h>

namespace mini_sumo_ai {

constexpr uint8_t INPUT_DIM  = 4;
constexpr uint8_t H1_DIM     = 32;
constexpr uint8_t H2_DIM     = 32;
constexpr uint8_t OUTPUT_DIM = 2;

const float W1[32][4] PROGMEM = {
    { +1.615570e-01f, -1.631080e-02f, -1.241423e+00f, +1.868140e-01f },
    { -2.590414e-01f, -3.608122e-01f, -6.113790e-01f, +1.177202e+00f },
    { +5.101771e-01f, -5.732812e-01f, +2.834098e-01f, +1.736440e-01f },
    { +2.684158e-01f, -3.497697e-01f, -6.602871e-02f, +3.293580e-01f },
    { +7.927454e-01f, +4.787996e-01f, -1.117885e+00f, +1.343717e+00f },
    { -1.024348e-01f, -1.999375e-01f, -1.115932e-01f, +5.115292e-01f },
    { -3.946851e-01f, -2.305052e-01f, -1.411874e-01f, -3.006362e-01f },
    { +3.991158e-01f, -5.675797e-01f, +3.902549e-01f, -1.352823e+00f },
    { +9.935223e-02f, -2.061530e-01f, +1.947265e-01f, +1.254550e+00f },
    { +1.522916e-02f, +3.412859e-01f, -8.050074e-03f, -1.988487e-01f },
    { -1.143575e+00f, -5.329714e-02f, +7.526485e-01f, +1.612895e+00f },
    { +5.514377e-01f, -4.443893e-01f, +4.693070e-01f, +7.247737e-01f },
    { +3.898873e-01f, -6.992143e-01f, -5.457402e-01f, -1.442428e+00f },
    { -6.978609e-01f, +5.955712e-01f, +3.138723e-01f, +4.499129e-01f },
    { +1.782520e-01f, -4.949816e-01f, +4.047999e-01f, -4.605755e-01f },
    { +3.148186e-02f, -3.412701e-01f, +1.541760e-01f, -1.721911e-01f },
    { +1.536688e-01f, -4.192260e-01f, +3.101464e-01f, +3.555866e-01f },
    { -1.787603e+00f, -4.284585e-01f, +4.074810e-01f, -1.403760e-02f },
    { +4.490837e-01f, -3.129044e-01f, -3.269007e-01f, -4.335316e-01f },
    { -3.686676e+00f, -5.625807e-02f, -8.244924e-02f, +2.025269e-02f },
    { -1.583928e-01f, -3.594411e-01f, +2.723265e-01f, +1.450217e-01f },
    { +4.650452e-01f, -6.912048e-01f, +4.638008e-01f, +3.212653e-01f },
    { -4.161626e-01f, +2.222822e-02f, -1.411503e-02f, +3.690102e-01f },
    { +5.407141e-01f, +6.270981e-01f, -1.251464e+00f, +4.727340e-01f },
    { +2.038650e-01f, -2.469250e-01f, -4.595520e-01f, -5.938162e-01f },
    { -2.863351e-01f, +1.249018e-01f, -6.599659e-02f, -3.629430e-01f },
    { +2.601809e-01f, -6.173389e-01f, -2.776027e-01f, -4.358695e-01f },
    { -4.376060e-01f, -3.183690e-01f, +4.998044e-01f, +9.443748e-02f },
    { +2.492441e-01f, -5.799596e-01f, -2.180459e-01f, -7.982674e-01f },
    { +1.443504e-01f, -4.320435e-01f, -1.668339e-01f, -5.544997e-01f },
    { +8.165790e-02f, -4.426037e-01f, -9.093535e-02f, -1.860649e+00f },
    { -3.431976e-01f, -2.917009e-01f, -1.711487e-01f, -3.946404e-01f }
};
const float B1[32] PROGMEM = {
    -4.140639e-02f, -5.579906e-01f, +9.766756e-02f, -2.480831e-01f, -1.610236e-02f, +1.996903e-01f, -1.375724e-01f, -2.531933e-01f, -7.027538e-01f, -5.597780e-01f, +1.860849e-01f, -2.298213e-01f, +1.667163e-01f, -2.515876e-01f, +3.691630e-01f, -3.670269e-01f, -4.120450e-01f, +2.083832e-02f, +2.146028e-01f, +1.384208e-01f, +4.668767e-01f, -2.388373e-01f, -8.618779e-03f, +4.589099e-02f, -3.419892e-01f, -3.742450e-01f, +6.060946e-01f, -3.669752e-01f, +3.962619e-01f, +2.336527e-01f, +1.206321e-01f, -2.703231e-01f
};

const float W2[32][32] PROGMEM = {
    { +1.842378e-01f, -7.733288e-02f, -2.436354e-01f, -2.014793e-01f, -3.066663e-01f, -8.080711e-01f, -8.098570e-02f, +6.532767e-01f, -5.708157e-01f, -9.780637e-02f, -6.694048e-01f, -4.350296e-01f, +1.075939e+00f, +1.506438e-01f, -1.012348e+00f, -6.053592e-02f, -1.380378e-01f, -1.821453e+00f, +3.211911e-01f, +2.553866e-01f, +3.988447e-01f, -1.120025e+00f, +4.242285e-01f, +6.935823e-01f, +4.232917e-01f, +9.289847e-02f, -9.401830e-01f, -3.106345e-02f, -8.289978e-02f, -2.070134e+00f, +8.602541e-01f, -5.267964e-02f },
    { +1.035059e-01f, -9.989155e-02f, +2.377475e-03f, -2.204542e-02f, -9.796277e-02f, -1.577155e-01f, +4.249911e-02f, -2.123856e-01f, -2.318774e-01f, -5.195281e-02f, +9.145987e-02f, +4.180847e-02f, -1.040952e-01f, -2.075947e-01f, -5.039003e-01f, -1.583507e-01f, +2.197897e-01f, -1.399478e-01f, +4.567536e-02f, -7.929063e-03f, -4.480986e-01f, -2.077707e-01f, +6.006365e-02f, -7.184029e-03f, -1.134309e-01f, -4.577999e-02f, -1.872688e-01f, -6.733098e-02f, -1.260929e-01f, +1.609850e-01f, -4.240663e-01f, -3.543785e-02f },
    { -4.277940e-01f, -4.043121e-02f, -2.947462e-01f, +6.536306e-02f, -2.512785e-01f, -5.284805e-01f, -1.435743e-01f, +4.243256e-01f, -2.939037e-02f, +1.487584e-01f, +3.700953e-02f, -5.328777e-02f, +4.211895e-01f, -4.035872e-01f, -7.002656e-01f, -1.653478e-01f, -2.813856e-02f, -5.436767e-01f, -2.698132e-01f, -4.290297e-02f, +9.231286e-02f, -9.521330e-01f, -1.896195e-01f, -7.621001e-02f, +6.280986e-02f, +1.091319e-01f, -1.229431e+00f, -1.296776e-01f, -7.106414e-01f, -1.295922e+00f, +3.086181e-01f, -1.682906e-01f },
    { +4.864632e-02f, -3.802266e-01f, +4.015461e-02f, +2.930576e-02f, -4.741568e-02f, -3.474003e-01f, +1.271372e-01f, -5.352250e-02f, -1.378149e-01f, +1.597326e-01f, -8.493666e-02f, -4.174969e-02f, -1.171817e-01f, +1.162020e-01f, +1.759404e-02f, -1.754894e-01f, +7.137126e-02f, +1.382731e-01f, +1.158879e-01f, -9.966839e-02f, -4.246602e-01f, -1.443339e-02f, +1.103661e-01f, -2.398378e-01f, -8.463231e-02f, -1.059698e-01f, -9.208586e-02f, -8.701187e-02f, -7.654407e-02f, -1.177671e-01f, -1.915718e-01f, +1.450466e-01f },
    { +1.394731e+00f, +2.342167e-01f, +2.530422e-01f, -2.288369e-01f, -3.972548e-01f, +5.076094e-01f, +6.570055e-02f, +2.308349e-01f, +8.870690e-03f, -1.711880e-01f, -9.459373e-02f, -2.677239e-02f, +3.602451e-01f, +1.541759e+00f, -8.618040e-01f, -8.464172e-02f, -4.690453e-01f, +2.350262e+00f, -5.059601e-02f, +1.564244e-01f, +3.374189e-01f, -5.774534e-01f, +1.706454e+00f, +3.444027e-01f, +3.639654e-01f, +7.016316e-02f, -9.239547e-01f, +4.650700e-02f, +5.484524e-02f, -1.323526e+00f, -3.491722e-01f, +3.669079e-02f },
    { -1.185391e-01f, +8.447624e-03f, +9.790638e-02f, +3.265294e-01f, -2.061691e-01f, -2.727676e-01f, -1.208028e-01f, +6.947152e-02f, -8.154307e-02f, -2.813168e-03f, -2.896594e-01f, -2.248231e-01f, -1.634634e-01f, -3.916056e-02f, +1.811994e-01f, -1.314938e-01f, +5.489857e-01f, -3.308921e-02f, -9.157228e-02f, -2.859825e-01f, -5.900492e-01f, -2.972746e-01f, +3.251654e-02f, -3.904308e-01f, -3.180483e-02f, -9.465715e-02f, +1.397065e-02f, -8.538574e-02f, -4.916910e-01f, -4.760533e-02f, -2.812808e-01f, +9.685768e-02f },
    { +2.531027e-01f, +4.708667e-01f, +6.597666e-01f, -1.968390e-01f, +4.936859e-02f, +4.229947e-01f, -1.041708e-01f, -1.135767e-01f, -4.266984e-02f, -9.273406e-02f, +6.255141e-01f, +2.667698e-01f, +1.553143e-02f, +7.672583e-01f, -3.677152e-01f, -1.340652e-01f, -2.193712e-01f, -6.627799e-02f, +2.735687e-01f, +1.953004e-01f, +9.043580e-02f, +9.449436e-01f, +1.775716e-01f, -3.760769e-01f, +1.069949e-01f, +9.626172e-02f, -1.128496e-01f, -1.622998e-01f, -8.186289e-01f, -2.762016e-01f, -8.523954e-02f, +1.495964e-01f },
    { +4.120550e-01f, +1.167366e+00f, -1.988080e-01f, -1.739845e-01f, -6.623628e-02f, +4.840605e-01f, -3.618623e-02f, -2.571051e-01f, +6.908945e-01f, +9.595158e-02f, +1.362536e+00f, +2.109375e-01f, +3.822546e-01f, +6.720132e-01f, -4.273740e-01f, -8.161990e-02f, -1.393358e+00f, -3.594995e+00f, +1.589373e-02f, -2.607501e-03f, +1.660778e-01f, +4.075994e-02f, -6.250546e-03f, +9.779274e-02f, -6.399013e-01f, +5.507541e-02f, +9.145637e-02f, -6.915895e-02f, +1.114636e-01f, -5.564616e-01f, -8.676396e-01f, -8.557985e-02f },
    { -1.405070e+00f, -6.196794e-01f, -4.197895e-01f, -1.194477e-01f, -3.203157e-01f, -5.896364e-01f, -1.325221e-01f, +4.498366e-01f, -2.684352e-01f, -1.145193e-02f, +3.848174e-02f, -4.994579e-01f, +1.807150e-01f, +2.654402e-01f, -5.666815e-01f, -2.234767e-02f, +7.229903e-02f, +2.718661e+00f, -1.034537e+00f, +2.249705e-01f, -3.032806e-01f, -1.127612e+00f, -3.582953e-01f, -7.062238e-01f, -1.637822e+00f, +1.285391e-01f, -1.203500e+00f, +1.379918e-01f, -9.519228e-01f, -1.158650e+00f, +6.975897e-02f, +1.418283e-01f },
    { -5.275265e-01f, -3.514117e-01f, -3.597935e-01f, -5.952916e-02f, +7.347491e-01f, +5.613950e-02f, +4.702872e-02f, +1.374676e-01f, -2.126403e-01f, +1.341896e-01f, -4.876456e-01f, -2.494865e-01f, +6.549281e-01f, -6.850961e-01f, +1.472711e-01f, -1.249954e-01f, +6.779686e-02f, +7.245951e-02f, +3.792680e-01f, -7.305877e-01f, -2.527063e-02f, +5.325860e-01f, -2.619098e-01f, +3.961692e-01f, +4.827130e-01f, -2.366151e-02f, -1.567158e-02f, +8.832763e-02f, -5.620615e-03f, -5.151717e-01f, +1.602785e-01f, +3.709823e-02f },
    { +1.797493e-01f, -1.454347e-01f, -7.286385e-02f, +6.953850e-02f, -7.268127e-01f, -2.479649e-01f, +9.214519e-02f, -1.382458e-01f, +3.263880e-01f, +1.858562e-01f, +2.368271e-01f, -1.474312e-01f, -2.036201e-01f, -3.562458e-01f, +6.158720e-02f, +2.429634e-03f, +5.337033e-01f, +6.336612e-02f, -2.601030e-01f, -2.895285e-01f, -1.128103e+00f, -1.268977e-01f, -1.753697e-01f, +1.336720e-01f, +1.169802e-01f, +8.116268e-02f, -4.473613e-01f, -9.487689e-02f, -2.607292e-01f, +1.599928e-01f, -3.143534e-01f, -1.622760e-01f },
    { +4.165798e-02f, -3.590857e-02f, -6.057728e-02f, -1.469691e-01f, +2.197531e-01f, -5.452346e-02f, +1.333545e-01f, -1.665647e-02f, +3.164300e-02f, +1.105700e-01f, +3.855237e-02f, +1.235574e-01f, +1.247272e-01f, -1.005924e-01f, -2.616959e-02f, +3.337173e-02f, +3.800906e-02f, +2.580789e-02f, +1.933337e-01f, -8.504140e-02f, -1.594378e-01f, +1.178103e-01f, +1.557088e-01f, +1.073852e-01f, -1.829600e-01f, +7.747725e-03f, -3.011397e-01f, +1.437533e-01f, -1.929919e-01f, -7.489143e-02f, -6.778240e-02f, +3.145809e-02f },
    { +3.397163e-01f, -4.675984e-01f, +2.408669e-01f, +7.967864e-02f, -4.547397e-02f, -5.346275e-02f, -3.953728e-02f, +5.585151e-01f, -4.708551e-01f, +7.311799e-02f, -7.671285e-01f, +4.973910e-01f, +4.723503e-01f, -4.019436e-01f, +7.983250e-02f, +1.756252e-01f, -1.302321e-01f, -7.175204e-01f, +2.751368e-01f, -1.359609e-01f, -5.819389e-01f, +4.376148e-02f, +1.411389e-01f, -7.046991e-02f, +2.699450e-02f, -1.630969e-01f, +6.643941e-02f, -1.742724e-01f, +4.275850e-01f, +8.633783e-01f, +6.253876e-01f, -5.258449e-02f },
    { -9.951559e-02f, +4.357596e-02f, -8.655623e-02f, -9.311272e-02f, +6.136777e-02f, -1.847255e-01f, +2.161533e-02f, +1.198323e-01f, +4.793544e-04f, +4.807332e-02f, -8.042046e-02f, -4.039835e-02f, -2.612613e-02f, -2.896428e-03f, +5.058832e-02f, +1.536062e-01f, -1.349336e-01f, -1.052459e-02f, -1.093862e-01f, -1.664927e-01f, -5.682487e-02f, -1.834966e-01f, +5.955882e-02f, -3.007524e-02f, -1.149487e-01f, +9.237979e-02f, -2.133611e-01f, -6.837709e-02f, -6.467019e-02f, -1.687100e-01f, -1.293139e-01f, -2.885325e-02f },
    { -1.428585e-01f, -4.660559e-01f, +2.099478e-02f, -8.672657e-03f, -7.211630e-01f, +2.321312e-01f, +6.252900e-02f, +1.086221e+00f, -3.246694e-01f, -1.207607e-01f, -2.790538e-01f, +3.651841e-01f, +8.639771e-01f, -1.271408e-01f, -9.679827e-01f, -9.889014e-02f, +3.808552e-01f, -1.642835e+00f, +2.854222e-01f, -4.393706e-01f, -1.310734e-01f, -7.373752e-02f, +1.072879e-01f, -2.789308e-01f, +6.070318e-01f, +1.405587e-01f, -3.105512e-01f, -7.257904e-02f, +5.294026e-01f, -1.695570e+00f, +8.232770e-01f, -4.045898e-02f },
    { -1.259634e+00f, -5.071022e-01f, -1.249402e+00f, +2.649746e-02f, -6.635252e-01f, -2.509806e-01f, +5.765663e-02f, -1.092927e+00f, -5.228382e-01f, -7.334859e-02f, +1.135848e+00f, -1.122183e+00f, -7.386966e-01f, +9.685738e-01f, +5.069572e-01f, +1.379091e-01f, +3.456465e-01f, +1.058210e+00f, -8.914677e-01f, +1.116282e+00f, +4.886485e-01f, -4.579090e-01f, +6.605590e-01f, -1.677275e-01f, -9.573123e-01f, +7.493958e-03f, -4.605280e-02f, +1.988262e-04f, -3.770729e-01f, -6.217620e-02f, -9.665219e-02f, +7.842071e-02f },
    { +3.562267e-01f, -1.959903e-01f, +7.843396e-01f, +3.225423e-01f, -8.217512e-01f, -7.915172e-02f, -1.606741e-01f, -2.264385e-01f, +2.492722e-01f, -6.929003e-02f, -4.646953e-01f, +9.717402e-01f, -3.117891e-01f, +9.782925e-03f, -4.639908e-01f, -5.583943e-02f, -2.245047e-02f, -2.928346e-01f, -5.988295e-02f, -5.671450e-02f, +1.068329e-01f, +3.395520e-01f, -1.280531e-01f, -2.032411e-01f, -1.086121e-01f, +1.477718e-01f, +1.301943e-01f, +1.625267e-01f, -2.185617e-01f, +3.930984e-01f, -3.930339e-01f, -1.482708e-01f },
    { -1.187338e+00f, +4.942120e-01f, +1.757622e+00f, +2.560826e-01f, -2.138412e-01f, +4.606076e-01f, -1.437734e-02f, +3.413106e-01f, +3.573828e-01f, -1.739459e-01f, +2.910843e-01f, +1.430519e+00f, -3.305275e-01f, -1.546910e-01f, +5.447973e-01f, -5.123146e-02f, +5.488840e-01f, -1.122970e+00f, +6.283534e-01f, +3.943017e-01f, +4.374048e-01f, -2.317216e-02f, +3.942981e-01f, +2.215421e-01f, -5.870296e-01f, -9.172750e-02f, +1.075845e+00f, -1.664281e-01f, -2.438066e-02f, -9.502380e-01f, -2.482709e-01f, +1.453799e-01f },
    { -7.993375e-01f, -1.878327e-01f, +2.268595e-01f, -1.991989e-01f, -3.958905e-02f, -1.066392e-01f, +5.826113e-02f, +2.465627e-02f, -1.225224e-01f, -8.025870e-02f, +5.390221e-02f, +4.081333e-02f, -2.909835e-01f, -4.205641e-01f, +1.370766e-01f, +5.711125e-02f, -6.902281e-02f, +1.338207e+00f, +2.602416e-02f, -1.201892e+00f, -2.617883e-01f, +4.573843e-01f, -9.999177e-01f, +1.574380e-01f, -2.004366e-01f, -4.245046e-02f, +2.692969e-01f, -1.151981e-01f, -1.970768e-01f, +5.997057e-01f, -2.067641e-01f, -1.655692e-01f },
    { +1.106711e-02f, +4.276429e-01f, +4.995868e-02f, +1.058328e-01f, -3.790065e-01f, -6.854598e-01f, -2.668518e-02f, -8.471120e-01f, -3.466801e-01f, -1.137385e-01f, +1.229043e-01f, -4.075603e-01f, -3.734252e-01f, -6.942806e-01f, -7.268263e-01f, +6.666963e-02f, +3.364804e-01f, -3.342410e-01f, +4.503039e-01f, +8.566695e-01f, +2.018977e-01f, -9.029616e-02f, +1.097286e-02f, -2.975700e-01f, +3.059789e-01f, -1.482110e-01f, -1.614872e-01f, -1.625414e-01f, -8.971537e-01f, -3.150041e-02f, -6.747522e-01f, +1.726949e-01f },
    { -3.309199e-01f, -4.961019e-01f, -3.512683e-01f, -2.441017e-01f, -6.581753e-01f, -3.614138e-02f, +2.584881e-02f, -2.251538e-01f, -5.625910e-01f, -1.478242e-01f, +5.516505e-01f, -4.498346e-01f, -4.180341e-01f, +1.356870e+00f, +1.269811e-01f, -4.008476e-02f, +1.476240e-01f, -7.939876e-01f, -5.402797e-01f, -6.496543e-01f, +2.737371e-01f, -3.017702e-01f, +8.077685e-02f, -3.892443e-01f, +3.903996e-01f, +8.967221e-03f, -3.996083e-01f, -1.009152e-01f, +1.565974e-01f, -3.955089e-02f, -4.058398e-01f, -8.392870e-03f },
    { -1.548717e-01f, -9.727065e-02f, -1.279425e-01f, +8.767460e-02f, -1.185373e-01f, -1.472872e-02f, +3.814059e-02f, -1.290144e-01f, +5.099478e-02f, -1.726089e-01f, -1.264852e-01f, -1.601815e-01f, -8.554576e-02f, -6.758282e-02f, +3.398086e-03f, -3.268857e-02f, +8.309956e-02f, +1.620681e-01f, +3.148090e-02f, -7.880835e-02f, -1.974939e-01f, +3.230921e-02f, -1.106869e-01f, +7.240757e-02f, +8.619106e-02f, +6.818639e-02f, +1.340573e-01f, +1.679019e-01f, +5.434757e-03f, -1.381587e-01f, +1.256691e-01f, -8.387979e-02f },
    { +1.306700e-01f, -7.433021e-01f, +2.375065e-01f, +7.881133e-03f, -1.238535e-01f, -2.450688e-01f, -1.835015e-02f, -8.050451e-02f, -5.138624e-01f, +3.152553e-02f, -2.678491e-01f, -2.469724e-01f, -9.852134e-02f, +3.878880e-01f, +4.122899e-01f, -3.128923e-02f, +4.604390e-01f, -8.714603e-01f, -4.273457e-01f, +9.377959e-01f, +6.847289e-01f, -1.174218e+00f, +6.192333e-01f, -7.323989e-01f, -4.809668e-01f, +3.231786e-02f, -2.693716e-02f, -4.610784e-02f, +7.665435e-02f, +5.184054e-02f, -2.645271e-01f, +5.510858e-02f },
    { +8.758802e-02f, -6.174206e-02f, -3.583134e-02f, -3.974055e-02f, -3.023156e-01f, +2.926148e-01f, +1.596251e-01f, -6.488711e-01f, +5.916899e-02f, +6.129992e-02f, -1.325197e+00f, -1.668300e-01f, -2.554551e-01f, +3.946508e-01f, -8.865841e-02f, +1.564959e-01f, +1.485924e-01f, +2.595870e-01f, -1.877898e-01f, -9.212012e-01f, +3.714329e-01f, +5.821178e-02f, +2.517744e-01f, +4.021737e-01f, +5.054437e-02f, +4.749306e-02f, +2.818524e-01f, +6.428704e-03f, +4.662850e-03f, +1.274657e-01f, -5.706435e-02f, +1.066516e-01f },
    { -1.492298e-01f, -4.735127e-02f, +2.677296e-01f, -9.839594e-02f, +1.591075e-01f, -2.499900e-01f, -4.901056e-02f, -1.524943e-01f, -7.079141e-02f, +7.140797e-02f, -2.451321e-01f, -7.463268e-02f, -7.960530e-02f, +1.439393e-01f, +7.703557e-03f, -5.752648e-02f, -1.684729e-01f, -6.351358e-02f, +2.276128e-02f, -5.069592e-01f, -2.197611e-01f, +1.972259e-01f, -2.746809e-01f, -2.154081e-01f, +1.070848e-01f, +9.386210e-02f, +2.629201e-01f, -1.678506e-01f, -3.267773e-01f, -1.961093e-01f, +5.418880e-02f, +1.808433e-02f },
    { -7.215318e-02f, -7.602428e-02f, -4.556062e-03f, -1.773629e-01f, -4.222239e-01f, -1.816827e-01f, +5.475423e-02f, +4.475319e-02f, -1.597189e-01f, -4.857739e-02f, -1.342311e-01f, +5.780572e-02f, -1.428019e-01f, -2.616985e-01f, -2.811740e-01f, -2.552125e-02f, -5.393048e-01f, -3.954527e-01f, -2.386565e-01f, -1.613200e-01f, -5.961930e-02f, -9.836545e-01f, -1.154277e-01f, +1.119494e-01f, -2.745039e-01f, -2.190033e-02f, -7.865352e-01f, +3.294407e-02f, -2.537017e-01f, -4.760374e-01f, +3.263705e-01f, +7.956909e-02f },
    { -2.150446e-01f, -3.504930e-01f, +2.905245e-02f, -1.261409e-01f, -4.842620e-02f, -2.703390e-01f, -1.062372e-02f, -3.767268e-01f, -5.106076e-02f, -7.199093e-02f, -2.679541e-01f, -2.294872e-01f, +7.394901e-02f, -1.772631e-01f, -2.689742e-01f, -6.641104e-02f, -9.066509e-02f, -7.003304e-02f, +4.353400e-02f, -9.763061e-02f, -9.182752e-02f, -1.329758e-01f, -7.698819e-02f, -3.830652e-02f, -1.335908e-01f, +5.642658e-02f, +1.040073e-01f, +9.815706e-02f, -3.243313e-01f, +7.203525e-02f, -1.223762e-01f, -1.118663e-01f },
    { -1.982355e-01f, -2.444740e-01f, +2.821175e-01f, -3.294481e-01f, -1.649278e-01f, -2.120793e-01f, +8.836927e-02f, -3.091829e-01f, -5.017678e-02f, -1.533770e-01f, -2.735478e-01f, +4.652496e-01f, +2.446846e-01f, -7.088788e-01f, -1.485039e-01f, -1.938330e-02f, -3.684755e-01f, -2.079816e-02f, -6.554337e-02f, +1.675030e-01f, -1.845804e-01f, -1.177915e-01f, +4.303239e-02f, +2.591246e-02f, -1.201747e-02f, -8.519665e-02f, +6.516591e-02f, -2.602230e-02f, -2.385836e-01f, -2.563048e-01f, +1.591314e-01f, +8.508563e-06f },
    { -8.131468e-01f, -6.275395e-01f, +2.781927e-01f, -8.998022e-02f, +2.288098e-01f, -7.606083e-02f, +1.512235e-01f, +7.228727e-01f, -4.176241e-01f, +6.698213e-03f, -7.318838e-01f, +3.576013e-01f, +8.623349e-01f, -8.854972e-01f, -1.915658e-01f, +1.105868e-01f, -1.662519e-01f, -3.569500e-01f, +6.193988e-01f, -3.510783e-01f, +1.321424e-01f, -2.476239e-01f, -5.871680e-01f, +5.610962e-01f, +3.484471e-01f, -5.963045e-02f, +3.723462e-01f, -1.590008e-01f, +1.469624e-01f, +9.263289e-01f, +7.491556e-01f, +1.031588e-01f },
    { -1.383137e+00f, -3.577214e-03f, -6.171671e-02f, +1.788698e-01f, -8.075573e-01f, -5.533670e-01f, +1.494607e-01f, +1.231382e-01f, +2.948680e-01f, +1.199253e-01f, +1.109464e+00f, -4.087552e-01f, -3.722647e-01f, +1.697789e-01f, +9.800597e-02f, +1.749195e-01f, +7.960981e-01f, +2.861978e+00f, -3.686883e-01f, +5.713647e-01f, -2.403404e-01f, -2.344626e-01f, -1.504567e-01f, -1.159069e+00f, -1.597357e+00f, +1.385113e-01f, -7.542516e-02f, +5.556417e-02f, -8.403398e-01f, +5.873129e-02f, -6.097069e-01f, +6.240459e-02f },
    { -5.427012e-01f, -6.084589e-01f, +6.583492e-01f, -9.844614e-02f, -4.470363e-01f, -2.639849e-01f, +7.899590e-02f, +7.156133e-01f, -2.698219e-01f, +9.111112e-02f, -6.656778e-01f, +6.264819e-01f, -1.194471e-01f, -3.624636e-01f, +3.439691e-01f, -7.193586e-02f, +1.077770e-01f, -1.024266e+00f, +5.612175e-01f, -5.742946e-01f, +7.982338e-01f, +7.324761e-01f, +1.024267e-01f, +3.500809e-01f, +1.927470e-01f, -7.862315e-02f, +1.438771e+00f, -1.618633e-01f, +7.021241e-01f, +2.175451e-01f, +5.937166e-01f, +1.402815e-01f },
    { +6.410854e-02f, +3.232515e-01f, -4.533474e-02f, +1.036464e-01f, +4.360216e-01f, -2.159777e-01f, -1.376861e-01f, -4.788112e-01f, +7.980630e-01f, +9.548841e-02f, +3.085271e-01f, +6.978891e-01f, -4.320335e-01f, -5.463930e-01f, +5.798476e-02f, +1.325226e-02f, -4.987833e-01f, -1.170702e+00f, +2.015128e-01f, -2.177899e-01f, -6.750509e-01f, +6.324008e-01f, -5.529925e-01f, -3.272642e-01f, -3.043848e-01f, +7.075442e-02f, +1.044055e-01f, -8.158073e-03f, -1.870321e-01f, -4.919480e-01f, -1.688608e-01f, -1.424037e-01f }
};
const float B2[32] PROGMEM = {
    +4.962209e-01f, -6.383134e-02f, -3.834614e-02f, -1.098338e-01f, +1.449702e+00f, +9.832024e-02f, -2.781570e-01f, +1.298838e-01f, -2.771899e-01f, +9.697665e-02f, -1.558232e-01f, -1.220848e-01f, -5.250322e-02f, -1.348637e-01f, +1.411373e-01f, +3.633679e-01f, +3.030506e-02f, +2.737769e-01f, -5.682225e-01f, +3.449459e-01f, +4.541005e-02f, -1.585852e-01f, +5.334105e-01f, -8.246646e-02f, +2.164608e-01f, +1.253459e-01f, -2.642716e-02f, -1.628596e-01f, +4.571727e-02f, +2.606066e-01f, -9.367780e-02f, -2.584167e-01f
};

const float W_OUT[2][32] PROGMEM = {
    { -4.531676e-01f, +5.282522e-03f, +8.711619e-01f, +1.577254e-01f, +9.109037e-02f, +4.253238e-01f, -1.193477e+00f, -4.044705e-01f, -9.369082e-02f, +2.550093e-02f, +6.190908e-01f, +2.598829e-01f, -1.562857e-01f, -1.413896e-01f, -9.609264e-01f, -8.653870e-02f, +9.607715e-02f, +2.676145e-01f, -9.360833e-01f, +1.280967e+00f, -1.542040e+00f, +8.213025e-02f, +2.313468e-01f, +3.177324e-02f, +3.655166e-01f, -1.453209e-01f, -2.552121e-01f, +1.623525e-01f, -1.027071e-01f, -3.690998e-01f, +2.622316e-01f, -4.668621e-02f },
    { -7.998466e-01f, +9.347082e-02f, -1.827117e-01f, -6.306894e-02f, +5.528668e-01f, -1.186178e-01f, -4.108839e-01f, +1.860038e-01f, +1.421164e+00f, -1.777566e-01f, +5.010378e-01f, +1.588324e-01f, +4.678620e-02f, +1.671626e-01f, -1.492624e-01f, -3.067112e-02f, -3.023041e-01f, -2.195491e-01f, +7.291369e-01f, +1.721490e-01f, -5.915358e-01f, -1.362745e-01f, -1.430339e-01f, -2.215259e-02f, -7.501986e-03f, -2.140593e-02f, -2.946055e-01f, +3.678152e-01f, +1.672074e-02f, +1.084141e+00f, -1.672412e-01f, +7.603091e-01f }
};
const float B_OUT[2] PROGMEM = {
    +2.175290e-01f, +8.795100e-01f
};

inline float relu(float x) { return x > 0.0f ? x : 0.0f; }

inline void predict_motors(
    float front, float left, float right, float last_seen,
    float &out_left, float &out_right
) {
    const float in[INPUT_DIM] = { front, left, right, last_seen };

    float h1_act[H1_DIM];
    for (uint8_t i = 0; i < H1_DIM; ++i) {
        float s = pgm_read_float(&B1[i]);
        for (uint8_t j = 0; j < INPUT_DIM; ++j) {
            s += pgm_read_float(&W1[i][j]) * in[j];
        }
        h1_act[i] = relu(s);
    }

    float h2_act[H2_DIM];
    for (uint8_t i = 0; i < H2_DIM; ++i) {
        float s = pgm_read_float(&B2[i]);
        for (uint8_t j = 0; j < H1_DIM; ++j) {
            s += pgm_read_float(&W2[i][j]) * h1_act[j];
        }
        h2_act[i] = relu(s);
    }

    float out[OUTPUT_DIM];
    for (uint8_t i = 0; i < OUTPUT_DIM; ++i) {
        float s = pgm_read_float(&B_OUT[i]);
        for (uint8_t j = 0; j < H2_DIM; ++j) {
            s += pgm_read_float(&W_OUT[i][j]) * h2_act[j];
        }
        out[i] = tanhf(s);
    }

    out_left  = out[0];
    out_right = out[1];
}

}  // namespace mini_sumo_ai
