// Auto-generated by train.py - do not edit by hand.
// SAC actor: input(4) -> Linear(32) ReLU -> Linear(32) ReLU -> Linear(2) tanh.
//
// Inputs (must be normalised the same way the env does):
//     front     in [0, 1]  (laser distance / 0.80 m, 1.0 = no hit)
//     left      in [0, 1]
//     right     in [0, 1]
//     last_seen in {-1, 0, +1}  (Left, Front, Right last detection)
//
// Outputs (tanh-squashed mean of the SAC policy distribution):
//     out_left, out_right  in [-1, +1]  (motor commands, map to PWM)

#pragma once
#include <avr/pgmspace.h>
#include <math.h>

namespace mini_sumo_ai {

constexpr uint8_t INPUT_DIM  = 4;
constexpr uint8_t H1_DIM     = 32;
constexpr uint8_t H2_DIM     = 32;
constexpr uint8_t OUTPUT_DIM = 2;

const float W1[32][4] PROGMEM = {
    { -1.001300e-01f, -8.666763e-02f, -3.331364e+00f, +2.829630e-01f },
    { +5.557968e-01f, +4.873699e-02f, -5.470651e-01f, +1.372025e+00f },
    { +5.671954e-01f, -2.727664e+00f, +1.548931e-01f, -1.183587e+00f },
    { -1.387860e-02f, -1.302602e+00f, -2.149327e-01f, -5.416349e-01f },
    { +1.166463e+00f, -1.485994e-01f, -1.850072e+00f, +1.627426e-01f },
    { -7.248860e+00f, +2.163536e-02f, -1.364318e-01f, +4.176711e-01f },
    { -3.946851e-01f, -2.305052e-01f, -1.411874e-01f, -3.006362e-01f },
    { +7.247179e-01f, -4.173445e-01f, +1.212169e-01f, -6.657448e-01f },
    { +1.578884e+00f, -8.160578e-02f, -1.807174e-01f, +5.435172e-01f },
    { -1.257500e-01f, +5.157558e-01f, -2.925315e-01f, -5.958740e-01f },
    { -8.287880e-02f, -4.388929e-01f, +2.413207e-01f, +4.270383e-01f },
    { +1.892232e-01f, -4.945720e-01f, +3.263700e-01f, +1.837241e-01f },
    { +3.093463e-01f, -1.793043e+00f, -6.765924e-01f, -4.207014e-01f },
    { -1.037327e+00f, +3.515037e-01f, +1.141592e-01f, -2.118722e-02f },
    { -2.009842e-01f, -4.590841e-01f, +7.942697e-02f, -7.406221e-02f },
    { +3.148186e-02f, -3.412701e-01f, +1.541760e-01f, -1.721911e-01f },
    { +8.208517e-01f, -5.419986e-01f, +3.331693e-01f, -4.096082e-01f },
    { -8.119518e-01f, -2.198982e-01f, +5.204054e-01f, -7.574410e-01f },
    { +1.140120e+00f, -7.780101e-01f, -8.662825e-01f, -4.587629e-01f },
    { -7.136410e-01f, -7.272583e-02f, -5.040080e-02f, +2.337903e-01f },
    { -1.375416e-01f, -2.812843e+00f, +3.140532e-01f, -9.350742e-01f },
    { +3.736793e-01f, -1.352010e+00f, +7.232139e-02f, -3.550713e-01f },
    { -2.862052e-01f, +3.029127e-03f, -9.523117e-02f, -3.772196e-01f },
    { +1.055090e+00f, +6.190099e-01f, -6.462892e-01f, -8.149893e-01f },
    { +3.346266e-01f, +2.723268e-03f, -6.922970e-01f, -5.231097e-01f },
    { -2.863351e-01f, +1.249018e-01f, -6.599659e-02f, -3.629430e-01f },
    { +1.834236e-01f, -4.030522e-01f, -4.274681e-01f, -1.627350e+00f },
    { -4.376060e-01f, -3.183690e-01f, +4.998044e-01f, +9.443748e-02f },
    { +5.860955e-01f, -1.567883e+00f, +1.052607e-01f, -8.346200e-01f },
    { +6.483727e-01f, -2.383362e-01f, -5.140769e-01f, -4.682796e-01f },
    { -2.015503e-01f, -3.239848e+00f, -3.818690e-01f, -8.738427e-01f },
    { -3.431976e-01f, -2.917009e-01f, -1.711487e-01f, -3.946404e-01f }
};
const float B1[32] PROGMEM = {
    -9.924106e-02f, -1.298781e-01f, -2.564940e-02f, -3.165190e-01f, -7.917753e-01f, +4.258818e-01f, -1.375724e-01f, -6.218320e-01f, -5.739920e-01f, -8.640240e-01f, -1.573044e-01f, -3.362219e-01f, -5.738423e-02f, -4.705752e-01f, +4.327762e-02f, -3.670269e-01f, -4.707063e-01f, +1.512541e-01f, +4.641572e-01f, +1.187871e-01f, +5.040826e-01f, -8.079742e-01f, -5.268820e-02f, -3.028392e-01f, -1.790636e-01f, -3.742450e-01f, +4.797945e-01f, -3.669752e-01f, +7.732423e-01f, -8.154501e-02f, -1.882872e-01f, -2.703231e-01f
};

const float W2[32][32] PROGMEM = {
    { +5.206812e-01f, +5.059941e-02f, -3.109172e-01f, -2.294465e-01f, +2.956213e-02f, +1.068810e-01f, -8.098570e-02f, +1.844018e-02f, -1.240430e-02f, -1.446215e-01f, -2.778450e-03f, -2.198236e-01f, -6.754434e-02f, -1.700700e-01f, -4.869564e-01f, -6.053592e-02f, -8.679389e-01f, -8.814269e-02f, +2.166148e-02f, -3.995489e-01f, -1.181985e-01f, -1.821453e-01f, -1.142014e-01f, +1.827903e-02f, +4.419181e-01f, +9.289847e-02f, +2.665814e-02f, -3.106345e-02f, +3.290952e-03f, -2.904238e-01f, -7.071374e-02f, -5.267964e-02f },
    { +4.093681e-01f, +1.359504e-01f, -1.647760e-01f, +2.093058e-02f, -6.894369e-01f, -7.980680e-01f, +4.249911e-02f, +1.148764e-01f, -1.165719e+00f, +5.383452e-01f, -3.229510e-02f, -2.212234e-01f, -6.370637e-01f, -8.372185e-02f, -7.413673e-02f, -1.583507e-01f, -1.537269e+00f, -7.797708e-02f, -8.098996e-01f, -2.914617e-02f, +2.619430e-01f, +2.630675e-01f, +5.256266e-02f, +2.050603e-01f, -8.311705e-01f, -4.577999e-02f, -6.385954e-01f, -6.733098e-02f, -1.836237e+00f, -2.087903e-01f, -3.362666e-01f, -3.543785e-02f },
    { -1.989591e-01f, +2.977933e-02f, +1.339322e-01f, +6.442595e-02f, -1.882581e-01f, -1.973234e-01f, -1.435743e-01f, +1.086482e-01f, -1.619185e-02f, +1.487584e-01f, +9.260799e-02f, +2.158011e-02f, -1.731113e-03f, -1.344397e-01f, -1.746218e-01f, -1.653478e-01f, +2.619277e-02f, -8.679169e-02f, -1.047144e-01f, -1.249180e-01f, -3.221288e-02f, -1.244216e-01f, -1.155087e-01f, +1.741677e-02f, -5.253740e-02f, +1.091319e-01f, -5.671151e-02f, -1.296776e-01f, -3.119029e-02f, -1.370869e-01f, -5.408334e-02f, -1.682906e-01f },
    { +5.723162e-02f, -1.937700e-01f, +4.590958e-02f, +3.560337e-02f, +5.435383e-02f, -1.584193e-01f, +1.271372e-01f, -6.075255e-02f, -1.107073e-02f, +1.544173e-01f, -6.268579e-02f, -4.560079e-02f, -4.069939e-02f, -1.796900e-01f, +3.916948e-02f, -1.754894e-01f, +1.784343e-02f, +9.946128e-02f, +1.135066e-01f, -8.205832e-02f, -1.893060e-01f, -6.225267e-02f, +5.362197e-02f, -2.624943e-01f, -9.334812e-02f, -1.059698e-01f, -1.546155e-02f, -8.701187e-02f, -7.226058e-02f, -9.498426e-02f, -1.679916e-01f, +1.450466e-01f },
    { +1.007699e-01f, -4.456428e-02f, -1.435214e-01f, -1.542483e-01f, -1.388826e-01f, -2.287485e-01f, +6.570055e-02f, -1.889501e-01f, -1.081436e-01f, -1.741060e-02f, -7.655700e-02f, -9.493173e-02f, -6.241153e-02f, -1.215185e-01f, -1.421271e-01f, -8.464172e-02f, -2.449216e-01f, +3.528367e-02f, -1.324142e-01f, -1.274009e-03f, -1.471261e-01f, -7.192215e-02f, +1.033008e-01f, -1.852147e-02f, -2.168303e-01f, +7.016316e-02f, +1.202633e-01f, +4.650700e-02f, +4.625721e-02f, +1.262692e-01f, -1.058667e-01f, +3.669079e-02f },
    { -8.154759e-02f, -1.353031e-01f, +2.324253e-01f, +1.388456e+00f, -3.346375e+00f, -1.443643e+00f, -1.208028e-01f, -6.822746e-01f, -1.732328e+00f, -5.446825e-01f, -1.164097e-01f, -3.815300e-01f, +1.607902e+00f, -7.121474e-03f, -2.976871e-01f, -1.314938e-01f, -8.551056e-01f, -5.370637e-01f, -5.861023e-01f, +7.701246e-02f, -1.778739e+00f, -2.380026e-01f, -1.025415e-01f, -2.629353e-01f, +1.116929e+00f, -9.465715e-02f, -1.565791e-01f, -8.538574e-02f, +9.685086e-01f, +2.456375e-01f, -1.697076e-01f, +9.685768e-02f },
    { +9.282005e-02f, +4.224255e-02f, -2.039468e-01f, -2.674469e-02f, +4.486210e-02f, -6.262727e-02f, -1.041708e-01f, +1.685283e-01f, -1.141588e-01f, -1.006468e-01f, -2.027398e-01f, -4.369166e-02f, +7.833560e-02f, +1.614776e-02f, -7.494213e-03f, -1.340652e-01f, -1.650895e-01f, +3.112927e-03f, +9.697309e-02f, +5.767763e-02f, -1.029254e-01f, -2.294713e-02f, -1.812637e-01f, -1.451051e-01f, -3.320032e-02f, +9.626172e-02f, +1.267151e-01f, -1.622998e-01f, +6.012272e-02f, -1.246792e-01f, +6.619708e-02f, +1.495964e-01f },
    { -3.727056e-01f, +4.644097e-01f, -7.537903e-01f, -4.680072e-01f, +8.101053e-01f, -2.869174e-02f, -3.618623e-02f, -1.849498e-01f, +5.065609e-01f, +9.185174e-02f, -1.703898e-01f, -3.015967e-01f, -1.314295e-02f, -5.160922e-01f, -1.081756e+00f, -8.161990e-02f, -2.306860e+00f, -6.382559e-01f, +8.126761e-02f, -3.043093e-01f, -3.795877e-01f, -3.396779e+00f, -2.917750e-01f, +2.343792e-01f, -5.251585e-01f, +5.507541e-02f, -8.767203e-01f, -6.915895e-02f, -8.508966e-02f, -9.353857e-01f, +1.818858e-01f, -8.557985e-02f },
    { -9.975221e-02f, -2.613935e+00f, -5.973825e-01f, +3.851019e-01f, -1.319395e+00f, -4.000296e-01f, -1.325221e-01f, +1.918059e-01f, -9.845871e-01f, +3.129987e-01f, -1.092818e-01f, -8.056875e-01f, +8.136600e-01f, -1.748789e-03f, -8.774609e-02f, -2.234767e-02f, -5.015933e-01f, -6.259493e-01f, -9.343750e-01f, -7.158238e-02f, -1.041157e+00f, +4.418637e-01f, +1.155738e-03f, +5.306562e-01f, -1.885961e-01f, +1.285391e-01f, -8.308410e-01f, +1.379918e-01f, -2.202206e-01f, +3.507354e-01f, -1.270761e-01f, +1.418283e-01f },
    { +1.294214e-01f, -1.084952e-01f, -2.740028e-02f, -1.904394e-01f, -9.946684e-02f, -4.441821e-02f, +4.702872e-02f, -2.627910e-02f, -9.299573e-04f, +1.473915e-01f, +2.229311e-02f, -1.103313e-01f, -7.827317e-02f, -3.774441e-02f, +3.434730e-02f, -1.249954e-01f, +4.034078e-02f, -1.427519e-01f, -1.844726e-01f, -1.244155e-01f, +1.148105e-01f, +1.324672e-01f, +1.198599e-01f, +1.151569e-01f, +1.484760e-01f, -2.366151e-02f, -1.508191e-01f, +8.832763e-02f, -1.356248e-01f, -1.910279e-01f, -8.604565e-02f, +3.709823e-02f },
    { +8.075199e-02f, -6.866166e-02f, -1.372847e-01f, -9.914872e-03f, -1.110740e-01f, -1.261521e-01f, +9.214519e-02f, -5.288420e-02f, +1.273317e-01f, +1.719653e-01f, +4.236594e-02f, +5.010188e-02f, +4.070880e-02f, -9.259201e-03f, -2.351058e-02f, +2.429634e-03f, +4.282793e-02f, +1.300004e-01f, -6.900170e-02f, -8.516018e-02f, -5.499159e-02f, -1.085933e-01f, +1.888947e-02f, +7.889614e-02f, +1.150470e-01f, +8.116268e-02f, -1.764631e-01f, -9.487689e-02f, -6.202831e-02f, -7.895719e-02f, +1.453948e-02f, -1.622760e-01f },
    { +1.838401e-01f, +1.307530e-01f, -8.299118e-01f, +4.077767e-01f, -7.647404e-02f, -4.148355e-02f, +1.333545e-01f, -1.188391e-01f, +6.833597e-02f, -2.338306e-01f, +2.460102e-01f, +2.866784e-01f, -3.361361e-01f, -3.339311e+00f, +3.331700e-01f, +3.337173e-02f, +9.375411e-02f, -2.787863e+00f, -1.323260e+00f, -1.300591e+00f, -5.286190e-01f, +4.686547e-02f, -1.869451e-01f, -3.966004e-01f, -2.996100e-01f, +7.747725e-03f, -1.227692e+00f, +1.437533e-01f, +1.071652e+00f, -1.768628e-01f, -7.468694e-01f, +3.145809e-02f },
    { +2.658562e-01f, -9.037430e-01f, +2.199546e-01f, +2.693985e-01f, -3.942494e-01f, -5.025052e-01f, -3.953728e-02f, +2.760959e-01f, -1.785793e+00f, +5.220913e-01f, -1.351408e-01f, +9.457501e-02f, +5.198845e-01f, -5.755016e-01f, +1.197799e-01f, +1.756252e-01f, -2.673005e-01f, -3.450351e-01f, -1.716244e+00f, -1.369749e-01f, -8.705031e-01f, +3.624701e-01f, -3.167695e-01f, +5.575379e-01f, -7.614604e-01f, -1.630969e-01f, -1.336424e+00f, -1.742724e-01f, -1.627570e+00f, -1.925255e-01f, -3.815432e-01f, -5.258449e-02f },
    { -8.574267e-02f, -3.331302e-02f, -8.721647e-02f, -8.358578e-02f, +2.942501e-02f, -2.319067e-01f, +2.161533e-02f, +5.971910e-01f, +3.457383e-02f, +4.807332e-02f, -1.029532e-01f, -2.604927e-02f, +9.719968e-03f, -1.510696e-02f, -6.833729e-03f, +1.536062e-01f, -4.178096e-01f, -5.069981e-02f, -1.211870e+00f, -2.392841e-02f, -1.415586e-02f, +2.004838e-01f, +1.233723e-01f, -5.913984e-01f, -1.924487e-01f, +9.237979e-02f, -1.673064e-01f, -6.837709e-02f, -3.443941e-02f, -9.857609e-01f, -1.124102e-01f, -2.885325e-02f },
    { -2.536981e-01f, -6.339975e-01f, -1.570890e+00f, -3.317092e-01f, +2.907854e-01f, -2.117603e+01f, +6.252900e-02f, -4.150098e-01f, +5.086930e-01f, -5.020881e-01f, +1.288690e-01f, +1.510541e-01f, -6.849586e-01f, -3.630147e-01f, -1.185281e-01f, -9.889014e-02f, -1.124903e-01f, -5.826043e-01f, +2.870158e-01f, +1.209138e-01f, +4.172629e-01f, -3.040612e-01f, -3.120914e-01f, +3.011918e-01f, -8.840134e-02f, +1.405587e-01f, -9.003059e-01f, -7.257904e-02f, +3.942279e-01f, -2.320173e-01f, -1.076815e+00f, -4.045898e-02f },
    { -1.317418e-02f, -1.934055e-01f, +8.211741e-02f, +3.947163e-02f, -2.052705e-01f, -1.220186e-01f, +5.765663e-02f, -6.385489e-02f, -5.888917e-02f, -9.159257e-02f, +9.425149e-02f, -1.888334e-01f, +1.222040e-01f, -1.884294e-02f, -4.292476e-02f, +1.379091e-01f, -9.882973e-02f, -1.703750e-01f, -5.564626e-02f, +9.397464e-02f, -2.381586e-01f, -4.637146e-02f, -2.233139e-01f, +7.202101e-03f, -1.242883e-02f, +7.493958e-03f, +4.829838e-02f, +1.988262e-04f, +7.389040e-02f, -1.689764e-01f, -5.233550e-02f, +7.842071e-02f },
    { +9.973186e-01f, +1.736807e-01f, -6.832791e-01f, +6.464826e-02f, -1.562816e+00f, -1.865225e+00f, -1.606741e-01f, +4.844301e-01f, -4.038912e-01f, +1.060559e-01f, -1.097713e-02f, -4.466064e-01f, -1.790625e-01f, -3.229462e-01f, -4.391149e-02f, -5.583943e-02f, -1.473195e+00f, -3.583489e-01f, -1.478687e+00f, -1.439554e-01f, +3.415596e-01f, -2.443890e-01f, +7.899513e-03f, +3.234337e-01f, +3.542560e-01f, +1.477718e-01f, -7.599477e-01f, +1.625267e-01f, -5.747635e-01f, +5.345740e-02f, -1.500804e-01f, -1.482708e-01f },
    { -2.179182e-01f, -3.927432e+00f, -3.110886e-01f, +2.328130e-01f, -8.635178e+00f, -6.744989e+00f, -1.437734e-02f, +2.018944e-01f, -9.266252e+00f, +5.243829e-01f, -2.699401e-02f, -1.349487e+00f, -2.255792e-01f, +1.026556e-01f, +1.046527e-01f, -5.123146e-02f, -7.613427e-01f, +1.122821e-01f, -1.348454e+00f, +9.901220e-01f, -6.005581e-01f, -2.729497e-01f, +6.402542e-02f, -1.546266e+00f, -3.882356e-01f, -9.172750e-02f, -7.971760e-01f, -1.664281e-01f, -1.121849e+00f, +2.356410e-01f, -6.002353e-01f, +1.453799e-01f },
    { -3.247507e-02f, -3.449462e-02f, +2.220197e-01f, +9.609507e-02f, +2.082475e-01f, -1.275978e+00f, +5.826113e-02f, +3.238137e-01f, +1.633402e-01f, +8.830346e-01f, -9.344344e-02f, +6.862003e-03f, +4.365632e-01f, -5.953959e+00f, +4.199225e-02f, +5.711125e-02f, +4.827536e-02f, -9.300952e-01f, -3.613093e-01f, -3.478151e+00f, +2.322557e-01f, +6.150083e-02f, -3.501718e-02f, +9.827984e-01f, -2.372164e-01f, -4.245046e-02f, -2.455245e-02f, -1.151981e-01f, -5.916070e-01f, +2.275904e-01f, -8.368222e-01f, -1.655692e-01f },
    { -2.328804e-01f, -5.859124e-01f, -1.377845e-01f, -1.027048e-01f, -5.740006e+00f, -2.388394e-01f, -2.668518e-02f, -6.906943e-01f, -9.505662e+00f, +4.118970e-01f, -1.044705e-01f, -2.183156e-01f, -2.689912e-03f, -7.049395e-01f, +1.478675e-01f, +6.666963e-02f, -9.203514e-01f, -1.084086e+00f, -1.740743e+00f, -2.756874e-01f, -6.546965e-01f, +1.947535e-02f, -1.517722e-01f, -3.203273e-01f, -1.862502e-01f, -1.482110e-01f, -5.232425e-01f, -1.625414e-01f, -5.137435e-01f, -1.366235e+00f, -2.355115e-01f, +1.726949e-01f },
    { -3.495197e-02f, -2.203860e+00f, -1.069402e+00f, +2.334156e-01f, -6.867926e+00f, -2.278798e-01f, +2.584881e-02f, +1.520673e+00f, -7.377906e+00f, -4.313275e-01f, -8.089349e-02f, -1.657564e+00f, +9.573869e-02f, -9.594778e-01f, -5.693343e-02f, -4.008476e-02f, -3.907915e+00f, -5.886214e+00f, -7.083089e+00f, -1.028503e+00f, -5.752300e-03f, -2.831104e-02f, -2.270552e-01f, +4.508500e-01f, -1.957233e-01f, +8.967221e-03f, -1.082605e+00f, -1.009152e-01f, -4.969329e-01f, +6.900958e-01f, -3.328482e-01f, -8.392870e-03f },
    { -1.548717e-01f, -9.727065e-02f, -1.850366e-01f, +5.498034e-02f, -9.538171e-02f, -1.472872e-02f, +3.814059e-02f, -1.571020e-01f, +5.099478e-02f, -1.791045e-01f, -1.264852e-01f, -1.763426e-01f, -7.884371e-02f, -1.129897e-01f, -3.510319e-02f, -3.268857e-02f, +2.249592e-02f, +9.944855e-02f, +1.337920e-02f, -6.964427e-02f, -2.023375e-01f, +2.887841e-03f, -1.198498e-01f, +2.992889e-02f, +7.462667e-02f, +6.818639e-02f, +1.105542e-01f, +1.679019e-01f, -1.490699e-02f, -1.869955e-01f, +1.003091e-01f, -8.387979e-02f },
    { -1.769097e-01f, -2.445231e+00f, -5.831163e-01f, +1.574929e-01f, -6.766537e+00f, -7.574004e+00f, -1.835015e-02f, +3.895395e-01f, -7.044112e+00f, -4.456458e-01f, -3.349264e-01f, -1.514120e+00f, -1.895084e-01f, -1.335664e-01f, +1.564715e-02f, -3.128923e-02f, -2.756076e+00f, -5.972601e-01f, -4.480651e+00f, +2.241033e-01f, +3.506627e-01f, +2.202850e-01f, +2.654606e-02f, -9.417928e-01f, -1.723515e-01f, +3.231786e-02f, -4.547815e-01f, -4.610784e-02f, -3.268362e-02f, +2.041784e-01f, -4.339854e-01f, +5.510858e-02f },
    { -1.090837e-01f, -1.651530e-01f, -9.014079e-02f, -1.146147e-01f, +6.622042e-02f, +7.044078e-02f, +1.596251e-01f, -4.580314e-02f, -5.709084e-02f, +6.129992e-02f, -1.905112e-01f, -5.375800e-02f, -3.500885e-02f, -9.911057e-02f, -1.832370e-01f, +1.564959e-01f, +9.736391e-02f, +5.875706e-02f, +7.594910e-02f, -1.412817e-01f, -3.053334e-02f, +2.056436e-02f, -2.920821e-02f, -1.274234e-01f, -1.924584e-01f, +4.749306e-02f, -1.522086e-01f, +6.428704e-03f, +1.260006e-01f, -1.007812e-01f, -5.571856e-02f, +1.066516e-01f },
    { -6.499252e-02f, -2.596658e-01f, +1.461657e-01f, -1.659707e-01f, -1.248185e+00f, -1.483637e+00f, -4.901056e-02f, -7.736766e-01f, +3.698483e-02f, +7.140797e-02f, +3.004102e-02f, -1.303409e-01f, -1.701448e-01f, -7.683146e-02f, -1.616887e-01f, -5.752648e-02f, +3.072343e-02f, +4.458987e-01f, -8.775401e-01f, -6.007237e-01f, -2.015472e-01f, -4.920442e-01f, -1.064243e-01f, -3.124227e-01f, +3.261709e-01f, +9.386210e-02f, +4.274864e-01f, -1.678506e-01f, -1.241456e-01f, -2.108047e-02f, +1.275798e-01f, +1.808433e-02f },
    { +7.524331e-01f, -5.569812e-01f, +2.823848e+00f, +5.498496e-01f, +3.751903e-01f, -6.925953e-01f, +5.475423e-02f, +2.242094e-01f, +1.480450e-01f, -9.318811e-02f, +2.439675e-01f, -1.762983e-01f, -8.889571e-01f, -2.849950e-01f, -3.092765e-01f, -2.552125e-02f, +5.723590e-01f, -6.371181e-01f, -1.011645e-01f, -6.639533e-02f, -4.572087e-01f, +6.170081e-01f, +1.838084e-01f, -3.434728e-01f, -8.572243e-02f, -2.190033e-02f, -7.309403e-01f, +3.294407e-02f, -9.033806e-02f, +1.350557e-02f, -4.007027e-01f, +7.956909e-02f },
    { -8.324625e-02f, -2.458274e-01f, +2.610503e-02f, -9.706569e-02f, -1.260104e-01f, +2.880464e-02f, -1.062372e-02f, -3.072647e-01f, -4.239761e-02f, -8.284351e-02f, -1.265440e-01f, +5.736284e-03f, -8.849870e-02f, -2.332142e-01f, -1.397150e-01f, -6.641104e-02f, -9.613682e-02f, -1.656577e-01f, -5.052700e-04f, -3.394248e-01f, -1.183688e-01f, -1.097057e-01f, +8.260231e-03f, -5.481291e-02f, -1.961376e-01f, +5.642658e-02f, -1.092346e-02f, +9.815706e-02f, -2.346700e-01f, -2.173379e-01f, -1.293974e-01f, -1.118663e-01f },
    { -7.209522e-02f, -5.502499e-01f, -2.335099e-01f, -7.653060e-01f, -3.791421e-01f, -3.946695e-01f, +8.836927e-02f, +3.806639e-02f, -3.818327e-01f, +3.700719e-01f, -2.240234e-01f, -9.957255e-01f, -2.068471e-01f, -4.928923e-02f, -7.912734e-02f, -1.938330e-02f, -4.581857e-01f, +3.167531e-01f, -4.633920e-01f, -3.587365e-01f, +7.151827e-01f, -7.183344e-02f, +3.279937e-01f, +4.393285e-01f, +1.024631e-01f, -8.519665e-02f, -4.101096e-02f, -2.602230e-02f, -1.812508e+00f, +2.602326e-01f, +8.840011e-01f, +8.508563e-06f },
    { -9.582948e-03f, -3.183945e+00f, -6.291301e-01f, -9.731827e-02f, -5.186350e+00f, +4.545307e-01f, +1.512235e-01f, -1.610768e+00f, -3.055426e+00f, +2.835446e-01f, -2.368280e-01f, -2.436567e-01f, +1.074834e-01f, +9.226049e-02f, +6.232322e-02f, +1.105868e-01f, -8.745352e-01f, +6.954345e-02f, -2.535126e+00f, +7.384824e-02f, -2.928025e-01f, -1.854591e-01f, -8.778866e-02f, -2.337764e-01f, -5.241782e-01f, -5.963045e-02f, -4.712434e-01f, -1.590008e-01f, -6.831061e-01f, -4.800655e-01f, -1.690001e-01f, +1.031588e-01f },
    { -6.700141e-03f, -2.156318e+00f, +5.388342e-01f, +3.080918e-01f, -7.498769e+00f, -1.060445e+00f, +1.494607e-01f, -8.709170e-01f, -9.809302e+00f, +5.307376e-02f, -2.838463e-01f, +3.545137e-01f, +1.756114e-01f, -4.035361e-01f, +2.207217e-02f, +1.749195e-01f, -1.392366e+00f, -1.334323e+00f, -4.746564e+00f, -8.449616e-01f, -5.567231e-01f, -5.835314e-01f, -4.320306e-01f, +1.288014e+00f, -1.647940e+00f, +1.385113e-01f, +2.965161e-01f, +5.556417e-02f, -5.041707e-01f, -1.068303e+00f, -3.848854e-01f, +6.240459e-02f },
    { -1.063167e-01f, -2.239797e-01f, -3.052852e-03f, -1.123212e-01f, +7.156543e-02f, -2.989361e-01f, +7.899590e-02f, +3.790607e-02f, +1.430352e-02f, +2.608774e-02f, -1.681317e-01f, +1.649717e-01f, -1.309973e-01f, -3.016660e-01f, +1.616233e-01f, -7.193586e-02f, -1.036452e-02f, +1.093915e-01f, -2.197820e-01f, -1.672358e-01f, -1.088649e-02f, -8.446187e-04f, +7.911066e-03f, -1.029462e-01f, +8.263044e-02f, -7.862315e-02f, -1.832367e-01f, -1.618633e-01f, -1.506312e-02f, -1.130085e-01f, -2.344777e-01f, +1.402815e-01f },
    { +7.166806e-01f, -2.029004e+00f, -8.376170e-01f, +8.047286e-02f, -1.976979e-01f, -1.990236e+00f, -1.376861e-01f, -8.859941e-02f, +8.141814e-03f, -3.930386e-01f, +2.971258e-01f, -1.605487e-01f, -5.083076e-01f, -2.820331e-01f, -3.932988e-01f, +1.325226e-02f, +7.235659e-01f, -1.982570e-01f, -7.813450e-01f, +1.295557e-01f, -1.490361e-01f, -3.704041e-01f, +1.158501e-01f, +2.234043e-01f, -1.414762e-02f, +7.075442e-02f, +6.360959e-01f, -8.158073e-03f, +2.826143e-01f, -3.693497e-01f, +8.173483e-01f, -1.424037e-01f }
};
const float B2[32] PROGMEM = {
    -2.132033e-01f, +7.312723e-01f, -1.044666e-01f, -1.368087e-01f, -7.361006e-02f, +4.753920e-01f, -9.855251e-02f, -4.217108e-01f, +9.278245e-02f, -1.646493e-01f, -1.929485e-01f, -2.863937e-01f, +1.488097e-01f, -2.062886e-01f, +7.937407e-01f, -1.221731e-01f, +2.434600e-01f, +2.847117e-01f, +2.619470e-01f, +4.316880e-01f, -1.551934e-01f, -1.855028e-01f, +5.823030e-01f, -1.029590e-01f, +2.338837e-01f, +3.056599e-01f, -1.418537e-03f, -4.876378e-01f, +6.982558e-01f, +4.717685e-02f, -1.151106e-01f, +2.297663e-01f
};

const float W_OUT[2][32] PROGMEM = {
    { -2.635970e-02f, +4.501044e-01f, +6.398432e-02f, -4.047797e-02f, -1.305274e-01f, +4.654677e-01f, +4.362962e-02f, -7.555330e-01f, -2.308203e-01f, -1.731000e-01f, +1.530017e-01f, -2.200618e-01f, +1.044297e-01f, +6.944241e-02f, +1.798341e-01f, +1.408645e-02f, +8.828156e-02f, +1.254247e+00f, -4.619415e-01f, -1.004873e+00f, +1.035692e-01f, -5.288507e-02f, +1.742328e+00f, +5.353223e-02f, -3.883604e-02f, +2.712449e-01f, -4.507515e-02f, -2.484256e-01f, +7.039602e-01f, -3.683346e-01f, -2.129421e-01f, -2.529749e-01f },
    { +3.076855e-01f, +2.518889e-01f, -2.815822e-03f, -9.148230e-02f, -4.002757e-03f, +6.392369e-02f, -4.352461e-02f, +2.653511e-01f, +3.072226e-02f, -4.321659e-03f, +4.316161e-03f, +3.338779e-01f, +8.141010e-01f, -4.444543e-01f, -6.377868e-01f, -7.732046e-02f, -8.175610e-01f, +8.957999e-01f, -3.535731e-01f, +5.946949e-01f, +4.360208e+00f, -1.182049e-01f, +8.898438e-01f, +9.812840e-02f, -4.329641e-01f, -2.357002e-01f, -1.104844e-01f, +2.106081e-01f, +6.316411e-01f, +3.426360e+00f, +2.577376e-02f, +3.223216e-01f }
};
const float B_OUT[2] PROGMEM = {
    +3.859247e-02f, +6.488718e-01f
};

inline float relu(float x) { return x > 0.0f ? x : 0.0f; }

inline void predict_motors(
    float front, float left, float right, float last_seen,
    float &out_left, float &out_right
) {
    const float in[INPUT_DIM] = { front, left, right, last_seen };

    float h1_act[H1_DIM];
    for (uint8_t i = 0; i < H1_DIM; ++i) {
        float s = pgm_read_float(&B1[i]);
        for (uint8_t j = 0; j < INPUT_DIM; ++j) {
            s += pgm_read_float(&W1[i][j]) * in[j];
        }
        h1_act[i] = relu(s);
    }

    float h2_act[H2_DIM];
    for (uint8_t i = 0; i < H2_DIM; ++i) {
        float s = pgm_read_float(&B2[i]);
        for (uint8_t j = 0; j < H1_DIM; ++j) {
            s += pgm_read_float(&W2[i][j]) * h1_act[j];
        }
        h2_act[i] = relu(s);
    }

    float out[OUTPUT_DIM];
    for (uint8_t i = 0; i < OUTPUT_DIM; ++i) {
        float s = pgm_read_float(&B_OUT[i]);
        for (uint8_t j = 0; j < H2_DIM; ++j) {
            s += pgm_read_float(&W_OUT[i][j]) * h2_act[j];
        }
        out[i] = tanhf(s);
    }

    out_left  = out[0];
    out_right = out[1];
}

}  // namespace mini_sumo_ai
