// Auto-generated by train_novamax.py - do not edit by hand.
// SAC actor (NovaMax fine-tune):
// input(4) -> Linear(32) ReLU -> Linear(32) ReLU -> Linear(2) tanh.

#pragma once
#include <avr/pgmspace.h>
#include <math.h>

namespace mini_sumo_ai {

constexpr uint8_t INPUT_DIM  = 4;
constexpr uint8_t H1_DIM     = 32;
constexpr uint8_t H2_DIM     = 32;
constexpr uint8_t OUTPUT_DIM = 2;

const float W1[32][4] PROGMEM = {
    { -2.526654e-01f, -1.742784e-01f, -1.386996e-03f, +5.960452e-01f },
    { -1.022370e-02f, +1.863122e-01f, -1.135610e+00f, +8.958855e-01f },
    { -1.096897e-01f, -4.200616e-01f, -1.330732e-01f, -3.676595e-01f },
    { -1.448868e-01f, -1.151238e-01f, -2.762465e-01f, -7.724840e-01f },
    { +4.234062e-01f, +1.006988e-01f, -1.295069e-01f, +1.588341e+00f },
    { -8.689570e-01f, -2.709565e-01f, -3.703942e-01f, +9.843720e-01f },
    { -3.946851e-01f, -2.305052e-01f, -1.411874e-01f, -3.006362e-01f },
    { -5.491188e-02f, -1.051869e-01f, +3.402098e-01f, -1.640929e+00f },
    { +1.330867e-01f, -1.697175e-01f, +4.076925e-02f, +6.599147e-01f },
    { -4.948405e-01f, +8.014749e-01f, -1.487909e-01f, -5.402801e-01f },
    { -1.366412e-01f, -3.272616e-01f, -7.499693e-02f, -3.423555e-01f },
    { +3.963851e-02f, -4.644792e-01f, +2.969940e-02f, -2.857415e-01f },
    { +1.471901e-01f, -1.579089e-01f, -5.173575e-01f, -2.888815e-01f },
    { -8.679988e-01f, +3.384947e-01f, +1.429210e-01f, +7.751150e-01f },
    { -6.203853e-01f, -2.724251e-01f, +1.275007e-01f, +5.938411e-01f },
    { +3.148186e-02f, -3.412701e-01f, +1.541760e-01f, -1.721911e-01f },
    { +3.543858e-02f, +5.081348e-01f, +3.646146e-01f, -1.691167e+00f },
    { -1.086727e+00f, -4.377208e-01f, +4.242243e-01f, +1.121645e+00f },
    { +1.126380e-01f, -2.178659e-01f, -8.632243e-01f, -7.724396e-01f },
    { -7.520021e-01f, +1.879217e-01f, +2.857965e-01f, +1.462802e+00f },
    { -1.568663e+00f, -9.249501e-03f, +3.836703e-01f, -5.907410e-01f },
    { +3.196656e-01f, -3.500085e-01f, +3.106621e-01f, -1.320923e+00f },
    { -2.026831e+00f, +5.001692e-01f, +4.462460e-01f, +6.996199e-02f },
    { +2.242413e-01f, +2.629445e-01f, -1.034612e+00f, +8.240350e-01f },
    { +5.532739e-01f, -6.751358e-01f, -7.661588e-02f, -9.292820e-01f },
    { -2.863351e-01f, +1.249018e-01f, -6.599659e-02f, -3.629430e-01f },
    { -5.253555e-01f, +3.046822e-01f, -3.227361e-01f, -1.409148e+00f },
    { -4.376060e-01f, -3.183690e-01f, +4.998044e-01f, +9.443748e-02f },
    { -7.719232e-02f, -2.934335e-01f, -5.596577e-01f, -5.151803e-01f },
    { +4.616794e-02f, -9.617674e-02f, -2.413270e-01f, -1.854565e+00f },
    { -3.334882e-01f, -4.127706e-01f, -3.738890e-01f, -8.807924e-01f },
    { -3.431976e-01f, -2.917009e-01f, -1.711487e-01f, -3.946404e-01f }
};
const float B1[32] PROGMEM = {
    -1.695043e-01f, -1.381196e-02f, -1.301857e-01f, -3.536333e-01f, -3.965992e-01f, +1.336942e-01f, -1.375724e-01f, -3.030008e-01f, -6.679639e-01f, -7.003207e-01f, -1.338980e-01f, -3.629301e-01f, +7.796884e-02f, -4.821093e-01f, +7.578024e-02f, -3.670269e-01f, -1.364148e-01f, -3.510517e-02f, -1.103630e-01f, +3.846031e-01f, +5.738723e-01f, -3.718173e-01f, +4.640602e-01f, -2.928857e-01f, +5.873939e-02f, -3.742450e-01f, +5.570215e-01f, -3.669752e-01f, +3.595395e-02f, +1.498271e-01f, -1.767651e-01f, -2.703231e-01f
};

const float W2[32][32] PROGMEM = {
    { +2.431295e-01f, -7.382807e-01f, -7.779842e-02f, -2.566516e-01f, -4.701448e-01f, +1.863223e-01f, -8.098570e-02f, -4.013479e-01f, -1.389221e-01f, -2.960398e-01f, -2.145513e-01f, +1.715050e-01f, -2.194977e-02f, -1.638132e-01f, +5.268479e-01f, -6.053592e-02f, -5.304211e-01f, -3.060515e-02f, -1.077939e-02f, -5.247580e-01f, +8.235265e-02f, -1.067400e-01f, -2.238837e-03f, +7.436074e-02f, -1.855043e-01f, +9.289847e-02f, -2.837656e-01f, -3.106345e-02f, -3.441746e-01f, -1.585611e-01f, -3.775973e-01f, -5.267964e-02f },
    { -1.411370e-02f, -1.972297e-01f, +9.752094e-02f, -2.031493e-01f, -1.891840e-01f, -5.787731e-02f, +4.249911e-02f, +1.211097e-02f, -1.558381e-01f, -2.068696e-01f, +5.465535e-02f, +1.156988e-02f, -1.527721e-01f, -1.924344e-01f, +4.951385e-02f, -1.583507e-01f, -1.587764e-01f, -1.647094e-01f, +4.876127e-02f, -4.142432e-02f, -3.194956e-01f, -1.611488e-01f, -1.037683e-01f, +1.878745e-01f, -2.575001e-01f, -4.577999e-02f, -2.165640e-01f, -6.733098e-02f, -1.992850e-01f, +9.075325e-02f, -1.283387e-01f, -3.543785e-02f },
    { -1.990424e-01f, +1.183114e-01f, +7.630367e-02f, -1.461006e-02f, -1.232618e-01f, -1.744680e-01f, -1.435743e-01f, +5.274804e-02f, +8.487152e-02f, +1.219580e-01f, +9.929330e-02f, -1.466656e-02f, -8.141438e-02f, -1.344397e-01f, -1.945669e-01f, -1.653478e-01f, -4.467306e-03f, -8.679169e-02f, -5.876345e-02f, -1.249090e-01f, -6.404068e-02f, -2.533748e-01f, -1.155087e-01f, +3.545089e-02f, -1.096791e-01f, +1.091319e-01f, -1.340647e-01f, -1.296776e-01f, -5.437570e-02f, -1.394916e-01f, -8.693565e-02f, -1.682906e-01f },
    { +1.830629e-01f, -1.806179e-01f, -1.302318e-01f, +9.215865e-03f, +6.754342e-02f, -3.087355e-01f, +1.271372e-01f, -1.901356e-01f, +6.559639e-02f, +2.158454e-01f, -2.248645e-01f, +1.888400e-02f, -1.836715e-01f, -3.994539e-01f, +2.271170e-01f, -1.754894e-01f, -2.233548e-02f, -1.267062e-01f, +1.671789e-01f, -3.358333e-01f, -1.093298e-01f, +5.203263e-02f, -1.763417e-01f, -2.783823e-01f, -2.522037e-01f, -1.059698e-01f, -1.143222e-01f, -8.701187e-02f, -7.226058e-02f, -1.581498e-01f, -2.671812e-01f, +1.450466e-01f },
    { +5.405593e-02f, +2.080483e-01f, +1.039993e-01f, -5.023955e-01f, -1.470491e-02f, +1.951257e-01f, +6.570055e-02f, -4.338847e-03f, +2.374469e-01f, -3.248582e-01f, -1.275076e-01f, -5.303552e-01f, -4.228429e-01f, +5.575181e-01f, +7.816443e-03f, -8.464172e-02f, -1.094307e+00f, -1.185666e-01f, -1.842208e-01f, +5.539197e-01f, -6.313643e-01f, +7.580421e-02f, +1.266040e+00f, +8.771027e-02f, +2.292512e-01f, +7.016316e-02f, +3.061554e-01f, +4.650700e-02f, +1.048538e-01f, +1.643782e-01f, +6.723046e-02f, +3.669079e-02f },
    { -1.163450e-01f, -2.076178e-01f, +4.575606e-02f, -3.080126e-01f, -5.020385e-01f, -5.395409e-01f, -1.208028e-01f, -5.643610e-01f, -1.289156e-01f, +3.942913e-01f, -2.527530e-01f, +3.685723e-02f, -2.756431e-01f, -5.420970e-01f, +2.734436e-01f, -1.314938e-01f, -1.554205e-01f, -3.523299e-01f, -1.286905e-01f, -6.393844e-01f, -5.474824e-01f, -2.152185e-01f, -7.103766e-01f, -4.255978e-01f, -5.210639e-01f, -9.465715e-02f, +1.184264e-01f, -8.538574e-02f, -2.097282e-01f, +1.330475e-01f, -6.816924e-02f, +9.685768e-02f },
    { +2.717583e-02f, -1.649759e-01f, -1.566466e-01f, -4.481425e-03f, -3.948203e-01f, +2.157615e-02f, -1.041708e-01f, -8.236088e-02f, -1.389630e-01f, -2.100313e-01f, -3.231677e-01f, -7.187495e-02f, -1.960428e-02f, +3.228578e-01f, -1.652279e-01f, -1.340652e-01f, -2.785686e-01f, +7.843655e-02f, +8.683895e-02f, +2.791205e-02f, -3.652223e-01f, -7.306329e-02f, -3.093034e-01f, -1.207437e-01f, -6.454264e-02f, +9.626172e-02f, -1.825538e-01f, -1.622998e-01f, -1.449587e-01f, -4.824546e-01f, -4.750260e-02f, +1.495964e-01f },
    { +2.548087e-01f, -4.400837e-01f, +1.532930e-02f, -3.375293e-01f, -1.584821e-01f, -6.048507e-01f, -3.618623e-02f, -1.026692e-01f, +3.358709e-01f, -3.967612e-01f, -5.944744e-02f, -1.319489e-01f, -1.473259e-01f, +2.450344e-01f, +5.457014e-01f, -8.161990e-02f, -2.973587e-01f, +2.808880e-03f, +2.731013e-02f, +2.670422e-01f, -8.386081e-01f, -2.826700e-01f, -1.093548e+00f, -7.628579e-02f, -2.715047e-02f, +5.507541e-02f, -4.361747e-01f, -6.915895e-02f, +1.161991e-01f, +8.782270e-02f, +2.471993e-02f, -8.557985e-02f },
    { -4.410914e-01f, -1.646957e-01f, -3.470717e-01f, -2.728765e-01f, -3.059658e-01f, -5.391058e-01f, -1.325221e-01f, -4.462972e-02f, -7.192951e-02f, -4.735572e-01f, +9.107049e-02f, +1.710295e-02f, -1.114835e-01f, +1.248131e+00f, +2.011639e-01f, -2.234767e-02f, -5.253302e-01f, +1.289811e-01f, -4.079181e-01f, +2.322158e-01f, -1.762998e-02f, -2.616282e-01f, -5.636221e-01f, -8.875470e-01f, +1.002583e-01f, +1.285391e-01f, -5.718479e-02f, +1.379918e-01f, +1.922641e-01f, -4.395177e-01f, -1.941556e-02f, +1.418283e-01f },
    { -4.674728e-01f, -2.543695e-01f, -1.322336e-01f, -3.660543e-01f, -3.347975e-01f, -3.299218e-01f, +4.702872e-02f, +1.283115e-01f, -1.337472e-01f, +1.434447e-01f, +1.257971e-01f, +7.183827e-02f, +4.744545e-02f, -5.975373e-01f, -3.795617e-01f, -1.249954e-01f, -5.483005e-03f, -7.603590e-01f, -3.252852e-02f, +1.358868e-01f, +4.657758e-01f, +6.287091e-01f, +2.822750e-01f, -3.377969e-04f, +4.717816e-01f, -2.366151e-02f, +7.213866e-01f, +8.832763e-02f, +2.820136e-02f, +2.614194e-01f, +5.338969e-02f, +3.709823e-02f },
    { +3.747171e-02f, -3.168114e-01f, -1.481815e-01f, -1.414462e-01f, -4.390442e-02f, +5.076275e-01f, +9.214519e-02f, -3.254850e-02f, +7.633322e-02f, +2.035206e-01f, -3.657393e-01f, -2.600989e-01f, -2.000829e-01f, +4.096751e-01f, -2.448890e-01f, +2.429634e-03f, +1.470694e-01f, +7.061223e-01f, -1.400052e-01f, -7.712714e-01f, +6.399730e-01f, +4.827677e-01f, +8.297294e-02f, +3.901336e-01f, -1.030672e-01f, +8.116268e-02f, -4.314952e-01f, -9.487689e-02f, -3.626192e-01f, -1.992416e-01f, -6.763835e-02f, -1.622760e-01f },
    { +2.571760e-01f, -4.721512e-01f, -1.350407e-01f, -1.933410e-01f, +2.876759e-01f, +5.502522e-03f, +1.333545e-01f, -2.372827e-03f, -2.055892e-02f, -3.641207e-01f, -3.952232e-02f, +8.768235e-02f, -2.880107e-01f, -1.534793e-01f, +6.802084e-02f, +3.337173e-02f, -6.496219e-02f, +1.848937e-01f, +2.518118e-02f, +9.017187e-02f, -2.849476e-01f, +3.441574e-02f, -4.750307e-02f, -5.997019e-02f, -3.128827e-01f, +7.747725e-03f, -5.382887e-01f, +1.437533e-01f, -1.073189e-01f, -3.595154e-02f, -6.242111e-02f, +3.145809e-02f },
    { +4.520440e-01f, -3.134523e-02f, +2.500264e-01f, +3.049047e-01f, +1.616323e-01f, -5.870140e-01f, -3.953728e-02f, +4.790937e-01f, -1.013010e-01f, +5.250738e-01f, -2.650360e-01f, -1.303719e-01f, -3.504387e-02f, -4.770897e-01f, +1.127333e-01f, +1.756252e-01f, +5.844767e-01f, -5.557646e-01f, +2.629558e-01f, -6.168216e-01f, +9.169348e-01f, +4.382907e-01f, -2.560135e-01f, -5.017951e-01f, +3.402807e-01f, -1.630969e-01f, +6.082475e-01f, -1.742724e-01f, +1.152877e-01f, +6.690072e-01f, +2.092104e-01f, -5.258449e-02f },
    { -8.953828e-02f, +5.599579e-02f, -8.721647e-02f, -1.020482e-01f, +7.691727e-02f, -1.772093e-01f, +2.161533e-02f, +1.264830e-01f, +3.031482e-02f, -4.908967e-03f, -1.029532e-01f, -2.438918e-03f, +9.719968e-03f, +2.020866e-02f, +4.551293e-02f, +1.536062e-01f, -1.766567e-01f, -1.788216e-02f, -8.832405e-02f, -1.992185e-01f, -7.739280e-02f, -1.787013e-01f, +7.040647e-02f, -1.282214e-02f, -9.527522e-02f, +9.237979e-02f, -2.205922e-01f, -6.837709e-02f, -3.443941e-02f, -1.502160e-01f, -1.124102e-01f, -2.885325e-02f },
    { +8.213430e-02f, -5.336916e-01f, -2.150303e-01f, -2.606743e-01f, -1.006919e+00f, +2.247318e-01f, +6.252900e-02f, -9.524729e-01f, -1.608441e-01f, -3.153965e-01f, -9.558278e-02f, -2.064089e-02f, -1.921976e-01f, +5.580161e-01f, +2.806641e-02f, -9.889014e-02f, -2.614512e-01f, +7.140213e-01f, -5.920513e-02f, -6.238753e-02f, +9.175443e-02f, +5.105365e-02f, -3.098020e-01f, -6.923046e-01f, +1.720476e-01f, +1.405587e-01f, -4.929325e-01f, -7.257904e-02f, -2.338835e-01f, -5.796255e-01f, -2.761746e-01f, -4.045898e-02f },
    { +1.261323e-01f, -2.557501e-01f, -7.565743e-02f, -1.408405e-01f, -2.652441e-01f, -4.428082e-01f, +5.765663e-02f, -2.357648e-01f, -7.301360e-02f, -3.300903e-01f, +4.006992e-03f, -3.382972e-01f, +1.492736e-01f, -4.507976e-01f, -3.600259e-01f, +1.379091e-01f, -3.828418e-01f, -5.218422e-01f, -2.859084e-02f, +3.170353e-02f, -6.155497e-01f, -8.520871e-02f, -6.039311e-01f, -4.363010e-02f, -4.180087e-01f, +7.493958e-03f, +2.877615e-02f, +1.988262e-04f, +9.781988e-02f, -2.870305e-01f, -1.083833e-01f, +7.842071e-02f },
    { +3.268678e-01f, -7.404286e-01f, +3.002250e-02f, +1.071450e-01f, -1.944732e-01f, -5.620431e-01f, -1.606741e-01f, -4.734830e-01f, +2.470964e-01f, -7.787746e-01f, -7.580131e-02f, -2.097730e-01f, -3.246954e-01f, -3.672273e-02f, -3.982728e-02f, -5.583943e-02f, -7.515888e-01f, +2.970455e-01f, -1.014457e-01f, +4.181009e-01f, -5.232611e-01f, -1.187820e-01f, -8.245458e-01f, -4.769550e-02f, +2.944010e-01f, +1.477718e-01f, -1.265095e+00f, +1.625267e-01f, -1.396621e-01f, -2.950394e-01f, -7.212054e-01f, -1.482708e-01f },
    { +5.520916e-01f, -7.649781e-01f, +7.761299e-02f, -1.183281e-01f, -2.468990e-02f, -2.567814e-01f, -1.437734e-02f, -6.055968e-01f, +2.037247e-01f, -7.515687e-01f, -1.365692e-01f, -1.981177e-01f, +2.100131e-01f, -8.558848e-02f, +4.143226e-01f, -5.123146e-02f, -4.258525e-01f, +1.051384e-01f, -4.452720e-02f, +3.043107e-01f, -5.220389e-01f, +3.851918e-01f, -5.646842e-01f, -1.887577e-01f, +3.125835e-01f, -9.172750e-02f, -4.767000e-01f, -1.664281e-01f, -4.813050e-01f, -3.434936e-01f, -5.618918e-01f, +1.453799e-01f },
    { -2.315616e-01f, -5.062117e-01f, -3.168625e-01f, -1.108599e+00f, -2.242357e-01f, +4.476191e-01f, +5.826113e-02f, -1.383404e-01f, -2.334865e-02f, +8.827722e-01f, -2.792008e-01f, -8.077492e-01f, -1.380632e+00f, +4.959743e-02f, +3.410404e-01f, +5.711125e-02f, +1.416468e-01f, +8.207290e-01f, +3.453380e-01f, -7.371786e-01f, -3.747705e-01f, -5.380527e-01f, +8.968180e-02f, +5.287391e-01f, -8.925901e-01f, -4.245046e-02f, +4.396559e-01f, -1.151981e-01f, +1.947540e-01f, +2.426655e-02f, +3.420220e-01f, -1.655692e-01f },
    { -2.635957e-01f, +1.759053e-01f, -1.735470e-01f, +1.902007e-02f, -2.044308e-01f, -2.899334e-01f, -2.668518e-02f, -3.944959e-01f, -2.136504e-01f, -9.087019e-02f, -2.336183e-02f, -1.504160e-01f, -4.712756e-02f, -2.804298e-01f, -1.842805e-01f, +6.666963e-02f, -2.486644e-01f, -3.358817e-01f, +7.030676e-02f, -6.321291e-01f, -4.669838e-01f, +1.046859e-01f, -2.838949e-01f, -5.697989e-02f, +2.194756e-01f, -1.482110e-01f, -1.632809e-01f, -1.625414e-01f, -1.200262e-01f, -2.439011e-01f, -3.461198e-01f, +1.726949e-01f },
    { +1.115951e-02f, -4.446761e-01f, -4.699069e-01f, -4.112869e-01f, +8.694488e-01f, +8.020404e-01f, +2.584881e-02f, +7.470933e-02f, +1.859850e-01f, +4.542737e-01f, -4.709469e-01f, -1.899617e-01f, -1.148361e+00f, +5.970609e-01f, +1.635660e-01f, -4.008476e-02f, -5.889228e-01f, +1.429357e+00f, -1.132825e-01f, +1.248001e-01f, +2.248473e+00f, -3.012965e-01f, +8.936868e-01f, -5.672764e-01f, -8.135000e-01f, +8.967221e-03f, +5.741783e-01f, -1.009152e-01f, -8.801024e-02f, -1.498806e-02f, -1.137242e-01f, -8.392870e-03f },
    { -1.548717e-01f, -9.727065e-02f, -1.732783e-01f, +3.602570e-02f, -1.185373e-01f, -1.472872e-02f, +3.814059e-02f, -1.492636e-01f, +5.099478e-02f, -1.541866e-01f, -1.264852e-01f, -2.124163e-01f, -1.508629e-01f, -6.439929e-02f, +2.531324e-02f, -3.268857e-02f, +2.340614e-02f, +1.620681e-01f, +6.342591e-02f, -1.708697e-01f, -2.023547e-01f, -3.133691e-02f, -1.026601e-01f, +1.058619e-01f, +4.357585e-03f, +6.818639e-02f, +1.325301e-01f, +1.679019e-01f, +3.743067e-02f, -2.406642e-01f, +1.579396e-01f, -8.387979e-02f },
    { -5.729001e-01f, -1.326461e-01f, +1.332339e-01f, +3.853000e-02f, +6.493355e-02f, +5.910460e-01f, -1.835015e-02f, -1.285363e-02f, +1.951093e-01f, -2.402887e-01f, +1.633581e-02f, -2.744612e-03f, -1.400567e-01f, +2.664061e-01f, +5.712381e-02f, -3.128923e-02f, -2.339665e-01f, +9.857988e-01f, -8.580326e-02f, +1.027427e-02f, -3.635106e-01f, +1.823473e-01f, +1.374422e-01f, -4.706652e-01f, -3.873045e-01f, +3.231786e-02f, -3.462561e-01f, -4.610784e-02f, -3.628452e-01f, +1.925914e-02f, -1.926467e-01f, +5.510858e-02f },
    { -2.717680e-01f, +3.237466e-02f, +2.286802e-01f, +3.434606e-02f, +5.340863e-02f, -3.157554e-01f, +1.596251e-01f, -4.090048e-02f, +6.991898e-02f, +1.887598e-02f, -1.533811e-01f, -6.157992e-03f, +4.310090e-02f, -4.293751e-01f, -2.743600e-01f, +1.564959e-01f, +1.497950e-01f, -2.631499e-01f, +1.335526e-01f, -2.962216e-01f, -3.153037e-01f, +9.748973e-02f, -4.143206e-01f, -1.535088e-01f, -2.239154e-01f, +4.749306e-02f, -1.726282e-01f, +6.428704e-03f, +1.550529e-01f, -3.754420e-01f, -4.691176e-01f, +1.066516e-01f },
    { -1.758452e-01f, -7.291768e-02f, -9.025300e-02f, -5.525927e-02f, -1.264679e-01f, -2.155215e-01f, -4.901056e-02f, -1.521114e-01f, -9.173504e-02f, +5.640665e-02f, +1.335620e-01f, -4.301340e-01f, +5.190961e-02f, -2.342088e-01f, -1.099927e-01f, -5.752648e-02f, -2.155994e-01f, -1.327162e-01f, -8.600004e-02f, -3.009058e-01f, -2.446909e-01f, +8.460886e-02f, -2.349121e-01f, -1.549487e-01f, +4.759755e-02f, +9.386210e-02f, +1.836421e-02f, -1.678506e-01f, -8.193848e-02f, -2.517675e-01f, +8.456052e-02f, +1.808433e-02f },
    { -7.565347e-03f, -3.970357e-01f, -9.500282e-02f, +1.800436e-01f, -2.688227e-01f, +2.490857e-01f, +5.475423e-02f, -4.060705e-01f, +1.036330e-01f, +1.232627e-01f, -9.695844e-03f, -8.314160e-02f, +2.509869e-01f, +1.072937e-01f, +5.134041e-01f, -2.552125e-02f, -1.102830e+00f, +6.841829e-01f, +2.253962e-02f, +2.656961e-01f, +1.605746e-01f, -2.778158e-01f, -6.186246e-01f, -7.385671e-03f, -1.843165e-01f, -2.190033e-02f, -6.152117e-01f, +3.294407e-02f, -3.387772e-02f, -5.580617e-01f, -2.972383e-01f, +7.956909e-02f },
    { -1.640275e-01f, -1.524757e-01f, +1.381585e-01f, -9.288981e-02f, -1.636676e-01f, -1.020430e-01f, -1.062372e-02f, -1.662914e-01f, -5.901734e-02f, -4.066386e-02f, -2.259100e-01f, -8.608329e-03f, -1.835595e-01f, -5.606163e-02f, -1.461052e-01f, -6.641104e-02f, -7.464264e-02f, -1.169567e-01f, +4.593998e-02f, -2.169884e-01f, -1.706044e-01f, +4.297315e-02f, -1.208411e-01f, -1.003342e-01f, -1.076721e-01f, +5.642658e-02f, +5.301150e-02f, +9.815706e-02f, -1.646536e-01f, -1.420982e-01f, -1.519512e-01f, -1.118663e-01f },
    { -1.495574e-01f, -4.626557e-02f, -1.285045e-01f, -3.977798e-01f, +3.625319e-01f, -4.829077e-01f, +8.836927e-02f, +7.867753e-03f, +6.069679e-02f, -4.460410e-01f, -1.997700e-01f, -8.909453e-02f, +1.654180e-01f, -5.805651e-01f, -1.601382e-01f, -1.938330e-02f, -3.362235e-01f, -5.159024e-01f, +8.623865e-02f, +6.636537e-01f, -4.270393e-01f, -3.950871e-01f, -7.023712e-01f, -1.175824e-01f, +3.122273e-02f, -8.519665e-02f, +1.906366e-01f, -2.602230e-02f, +2.633187e-03f, -2.155367e-01f, +1.561927e-01f, +8.508563e-06f },
    { -1.422136e-01f, -7.356770e-02f, -1.430606e-01f, -2.328233e-01f, -1.404815e-01f, +1.967082e-02f, +1.512235e-01f, +5.324835e-02f, -1.276226e-01f, +5.019090e-02f, -2.026836e-01f, -2.683186e-03f, +1.232719e-02f, +5.450872e-02f, +5.571603e-02f, +1.105868e-01f, -6.630466e-02f, +5.474263e-03f, -1.322981e-01f, -1.752628e-02f, -1.818387e-01f, -1.176419e-01f, -2.517687e-01f, -1.077693e-01f, -1.731822e-01f, -5.963045e-02f, -1.819555e-01f, -1.590008e-01f, -3.436931e-02f, +4.565171e-02f, +6.906919e-02f, +1.031588e-01f },
    { -8.893253e-01f, -1.023502e+00f, -4.914139e-01f, -3.658001e-01f, -3.074056e-01f, +1.195770e+00f, +1.494607e-01f, +2.683526e-01f, +2.990999e-01f, +1.033881e+00f, -4.896644e-01f, -3.062939e-01f, -3.456905e-01f, +7.674733e-01f, +1.831933e-01f, +1.749195e-01f, -9.772345e-01f, +1.231655e+00f, +1.205950e-01f, +6.500405e-01f, +1.561824e+00f, +3.650605e-01f, +4.885388e-01f, -8.489762e-01f, -4.563403e-01f, +1.385113e-01f, +1.478578e-01f, +5.556417e-02f, -5.048838e-02f, +5.153034e-01f, -2.973272e-01f, +6.240459e-02f },
    { +9.370778e-02f, -1.074774e-01f, -1.501769e-01f, -2.432666e-01f, +3.013902e-01f, +1.013943e-01f, +7.899590e-02f, +8.296153e-02f, +8.853479e-02f, +2.084680e-01f, -1.672924e-01f, +8.526264e-02f, -2.801838e-01f, -2.042638e-01f, +1.690827e-01f, -7.193586e-02f, -7.983427e-02f, +1.833622e-01f, -1.286093e-01f, -5.077605e-01f, -2.577721e-01f, -2.059222e-01f, -1.175141e-01f, -3.756874e-01f, -1.013827e-01f, -7.862315e-02f, -3.626459e-01f, -1.618633e-01f, +8.784212e-02f, +3.455509e-02f, -1.552219e-01f, +1.402815e-01f },
    { -2.144948e-01f, -7.612946e-01f, -3.055191e-01f, +3.948013e-02f, +5.029914e-02f, +1.558397e-01f, -1.376861e-01f, -1.994032e-01f, +7.640005e-02f, +6.703760e-02f, +5.105582e-02f, -4.402132e-02f, +4.674267e-02f, +3.991818e-01f, +1.818494e-01f, +1.325226e-02f, -3.997211e-01f, +5.343190e-01f, -1.889731e-01f, -3.268863e-01f, +2.286965e-01f, -1.194223e-01f, -4.134435e-01f, -1.836219e-01f, +6.157200e-01f, +7.075442e-02f, -5.196205e-01f, -8.158073e-03f, -1.718003e-01f, -3.151146e-01f, -5.094914e-01f, -1.424037e-01f }
};
const float B2[32] PROGMEM = {
    -1.351183e-01f, -6.407232e-02f, -9.468283e-02f, -1.855361e-01f, -3.608834e-01f, -1.166641e-01f, -1.392657e-01f, -2.307790e-01f, -1.303410e-01f, -4.409370e-02f, -4.357054e-01f, -6.422831e-01f, -4.984597e-01f, -1.435029e-01f, -9.635921e-02f, -1.739859e-01f, -5.220596e-01f, -1.518364e-01f, -1.200434e-01f, -1.276349e-01f, -4.776944e-01f, -1.659067e-01f, -1.594097e-01f, -1.861777e-01f, -7.959007e-02f, +6.649202e-01f, -9.884703e-02f, +3.651088e-02f, -1.006865e-01f, -3.245574e-01f, -9.141984e-02f, -8.796354e-02f
};

const float W_OUT[2][32] PROGMEM = {
    { -3.407554e-01f, +2.200920e-01f, -7.946685e-02f, -1.888916e-01f, +5.112666e-01f, -7.330814e-02f, +1.022286e-02f, +1.244637e-01f, -2.995155e-01f, -8.042327e-02f, +8.194960e-01f, -4.370948e-02f, -3.282115e-01f, -4.236576e-02f, -4.039401e-01f, +3.074183e-02f, +4.171622e-01f, -4.720384e-01f, +5.240346e-02f, -3.672039e-02f, +6.616197e-01f, +4.304902e-02f, -2.154134e-01f, +3.115079e-01f, +1.415914e-01f, +5.605356e-01f, -4.870684e-02f, +8.972026e-01f, +1.692584e-02f, +5.354874e-02f, -3.341922e-01f, -7.616841e-02f },
    { -3.017787e-01f, -1.971128e-01f, +7.575808e-02f, -2.486240e-01f, -1.470512e-01f, -2.520322e-01f, -1.619878e-01f, -6.358042e-01f, -3.430920e-01f, +2.480064e-01f, -1.130899e+00f, -3.715113e-01f, -6.807703e-01f, +1.470444e-01f, +1.799872e-01f, -6.069059e-02f, -4.219438e-01f, -1.296283e-01f, -8.254529e-01f, -5.976146e-02f, +4.704987e-01f, -2.245259e-01f, +4.347280e-01f, +2.648630e-01f, -3.440658e-02f, +1.030200e+00f, -8.804483e-02f, +1.985717e-01f, +3.525398e-02f, +3.811982e-01f, -1.268248e-01f, -1.199252e-01f }
};
const float B_OUT[2] PROGMEM = {
    +1.423469e+00f, +1.451086e+00f
};

inline float relu(float x) { return x > 0.0f ? x : 0.0f; }

inline void predict_motors(
    float front, float left, float right, float last_seen,
    float &out_left, float &out_right
) {
    const float in[INPUT_DIM] = { front, left, right, last_seen };

    float h1_act[H1_DIM];
    for (uint8_t i = 0; i < H1_DIM; ++i) {
        float s = pgm_read_float(&B1[i]);
        for (uint8_t j = 0; j < INPUT_DIM; ++j) {
            s += pgm_read_float(&W1[i][j]) * in[j];
        }
        h1_act[i] = relu(s);
    }

    float h2_act[H2_DIM];
    for (uint8_t i = 0; i < H2_DIM; ++i) {
        float s = pgm_read_float(&B2[i]);
        for (uint8_t j = 0; j < H1_DIM; ++j) {
            s += pgm_read_float(&W2[i][j]) * h1_act[j];
        }
        h2_act[i] = relu(s);
    }

    float out[OUTPUT_DIM];
    for (uint8_t i = 0; i < OUTPUT_DIM; ++i) {
        float s = pgm_read_float(&B_OUT[i]);
        for (uint8_t j = 0; j < H2_DIM; ++j) {
            s += pgm_read_float(&W_OUT[i][j]) * h2_act[j];
        }
        out[i] = tanhf(s);
    }

    out_left  = out[0];
    out_right = out[1];
}

}  // namespace mini_sumo_ai
