// Auto-generated by train_novamax.py - do not edit by hand.
// SAC actor (NovaMax fine-tune):
// input(4) -> Linear(32) ReLU -> Linear(32) ReLU -> Linear(2) tanh.

#pragma once
#include <avr/pgmspace.h>
#include <math.h>

namespace mini_sumo_ai {

constexpr uint8_t INPUT_DIM  = 4;
constexpr uint8_t H1_DIM     = 32;
constexpr uint8_t H2_DIM     = 32;
constexpr uint8_t OUTPUT_DIM = 2;

const float W1[32][4] PROGMEM = {
    { +1.910750e-01f, +1.320740e-02f, -9.111045e-01f, +2.163319e-01f },
    { -2.590414e-01f, -3.608122e-01f, -6.113790e-01f, +1.177202e+00f },
    { +3.437191e-01f, -6.956897e-01f, +1.400184e-01f, +2.407179e-01f },
    { +2.684158e-01f, -3.497697e-01f, -6.602871e-02f, +3.293580e-01f },
    { +7.494143e-01f, +4.354663e-01f, -1.204525e+00f, +1.380112e+00f },
    { -2.243531e+00f, -1.511194e-01f, +4.568377e-02f, +5.678756e-01f },
    { -3.946851e-01f, -2.305052e-01f, -1.411874e-01f, -3.006362e-01f },
    { +3.203817e-01f, -3.325325e-01f, +3.092726e-01f, -1.261114e+00f },
    { +5.779169e-02f, -2.477125e-01f, +2.706802e-01f, +1.212979e+00f },
    { +1.522916e-02f, +3.412859e-01f, -8.050074e-03f, -1.988487e-01f },
    { -1.060790e+00f, +3.358571e-02f, +9.389316e-01f, +1.676349e+00f },
    { +4.138017e-01f, -5.817362e-01f, +3.592870e-01f, +6.391075e-01f },
    { +4.367940e-01f, -5.068088e-01f, -4.988312e-01f, -1.489350e+00f },
    { -6.279187e-01f, +5.043721e-01f, +1.627124e-01f, +6.132248e-01f },
    { +2.103971e-01f, -4.405943e-01f, +4.488837e-01f, -5.749592e-01f },
    { +3.148186e-02f, -3.412701e-01f, +1.541760e-01f, -1.721911e-01f },
    { +1.536688e-01f, -4.192260e-01f, +3.101464e-01f, +3.555866e-01f },
    { -1.787603e+00f, -4.284585e-01f, +4.074810e-01f, -1.403760e-02f },
    { +6.837536e-01f, -9.560826e-02f, -9.868782e-02f, -6.476387e-01f },
    { -3.686676e+00f, -5.625807e-02f, -8.244924e-02f, +2.025269e-02f },
    { -3.332093e+00f, -4.552304e-01f, +1.919274e-01f, +2.052229e-02f },
    { +4.141574e-01f, -6.795529e-01f, +4.195606e-01f, +4.023228e-01f },
    { -4.161626e-01f, +2.222822e-02f, -1.411503e-02f, +3.690102e-01f },
    { +4.843352e-01f, +5.707163e-01f, -1.320588e+00f, +4.360942e-01f },
    { +2.038650e-01f, -2.469250e-01f, -4.595520e-01f, -5.938162e-01f },
    { -2.863351e-01f, +1.249018e-01f, -6.599659e-02f, -3.629430e-01f },
    { +3.251717e-01f, -7.879651e-01f, -2.161932e-01f, -5.717228e-01f },
    { -4.376060e-01f, -3.183690e-01f, +4.998044e-01f, +9.443748e-02f },
    { +1.402009e-01f, -7.724258e-01f, -3.270860e-01f, -6.882054e-01f },
    { +1.971003e-01f, -4.010005e-01f, -1.131543e-01f, -6.181306e-01f },
    { +7.561320e-02f, -3.311048e-01f, -9.697974e-02f, -1.854594e+00f },
    { -3.431976e-01f, -2.917009e-01f, -1.711487e-01f, -3.946404e-01f }
};
const float B1[32] PROGMEM = {
    -1.188826e-02f, -5.579906e-01f, -6.879392e-02f, -2.480831e-01f, -5.943313e-02f, +2.485105e-01f, -1.375724e-01f, -3.342502e-01f, -7.443056e-01f, -5.597780e-01f, +2.729667e-01f, -3.674585e-01f, +2.136257e-01f, -3.427848e-01f, +4.181349e-01f, -3.670269e-01f, -4.120450e-01f, +2.083832e-02f, +4.415560e-01f, +1.384208e-01f, +3.861092e-01f, -2.897268e-01f, -8.618779e-03f, -1.048038e-02f, -3.419892e-01f, -3.742450e-01f, +6.710812e-01f, -3.669752e-01f, +2.872236e-01f, +2.864049e-01f, +1.145885e-01f, -2.703231e-01f
};

const float W2[32][32] PROGMEM = {
    { +1.093179e-02f, -7.733288e-02f, -3.967701e-01f, -2.014793e-01f, -2.235547e-01f, -7.801056e-01f, -8.098570e-02f, +5.866111e-01f, -5.179514e-01f, -9.780637e-02f, -6.447483e-01f, -5.136801e-01f, +1.220916e+00f, +1.959568e-01f, -1.104911e+00f, -6.053592e-02f, -1.380378e-01f, -1.821453e+00f, +3.983460e-01f, +2.553866e-01f, +2.827101e-01f, -1.474627e+00f, +4.242285e-01f, +7.628376e-01f, +4.232917e-01f, +9.289847e-02f, -8.478645e-01f, -3.106345e-02f, +8.850965e-02f, -1.939657e+00f, +1.027608e+00f, -5.267964e-02f },
    { +1.035059e-01f, -9.989155e-02f, +2.377475e-03f, -2.204542e-02f, -9.796277e-02f, -1.577155e-01f, +4.249911e-02f, -2.123856e-01f, -2.318774e-01f, -5.195281e-02f, +9.145987e-02f, +4.180847e-02f, -1.040952e-01f, -2.075947e-01f, -5.039003e-01f, -1.583507e-01f, +2.197897e-01f, -1.399478e-01f, +4.567536e-02f, -7.929063e-03f, -4.480986e-01f, -2.077707e-01f, +6.006365e-02f, -7.184029e-03f, -1.134309e-01f, -4.577999e-02f, -1.872688e-01f, -6.733098e-02f, -1.260929e-01f, +1.609850e-01f, -4.240663e-01f, -3.543785e-02f },
    { -4.277940e-01f, -4.043121e-02f, -3.063220e-01f, +6.536306e-02f, -2.512785e-01f, -5.284805e-01f, -1.435743e-01f, +4.033165e-01f, -2.939037e-02f, +1.487584e-01f, +3.700953e-02f, -5.328777e-02f, +4.023370e-01f, -4.035872e-01f, -7.182125e-01f, -1.653478e-01f, -2.813856e-02f, -5.436767e-01f, -2.887732e-01f, -4.290297e-02f, +8.278337e-02f, -9.521330e-01f, -1.896195e-01f, -7.621001e-02f, +6.280986e-02f, +1.091319e-01f, -1.249623e+00f, -1.296776e-01f, -7.264026e-01f, -1.312765e+00f, +2.899452e-01f, -1.682906e-01f },
    { +4.864632e-02f, -3.802266e-01f, +4.015461e-02f, +2.930576e-02f, -4.741568e-02f, -3.474003e-01f, +1.271372e-01f, -5.352250e-02f, -1.378149e-01f, +1.597326e-01f, -8.493666e-02f, -5.321667e-02f, -1.171817e-01f, +1.162020e-01f, +6.114191e-03f, -1.754894e-01f, +7.137126e-02f, +1.382731e-01f, +1.044106e-01f, -9.966839e-02f, -4.246602e-01f, -1.443339e-02f, +1.103661e-01f, -2.398378e-01f, -8.463231e-02f, -1.059698e-01f, -9.208586e-02f, -8.701187e-02f, -7.654407e-02f, -1.177671e-01f, -1.915718e-01f, +1.450466e-01f },
    { +1.378861e+00f, +2.342167e-01f, +1.804514e-01f, -2.288369e-01f, -3.721131e-01f, -7.447819e-01f, +6.570055e-02f, +2.642398e-01f, +4.055303e-02f, -1.711880e-01f, -6.643753e-02f, +8.667178e-02f, +3.849354e-01f, +1.418768e+00f, -7.892585e-01f, -8.464172e-02f, -4.690453e-01f, +2.350262e+00f, -1.066019e-01f, +1.564244e-01f, -6.643481e-01f, -4.137866e-01f, +1.706454e+00f, +3.569095e-01f, +3.639654e-01f, +7.016316e-02f, -8.831514e-01f, +4.650700e-02f, +1.845427e-01f, -1.359973e+00f, -3.200107e-01f, +3.669079e-02f },
    { -1.185391e-01f, +8.447624e-03f, -1.282966e-01f, +3.265294e-01f, +1.602029e-01f, -2.727676e-01f, -1.208028e-01f, +1.449456e-01f, -8.154307e-02f, -2.813168e-03f, -7.502697e-01f, -1.925474e-01f, -6.503111e-02f, -3.516571e-01f, +2.604482e-01f, -1.314938e-01f, +5.489857e-01f, -3.308921e-02f, +1.232585e-01f, -2.859825e-01f, -6.460673e-01f, -3.966518e-01f, +3.251654e-02f, +2.695003e-02f, -3.180483e-02f, -9.465715e-02f, +7.251721e-02f, -8.538574e-02f, -6.539488e-01f, -8.455636e-03f, -1.593922e-01f, +9.685768e-02f },
    { +2.251493e-01f, +4.708667e-01f, +7.519876e-01f, -1.968390e-01f, +9.411864e-02f, +1.069868e+00f, -1.041708e-01f, -7.631788e-02f, +5.802372e-03f, -9.273406e-02f, +5.234151e-01f, +3.118859e-01f, +1.553143e-02f, +6.787294e-01f, -8.783794e-01f, -1.340652e-01f, -2.193712e-01f, -6.627799e-02f, -6.361844e-02f, +1.953004e-01f, +9.270560e-01f, +1.051780e+00f, +1.775716e-01f, -2.870329e-01f, +1.069949e-01f, +9.626172e-02f, -1.128496e-01f, -1.622998e-01f, -8.186289e-01f, -2.762016e-01f, -8.523954e-02f, +1.495964e-01f },
    { +3.311834e-01f, +1.167366e+00f, -2.444960e-01f, -1.739845e-01f, -2.876386e-02f, +2.769220e-01f, -3.618623e-02f, -4.842503e-01f, +7.074787e-01f, +9.595158e-02f, +1.525221e+00f, +3.058921e-01f, +3.822546e-01f, +7.228189e-01f, -2.546477e-01f, -8.161990e-02f, -1.393358e+00f, -3.594995e+00f, +1.147340e-01f, -2.607501e-03f, -1.062503e-01f, -9.462988e-02f, -6.250546e-03f, +1.364053e-01f, -6.399013e-01f, +5.507541e-02f, -9.799573e-02f, -6.915895e-02f, +1.114636e-01f, -5.684808e-01f, -8.676396e-01f, -8.557985e-02f },
    { -1.405070e+00f, -6.196794e-01f, -4.197895e-01f, -1.194477e-01f, -3.203157e-01f, -5.896364e-01f, -1.325221e-01f, +4.498366e-01f, -2.684352e-01f, -1.145193e-02f, +3.848174e-02f, -4.994579e-01f, +1.807150e-01f, +2.654402e-01f, -5.666815e-01f, -2.234767e-02f, +7.229903e-02f, +2.718661e+00f, -1.034537e+00f, +2.249705e-01f, -3.032806e-01f, -1.127612e+00f, -3.582953e-01f, -7.062238e-01f, -1.637822e+00f, +1.285391e-01f, -1.203500e+00f, +1.379918e-01f, -9.519228e-01f, -1.158650e+00f, +6.975897e-02f, +1.418283e-01f },
    { -3.290344e-01f, -3.514117e-01f, -4.097438e-01f, -5.952916e-02f, +6.964097e-01f, +3.398821e-01f, +4.702872e-02f, +3.826014e-01f, -2.662513e-01f, +1.341896e-01f, -4.057213e-01f, -2.400454e-01f, +8.200194e-01f, -8.651901e-01f, +2.449699e-01f, -1.249954e-01f, +6.779686e-02f, +7.245951e-02f, +4.934018e-01f, -7.305877e-01f, +9.838626e-02f, +2.589329e-01f, -2.619098e-01f, +4.809513e-01f, +4.827130e-01f, -2.366151e-02f, +9.861872e-02f, +8.832763e-02f, -1.083644e-01f, -4.676064e-01f, +3.514183e-01f, +3.709823e-02f },
    { +1.797493e-01f, -1.454347e-01f, -7.286385e-02f, +6.953850e-02f, -7.268127e-01f, -6.924823e-01f, +9.214519e-02f, -1.382458e-01f, +3.263880e-01f, +1.858562e-01f, +3.405600e-01f, -1.474312e-01f, -2.036201e-01f, -2.523626e-01f, +1.503898e-01f, +2.429634e-03f, +5.337033e-01f, +6.336612e-02f, -1.482648e-01f, -2.895285e-01f, -2.166037e+00f, -1.268977e-01f, -1.753697e-01f, +1.336720e-01f, +1.169802e-01f, +8.116268e-02f, -4.473613e-01f, -9.487689e-02f, -2.607292e-01f, +1.599928e-01f, -3.143534e-01f, -1.622760e-01f },
    { +2.234681e-01f, -3.590857e-02f, -2.927219e-01f, -1.469691e-01f, +2.616962e-01f, -2.505068e-01f, +1.333545e-01f, -3.977712e-02f, +3.020022e-02f, +1.105700e-01f, +8.457243e-02f, +2.865973e-01f, +7.717731e-02f, -1.336584e-01f, -1.087008e-01f, +3.337173e-02f, +3.800906e-02f, +2.580789e-02f, +1.922939e-01f, -8.504140e-02f, -6.141477e-01f, -1.519532e-01f, +1.557088e-01f, +1.591783e-01f, -1.829600e-01f, +7.747725e-03f, -2.999326e-01f, +1.437533e-01f, -2.304920e-01f, -7.601353e-02f, -1.133118e-01f, +3.145809e-02f },
    { +3.397163e-01f, -4.675984e-01f, +6.075332e-02f, +7.967864e-02f, -1.412497e-01f, -5.346275e-02f, -3.953728e-02f, +6.042932e-01f, -4.708551e-01f, +7.311799e-02f, -8.187253e-01f, +3.992166e-01f, +4.487528e-01f, -4.019436e-01f, +1.161594e-01f, +1.756252e-01f, -1.302321e-01f, -7.175204e-01f, +2.719362e-01f, -1.359609e-01f, -7.711906e-01f, -6.073463e-01f, +1.411389e-01f, -3.789537e-02f, +2.699450e-02f, -1.630969e-01f, -1.158584e-01f, -1.742724e-01f, +1.034228e-01f, +6.660023e-01f, +6.662483e-01f, -5.258449e-02f },
    { -9.951559e-02f, +4.357596e-02f, -8.655623e-02f, -9.311272e-02f, +6.136777e-02f, -1.847255e-01f, +2.161533e-02f, +1.198323e-01f, +4.793544e-04f, +4.807332e-02f, -8.042046e-02f, -4.039835e-02f, -2.612613e-02f, -2.896428e-03f, +5.058832e-02f, +1.536062e-01f, -1.349336e-01f, -1.052459e-02f, -1.093862e-01f, -1.664927e-01f, -5.682487e-02f, -1.834966e-01f, +5.955882e-02f, -3.007524e-02f, -1.149487e-01f, +9.237979e-02f, -2.133611e-01f, -6.837709e-02f, -6.467019e-02f, -1.687100e-01f, -1.293139e-01f, -2.885325e-02f },
    { -1.428585e-01f, -4.660559e-01f, -2.076511e-01f, -8.672657e-03f, -7.061470e-01f, +2.321312e-01f, +6.252900e-02f, +8.640094e-01f, -3.246694e-01f, -1.207607e-01f, -2.818308e-01f, +5.570515e-01f, +6.439300e-01f, -1.300074e-01f, -1.180546e+00f, -9.889014e-02f, +3.808552e-01f, -1.642835e+00f, -5.443050e-02f, -4.393706e-01f, +1.207801e-01f, -3.180421e-01f, +1.072879e-01f, -2.875542e-01f, +6.070318e-01f, +1.405587e-01f, -6.084129e-01f, -7.257904e-02f, +2.792455e-01f, -1.916657e+00f, +5.911677e-01f, -4.045898e-02f },
    { -1.259634e+00f, -5.071022e-01f, -1.232243e+00f, +2.649746e-02f, -6.418748e-01f, +7.070543e-01f, +5.765663e-02f, -9.528917e-01f, -4.924867e-01f, -7.334859e-02f, +1.134233e+00f, -1.097803e+00f, -7.386966e-01f, +9.242449e-01f, +2.940562e-01f, +1.379091e-01f, +3.456465e-01f, +1.058210e+00f, -1.490591e+00f, +1.116282e+00f, +9.027199e-01f, -4.404749e-01f, +6.605590e-01f, -1.326244e-01f, -9.573123e-01f, +7.493958e-03f, -4.605280e-02f, +1.988262e-04f, -3.770729e-01f, -6.217620e-02f, -9.665219e-02f, +7.842071e-02f },
    { +3.562267e-01f, -1.959903e-01f, +7.161931e-01f, +3.225423e-01f, -8.373967e-01f, -7.915172e-02f, -1.606741e-01f, -2.924430e-01f, +2.492722e-01f, -6.929003e-02f, -4.646953e-01f, +9.020336e-01f, -3.117891e-01f, +9.782925e-03f, -5.179860e-01f, -5.583943e-02f, -2.245047e-02f, -2.928346e-01f, -2.224856e-01f, -5.671450e-02f, +3.520007e-02f, +1.494869e-01f, -1.280531e-01f, -2.032411e-01f, -1.086121e-01f, +1.477718e-01f, +1.132720e-01f, +1.625267e-01f, -2.185617e-01f, +3.930984e-01f, -3.930339e-01f, -1.482708e-01f },
    { -1.236700e+00f, +4.942120e-01f, +1.699330e+00f, +2.560826e-01f, -3.584626e-01f, +1.250321e+00f, -1.437734e-02f, +2.337530e-01f, +1.683910e-01f, -1.739459e-01f, +3.571440e-01f, +1.182082e+00f, -4.175253e-01f, -1.758776e-01f, +5.151236e-01f, -5.123146e-02f, +5.488840e-01f, -1.122970e+00f, +7.051292e-01f, +3.943017e-01f, +1.448246e+00f, -3.543940e-01f, +3.942981e-01f, +8.454249e-02f, -5.870296e-01f, -9.172750e-02f, +9.211435e-01f, -1.664281e-01f, -1.883973e-01f, -1.176406e+00f, -3.136718e-01f, +1.453799e-01f },
    { -7.993375e-01f, -1.878327e-01f, +2.268595e-01f, -1.991989e-01f, -3.958905e-02f, -1.066392e-01f, +5.826113e-02f, +2.465627e-02f, -1.225224e-01f, -8.025870e-02f, +5.390221e-02f, +4.081333e-02f, -2.909835e-01f, -4.205641e-01f, +1.370766e-01f, +5.711125e-02f, -6.902281e-02f, +1.338207e+00f, +2.602416e-02f, -1.201892e+00f, -2.617883e-01f, +4.573843e-01f, -9.999177e-01f, +1.574380e-01f, -2.004366e-01f, -4.245046e-02f, +2.692969e-01f, -1.151981e-01f, -1.970768e-01f, +5.997057e-01f, -2.067641e-01f, -1.655692e-01f },
    { +1.106711e-02f, +4.276429e-01f, +4.995868e-02f, +1.058328e-01f, -2.705692e-01f, -6.066694e-01f, -2.668518e-02f, -8.379004e-01f, -3.466801e-01f, -1.137385e-01f, +4.067034e-02f, -3.320442e-01f, -3.734252e-01f, -9.865975e-01f, -6.416615e-01f, +6.666963e-02f, +3.364804e-01f, -3.342410e-01f, +5.255386e-01f, +8.566695e-01f, +1.190873e-01f, -8.076697e-02f, +1.097286e-02f, -2.025068e-01f, +3.059789e-01f, -1.482110e-01f, -1.159379e-01f, -1.625414e-01f, -8.971537e-01f, +5.504559e-03f, -6.747522e-01f, +1.726949e-01f },
    { -3.309199e-01f, -4.961019e-01f, -3.512683e-01f, -2.441017e-01f, -6.581753e-01f, +1.784646e+00f, +2.584881e-02f, -3.890325e-01f, -5.625910e-01f, -1.478242e-01f, +6.924992e-01f, -4.498346e-01f, -4.180341e-01f, +1.536425e+00f, -2.325669e-01f, -4.008476e-02f, +1.476240e-01f, -7.939876e-01f, -1.419598e+00f, -6.496543e-01f, +1.475746e+00f, -3.017702e-01f, +8.077685e-02f, -3.892443e-01f, +3.903996e-01f, +8.967221e-03f, -3.996083e-01f, -1.009152e-01f, +1.565974e-01f, -3.955089e-02f, -4.058398e-01f, -8.392870e-03f },
    { -1.548717e-01f, -9.727065e-02f, -1.279425e-01f, +8.767460e-02f, -1.185373e-01f, -1.472872e-02f, +3.814059e-02f, -1.290144e-01f, +5.099478e-02f, -1.726089e-01f, -1.264852e-01f, -1.601815e-01f, -8.554576e-02f, -6.758282e-02f, +3.398086e-03f, -3.268857e-02f, +8.309956e-02f, +1.620681e-01f, +3.148090e-02f, -7.880835e-02f, -1.974939e-01f, +3.230921e-02f, -1.106869e-01f, +7.240757e-02f, +8.619106e-02f, +6.818639e-02f, +1.340573e-01f, +1.679019e-01f, +5.434757e-03f, -1.381587e-01f, +1.256691e-01f, -8.387979e-02f },
    { +1.306700e-01f, -7.433021e-01f, -1.264914e-01f, +7.881133e-03f, -2.110745e-01f, +1.660738e+00f, -1.835015e-02f, -2.225513e-01f, -5.138624e-01f, +3.152553e-02f, -6.908700e-02f, -3.888800e-01f, -1.859477e-01f, +4.961739e-01f, +3.762290e-01f, -3.128923e-02f, +4.604390e-01f, -8.714603e-01f, -2.350356e-01f, +9.377959e-01f, +1.787310e+00f, -1.755661e+00f, +6.192333e-01f, -6.696826e-01f, -4.809668e-01f, +3.231786e-02f, -2.523735e-01f, -4.610784e-02f, -4.770895e-01f, -2.889966e-01f, -3.005687e-01f, +5.510858e-02f },
    { +8.758802e-02f, -6.174206e-02f, -3.583134e-02f, -3.974055e-02f, -3.023156e-01f, +2.926148e-01f, +1.596251e-01f, -6.488711e-01f, +5.916899e-02f, +6.129992e-02f, -1.325197e+00f, -1.668300e-01f, -2.554551e-01f, +3.946508e-01f, -8.865841e-02f, +1.564959e-01f, +1.485924e-01f, +2.595870e-01f, -1.877898e-01f, -9.212012e-01f, +3.714329e-01f, +5.821178e-02f, +2.517744e-01f, +4.021737e-01f, +5.054437e-02f, +4.749306e-02f, +2.818524e-01f, +6.428704e-03f, +4.662850e-03f, +1.274657e-01f, -5.706435e-02f, +1.066516e-01f },
    { -1.732993e-01f, -4.735127e-02f, +2.503296e-02f, -9.839594e-02f, +2.074232e-01f, -3.080778e-01f, -4.901056e-02f, -1.589961e-01f, -1.622084e-01f, +7.140797e-02f, -3.393318e-01f, -2.415162e-01f, -4.220504e-02f, -8.449611e-03f, -1.228579e-01f, -5.752648e-02f, -1.684729e-01f, -6.351358e-02f, +5.428850e-02f, -5.069592e-01f, -4.133130e-01f, +2.736687e-01f, -2.746809e-01f, -6.149172e-02f, +1.070848e-01f, +9.386210e-02f, +2.784590e-01f, -1.678506e-01f, -3.567191e-01f, -2.606276e-01f, +1.304022e-01f, +1.808433e-02f },
    { -7.215318e-02f, -7.602428e-02f, +1.359948e-01f, -1.773629e-01f, -4.296510e-01f, -1.816827e-01f, +5.475423e-02f, +1.993164e-01f, -1.597189e-01f, -4.857739e-02f, -1.554832e-01f, +2.040492e-01f, -2.871000e-01f, -2.843686e-01f, -1.403080e-01f, -2.552125e-02f, -5.393048e-01f, -3.954527e-01f, -4.447402e-01f, -1.613200e-01f, -8.109257e-03f, -9.836545e-01f, -1.154277e-01f, +1.046841e-01f, -2.745039e-01f, -2.190033e-02f, -9.395347e-01f, +3.294407e-02f, -3.850541e-01f, -5.974633e-01f, +1.810283e-01f, +7.956909e-02f },
    { -2.150446e-01f, -3.504930e-01f, +2.905245e-02f, -1.261409e-01f, -4.842620e-02f, -2.703390e-01f, -1.062372e-02f, -3.767268e-01f, -5.106076e-02f, -7.199093e-02f, -2.679541e-01f, -2.294872e-01f, +7.394901e-02f, -1.772631e-01f, -2.689742e-01f, -6.641104e-02f, -9.066509e-02f, -7.003304e-02f, +4.353400e-02f, -9.763061e-02f, -9.182752e-02f, -1.329758e-01f, -7.698819e-02f, -3.830652e-02f, -1.335908e-01f, +5.642658e-02f, +1.040073e-01f, +9.815706e-02f, -3.243313e-01f, +7.203525e-02f, -1.223762e-01f, -1.118663e-01f },
    { -1.982355e-01f, -2.444740e-01f, +2.821175e-01f, -3.294481e-01f, -1.649278e-01f, -2.120793e-01f, +8.836927e-02f, -3.091829e-01f, -5.017678e-02f, -1.533770e-01f, -2.735478e-01f, +4.652496e-01f, +2.446846e-01f, -7.088788e-01f, -1.485039e-01f, -1.938330e-02f, -3.684755e-01f, -2.079816e-02f, -6.554337e-02f, +1.675030e-01f, -1.845804e-01f, -1.177915e-01f, +4.303239e-02f, +2.591246e-02f, -1.201747e-02f, -8.519665e-02f, +6.516591e-02f, -2.602230e-02f, -2.385836e-01f, -2.563048e-01f, +1.591314e-01f, +8.508563e-06f },
    { -6.119459e-01f, -6.275395e-01f, +1.258170e-01f, -8.998022e-02f, +2.373524e-01f, +1.394887e-02f, +1.512235e-01f, +6.020925e-01f, -2.529674e-01f, +6.698213e-03f, -6.610115e-01f, +4.112877e-01f, +7.194342e-01f, -2.981553e-01f, -3.378763e-01f, +1.105868e-01f, -1.662519e-01f, -3.569500e-01f, +4.985200e-01f, -3.510783e-01f, -6.818936e-02f, -4.777675e-01f, -5.871680e-01f, +7.329825e-01f, +3.484471e-01f, -5.963045e-02f, +1.450687e-01f, -1.590008e-01f, -2.290875e-01f, +6.332766e-01f, +6.389933e-01f, +1.031588e-01f },
    { -1.383137e+00f, -3.577214e-03f, -1.989089e-01f, +1.788698e-01f, -1.080754e+00f, -2.388958e+00f, +1.494607e-01f, +1.851596e-01f, +9.211145e-02f, +1.199253e-01f, +9.667943e-01f, -6.229053e-01f, -3.722647e-01f, +3.344317e-02f, +1.415475e-01f, +1.749195e-01f, +7.960981e-01f, +2.861978e+00f, -6.960398e-01f, +5.713647e-01f, -1.370351e+00f, -4.472198e-01f, -1.504567e-01f, -1.338996e+00f, -1.597357e+00f, +1.385113e-01f, -7.542516e-02f, +5.556417e-02f, -8.403398e-01f, +5.873129e-02f, -6.097069e-01f, +6.240459e-02f },
    { -5.562026e-01f, -6.084589e-01f, +7.329495e-01f, -9.844614e-02f, -3.343510e-01f, -2.639849e-01f, +7.899590e-02f, +7.075096e-01f, -2.824290e-01f, +9.111112e-02f, -6.453380e-01f, +4.587606e-01f, -9.123609e-02f, -3.917301e-01f, +2.187767e-01f, -7.193586e-02f, +1.077770e-01f, -1.024266e+00f, +4.502040e-01f, -5.742946e-01f, +7.848998e-01f, +8.196211e-01f, +1.024267e-01f, +6.854674e-01f, +1.927470e-01f, -7.862315e-02f, +1.538868e+00f, -1.618633e-01f, +8.370361e-01f, +3.159692e-01f, +5.938152e-01f, +1.402815e-01f },
    { -1.230631e-01f, +3.232515e-01f, -8.229951e-02f, +1.036464e-01f, +4.640240e-01f, -1.839293e-01f, -1.376861e-01f, -5.135645e-01f, +9.566844e-01f, +9.548841e-02f, +2.940510e-01f, +5.143490e-01f, -4.320335e-01f, -4.639884e-01f, -9.709601e-02f, +1.325226e-02f, -4.987833e-01f, -1.170702e+00f, +2.057005e-01f, -2.177899e-01f, -6.859757e-01f, +7.812929e-01f, -5.529925e-01f, -4.253524e-01f, -3.043848e-01f, +7.075442e-02f, +1.005047e-01f, -8.158073e-03f, -1.870321e-01f, -4.919480e-01f, -1.688608e-01f, -1.424037e-01f }
};
const float B2[32] PROGMEM = {
    +3.867391e-01f, -6.383134e-02f, -5.661681e-02f, -1.212885e-01f, +1.472247e+00f, +1.547108e-01f, -5.320570e-01f, +2.237320e-01f, -2.771899e-01f, +2.384167e-01f, -6.083537e-02f, +2.308131e-02f, -1.892712e-02f, -1.348637e-01f, -5.462107e-02f, +2.107680e-01f, +8.471796e-04f, +3.051614e-01f, -5.682225e-01f, +4.084803e-01f, -1.468726e-01f, -1.585852e-01f, +5.626643e-01f, -8.246646e-02f, +4.856466e-02f, +2.727458e-01f, -2.642716e-02f, -1.628596e-01f, -1.446194e-01f, +2.814196e-01f, -1.312874e-01f, -4.449452e-01f
};

const float W_OUT[2][32] PROGMEM = {
    { -4.443608e-01f, +5.282522e-03f, +9.608675e-01f, +1.334399e-01f, +1.204259e-01f, +8.665767e-01f, -1.104270e+00f, -4.264998e-01f, -9.369082e-02f, +1.637609e-01f, +2.967691e-01f, +3.686124e-01f, +2.533182e-01f, -1.413896e-01f, -1.013584e+00f, -3.381688e-01f, -2.317337e-02f, +1.259273e-01f, -9.360833e-01f, +1.341084e+00f, -1.553696e+00f, +8.213025e-02f, +1.428262e-01f, +3.177324e-02f, +2.781929e-01f, -2.833174e-01f, -2.552121e-01f, +1.623525e-01f, +2.962709e-02f, -1.024186e+00f, +1.766747e-01f, -7.374500e-02f },
    { -7.102739e-01f, +9.347082e-02f, -3.055563e-01f, -8.835056e-02f, +5.479924e-01f, -3.458134e-02f, -1.059524e+00f, +1.169493e-01f, +1.421164e+00f, -2.526433e-01f, +4.353272e+00f, +4.765913e-01f, +1.971649e-02f, +1.671626e-01f, +9.029596e-02f, -1.288165e-01f, -2.219312e-01f, -2.767296e-01f, +7.291369e-01f, +1.622511e-01f, -9.352847e-01f, -1.362745e-01f, -2.012778e-01f, -2.215259e-02f, +1.081594e-02f, +1.645203e-01f, -2.946055e-01f, +3.678152e-01f, -3.231497e-02f, +1.288853e+00f, -1.585665e-01f, +8.915973e-01f }
};
const float B_OUT[2] PROGMEM = {
    +7.710993e-02f, +7.717216e-01f
};

inline float relu(float x) { return x > 0.0f ? x : 0.0f; }

inline void predict_motors(
    float front, float left, float right, float last_seen,
    float &out_left, float &out_right
) {
    const float in[INPUT_DIM] = { front, left, right, last_seen };

    float h1_act[H1_DIM];
    for (uint8_t i = 0; i < H1_DIM; ++i) {
        float s = pgm_read_float(&B1[i]);
        for (uint8_t j = 0; j < INPUT_DIM; ++j) {
            s += pgm_read_float(&W1[i][j]) * in[j];
        }
        h1_act[i] = relu(s);
    }

    float h2_act[H2_DIM];
    for (uint8_t i = 0; i < H2_DIM; ++i) {
        float s = pgm_read_float(&B2[i]);
        for (uint8_t j = 0; j < H1_DIM; ++j) {
            s += pgm_read_float(&W2[i][j]) * h1_act[j];
        }
        h2_act[i] = relu(s);
    }

    float out[OUTPUT_DIM];
    for (uint8_t i = 0; i < OUTPUT_DIM; ++i) {
        float s = pgm_read_float(&B_OUT[i]);
        for (uint8_t j = 0; j < H2_DIM; ++j) {
            s += pgm_read_float(&W_OUT[i][j]) * h2_act[j];
        }
        out[i] = tanhf(s);
    }

    out_left  = out[0];
    out_right = out[1];
}

}  // namespace mini_sumo_ai
