// Auto-generated by train_dqn.py — do not edit by hand.
//
// Dueling Double DQN, advantage head only (argmax over Q is invariant
// to the value head + mean shift, so AVR firmware can skip V).
//
// Architecture:
//   input(21)
//     -> Linear(32) ReLU
//     -> Linear(32) ReLU
//     -> Linear(9)    (advantage head, raw logits)
//   action_idx = argmax(advantage)
//   (left_motor, right_motor) = ACTION_MAP[action_idx]
//
// Inputs = K-frame raw-distance stack (oldest distances first) followed
// by the 9 single-frame engineered features. For INPUT_DIM=21, K=4:
//   [0 .. 11]  stacked (front,left,right) x K, each in [0, 1]
//                 layout: f[t-K+1],l,r, ... , f[t],l[t],r[t]
//   [12] last_seen        in {-1, 0, +1}
//   [13] line_l           in {0, 1}
//   [14] line_r           in {0, 1}
//   [15] prev_left        in [-1, +1]
//   [16] prev_right       in [-1, +1]
//   [17] engagement       in [0, 1]
//   [18] yaw_rate_proxy   in [-1, +1]
//   [19] front_ir_delta   in [-1, +1]
//   [20] lateral_ir_delta in [-1, +1]

#pragma once
#include <avr/pgmspace.h>
#include <stdint.h>

namespace mini_sumo_ai {

constexpr uint8_t INPUT_DIM  = 21;
constexpr uint8_t H1_DIM     = 32;
constexpr uint8_t H2_DIM     = 32;
constexpr uint8_t N_ACTIONS  = 9;

// === Weights =========================================================
const float W1[32][21] PROGMEM = {
    {2.2871071e-01f, 1.5331429e-01f, -1.3862494e-01f, 3.9146692e-01f, 3.3869764e-01f, -1.0319931e-01f, 3.3919716e-01f, 1.5370615e-01f, 1.1960114e-02f, 7.0659906e-02f, 4.8269308e-01f, 6.7678517e-01f, -6.7243052e-01f, -3.2276058e-01f, 8.6969882e-01f, -5.8049567e-02f, -7.0329577e-02f, 5.8649540e-01f, -1.4124466e-01f, 2.7148673e-02f, -1.0715281e-01f},
    {-1.5377773e-01f, 5.8293071e-02f, 2.8505278e-01f, -2.4374917e-01f, -1.9001979e-02f, -2.0472329e-02f, -1.5898217e-01f, -6.7054085e-03f, -2.0209454e-01f, 1.3704026e-01f, 1.2741262e-01f, 6.8846327e-01f, 1.1436006e-01f, -8.3041531e-01f, -8.8631248e-01f, -1.2277133e-02f, 5.9939947e-02f, 8.6634648e-01f, -3.9576352e-01f, -1.4000258e-01f, 5.2963682e-02f},
    {7.9289936e-02f, 3.1119269e-01f, 3.1383836e-01f, 8.0366112e-02f, 2.8566837e-01f, 3.3162531e-01f, 4.5329666e-01f, -2.3112400e-01f, 5.9334163e-02f, 4.8246795e-01f, -3.2364649e-01f, 2.0788367e-01f, -1.5494069e-01f, 5.0219250e-01f, 4.4282964e-01f, -1.4345142e-02f, 5.9069365e-02f, -3.7591453e+00f, 1.6072562e-02f, 1.0489262e-01f, 1.1973026e-01f},
    {1.2260672e-01f, -1.1212738e-01f, -2.4885827e-01f, 2.7299452e-01f, -9.9008255e-02f, -2.3329151e-01f, 1.8824321e-01f, -3.7733129e-01f, -3.5371205e-01f, 3.4923485e-01f, -4.1945568e-01f, -3.1345922e-01f, -1.2916271e-01f, -2.3228809e-01f, 1.4573275e-02f, 5.7468563e-02f, -1.0059488e-03f, 3.7321529e-01f, 1.3786602e-01f, 1.3556148e-01f, 4.2559016e-02f},
    {3.3270466e-01f, -3.1441110e-01f, 5.5087078e-02f, -6.4782657e-02f, -1.7978279e-01f, -1.2811999e-01f, -1.9063041e-02f, -3.1439838e-01f, 1.3052545e-01f, 1.1826483e-01f, -5.2833676e-01f, 2.4472120e-01f, 7.7533466e-01f, -4.6229444e-02f, 1.4754301e-01f, -7.2989524e-03f, 1.4893492e-02f, -5.0210595e-02f, -3.3772937e-03f, 1.3290958e-01f, 5.8481775e-02f},
    {8.8458404e-02f, -6.7404881e-02f, -5.3411100e-02f, -4.9392369e-02f, -1.8622233e-02f, 1.4236119e-01f, -2.1702297e-01f, 4.1596493e-01f, 8.5832745e-02f, -5.7490677e-01f, 5.2991188e-01f, 3.5478145e-01f, -2.6960343e-01f, -9.9680746e-01f, -9.0539557e-01f, 1.9666288e-02f, 6.2387541e-02f, 4.1063103e-01f, 1.4305882e-01f, -2.3846923e-01f, 4.5216995e-01f},
    {1.1148138e-01f, -3.4092313e-01f, -1.3993239e-01f, -1.3932145e-01f, 4.0115884e-01f, 2.3568361e-01f, 1.8866032e-01f, 1.8516567e-02f, -5.3154421e-03f, 3.8860252e-01f, -9.0817921e-03f, -4.7055110e-01f, -1.6796244e-02f, -5.6972319e-01f, -5.4644382e-01f, 1.6120793e-02f, 8.5316319e-03f, 1.4354249e+00f, 3.4650904e-01f, -1.6313726e-02f, 8.9561410e-02f},
    {2.9063785e-02f, -1.8615608e-01f, -3.1086874e-01f, 4.3634407e-02f, 1.5680233e-02f, -2.7017668e-01f, 2.0308626e-01f, 1.8408261e-01f, -2.3599927e-01f, 3.5218096e-01f, 1.5551068e-01f, 1.4862612e-01f, -2.5776321e-01f, -9.6708518e-03f, -3.3495422e-02f, -1.3873609e-02f, 2.8638080e-02f, 1.6681778e+00f, -2.7062675e-01f, 5.3490065e-02f, 8.5043091e-01f},
    {1.8148474e-01f, -1.9344805e-01f, -2.2092009e-01f, 1.0836919e-01f, 1.0142549e-01f, -1.8184681e-01f, -1.0850653e-01f, 1.7116666e-02f, -1.3307698e-01f, -4.0221643e-02f, 2.9348883e-01f, 1.4651541e-01f, 1.1769856e+00f, 3.8543230e-01f, 3.2738230e-01f, -2.0150585e-01f, 2.2629436e-02f, -1.6658334e+00f, 2.2268686e+00f, -2.3345250e-01f, 2.3224914e-01f},
    {1.1519904e-01f, -7.7874207e-01f, -9.5422417e-01f, 5.1083398e-01f, 9.1572918e-02f, 2.0270297e-01f, -1.0771933e-01f, 1.7671242e-01f, 2.3891613e-01f, -1.2475941e-01f, 1.1214814e-01f, 6.3829400e-02f, 8.2462162e-02f, 1.7442882e-01f, 4.7690913e-01f, -1.3969577e-02f, -7.2114598e-03f, -2.0150461e+00f, 1.0421324e-01f, -2.5147626e-01f, 1.6943648e-01f},
    {4.4271300e-04f, 1.3840984e-01f, 7.2326981e-02f, -3.2539573e-01f, -6.9699816e-02f, 4.3258145e-01f, -5.4459369e-01f, 1.1702377e-01f, 3.9270803e-01f, -7.2141820e-01f, -1.7323054e-01f, 7.7070510e-01f, 1.2040222e-02f, 2.1104825e-01f, -8.0115545e-01f, 7.4780844e-03f, -2.2482559e-02f, -4.3190366e-01f, -6.3563001e-01f, -6.5761596e-01f, 4.0474761e-01f},
    {-1.2440674e-02f, 1.6116019e-01f, 2.1718238e-01f, 7.8414381e-02f, 1.7085548e-01f, 1.1814880e-01f, -9.1824360e-02f, -3.3165127e-01f, -9.6133597e-02f, 2.4007042e-01f, -1.0532366e+00f, 3.7543821e-01f, -1.7332558e-01f, -2.7488580e-01f, -2.4185266e-01f, -2.5929986e-02f, -5.0828820e-03f, 1.4097475e+00f, 1.9465765e-01f, 8.3449729e-02f, -2.5300899e-01f},
    {-2.3761821e-01f, 2.9438236e-01f, 1.4081630e-01f, -7.7574059e-02f, -8.6609292e-01f, -7.7920753e-01f, 2.1634783e-01f, 8.5815363e-02f, 3.2087829e-02f, -1.3242856e-01f, 4.6492428e-01f, 1.8779396e-01f, 4.0993731e-02f, 1.8692143e-01f, 3.1846237e-01f, -2.8729131e-02f, 2.5232119e-02f, -3.1674925e-02f, 2.1522541e-01f, -4.1937703e-01f, 7.4239947e-02f},
    {1.9410905e-01f, 3.0627048e-01f, -3.0598827e-02f, -5.0631511e-01f, 2.3286952e-01f, 8.0536678e-02f, -2.3994876e-01f, 6.3784316e-02f, -1.3374738e-01f, -5.8384645e-01f, -1.1852877e-01f, -2.4182688e-01f, 9.9866658e-02f, -1.6151360e-01f, 4.4432557e-01f, 3.2779162e-03f, 2.5674431e-02f, 5.1436186e-01f, 3.2101411e-01f, -2.0033188e-01f, -1.0215407e-01f},
    {-7.1980665e-03f, -1.4094027e+00f, -4.6096596e-01f, -3.2438245e-02f, -2.4180909e-01f, -1.4527877e-03f, 1.7911470e-01f, -3.1525230e-01f, 1.9609407e-01f, 1.5584128e-01f, -3.2965469e-01f, 7.0546943e-01f, -8.6311243e-02f, -6.7031693e-01f, -5.8981264e-01f, -2.7603781e-02f, 1.0681696e-02f, -1.0476303e-01f, -3.3817898e-02f, 2.9830283e-01f, 2.6326656e-01f},
    {-8.2931921e-02f, 4.2663378e-01f, 5.5661345e-01f, -1.7103566e-01f, -1.8942848e-02f, 4.6346754e-02f, -3.3404678e-01f, 2.7944663e-01f, 3.9146578e-01f, -4.0432245e-01f, -4.2961079e-01f, 1.0547061e-01f, -7.0694655e-01f, 7.9922535e-02f, -1.0770928e+00f, -1.7291501e-02f, -2.8176093e-02f, 1.3562469e+00f, -8.1132400e-01f, 7.4002691e-02f, 5.0904159e-02f},
    {6.3852645e-02f, -1.2347797e-01f, -5.9607465e-02f, 2.0384769e-01f, -1.4511533e-01f, -4.2367944e-01f, -3.3860341e-02f, -4.2793620e-01f, -3.5215583e-01f, -1.6845979e-01f, 2.1216330e-01f, 1.5726808e-01f, -2.0858300e-01f, 8.7464392e-01f, 8.4175289e-01f, 4.3315977e-02f, -5.6563038e-04f, 1.7202362e+00f, -2.1585241e-01f, 2.2933096e-01f, 1.7348555e-01f},
    {2.9277024e-01f, -2.1805678e-01f, 1.6166843e-02f, 1.5524976e-01f, -9.4795987e-02f, -1.8561010e-01f, 3.2176596e-01f, -1.9613230e-01f, -1.2368498e-01f, -3.8947216e-03f, -1.1241945e+00f, 9.1366678e-02f, -2.5383708e-01f, 2.1465683e-01f, -5.2995521e-01f, -5.6087282e-03f, -7.2705811e-03f, 5.7690001e-01f, -2.9075348e-01f, 9.2890538e-02f, 1.4777081e-01f},
    {3.4657812e-01f, -2.0075600e-01f, 9.8770566e-02f, 1.8086566e-01f, 7.4080959e-02f, 1.0962067e-01f, 4.8346075e-01f, 3.0423027e-01f, 5.4598186e-02f, 4.1074970e-01f, 8.1465167e-01f, 2.5575972e-01f, -3.2741107e-02f, 1.4166714e-01f, 5.5933756e-01f, 6.7261390e-02f, 5.3562447e-02f, -3.0402079e-01f, -7.8064287e-01f, 2.6360515e-01f, 5.8218741e-01f},
    {-1.8576640e-01f, 1.0236415e-01f, 7.8281365e-02f, 7.8970328e-02f, 9.0091906e-02f, 7.2976109e-04f, -1.0918087e-01f, 2.4892988e-02f, -3.2317482e-02f, -9.4559127e-01f, -2.9165408e-01f, 2.0810090e-01f, -2.0115703e-02f, 2.4136374e-02f, 1.0426402e-01f, 1.3766983e-02f, 1.2826580e-02f, 6.9068968e-01f, 5.8001969e-02f, -4.6100858e-01f, -5.0301097e-02f},
    {2.4662971e-01f, -3.8396162e-01f, -2.6714936e-01f, 2.9270959e-01f, -1.8039612e-02f, -2.9814303e-01f, 1.0742373e-01f, 7.9876877e-02f, -9.7666182e-02f, 3.8368717e-02f, -6.9084913e-01f, 6.8840110e-01f, -1.9930550e-01f, 1.2063492e-02f, -5.9051748e-02f, 6.7878969e-02f, 3.3652708e-02f, 1.2230400e+00f, 4.7924700e-03f, -7.0666261e-02f, -2.5892827e-01f},
    {1.3096233e-01f, 3.1046333e-02f, 2.8986862e-01f, 3.8396424e-01f, -3.0177823e-01f, -3.5318667e-01f, 6.0904586e-01f, -2.4247138e-02f, -3.8660014e-01f, 3.0477080e-01f, -3.9641938e-01f, -8.7958854e-01f, 1.7236099e-01f, -1.1273959e-01f, 1.7666151e-01f, -1.1587077e-01f, -5.4580644e-02f, 8.1525129e-01f, 6.7895189e-02f, -1.9538289e-01f, -3.0144617e-02f},
    {2.6063997e-01f, -2.8110588e-01f, -1.7099829e-01f, 1.4905760e-01f, -2.0075127e-01f, -3.4340292e-01f, 7.7845138e-01f, 8.3714630e-03f, -5.5367857e-02f, 8.9629823e-01f, 9.1040649e-02f, 1.6904765e-01f, -1.3561687e-01f, -3.4176597e-01f, -3.9315128e-01f, 4.5552589e-02f, -5.3806294e-02f, -2.5020200e-01f, -2.6293406e-01f, 2.9873809e-01f, -3.3987546e-01f},
    {1.5519859e-01f, -2.5798211e-02f, -7.8008071e-02f, 3.4514332e-01f, -2.6839785e-02f, -1.8871513e-01f, 1.0014677e+00f, -5.7562161e-02f, -2.4472439e-01f, 1.1539937e+00f, 3.7944871e-01f, 4.9177405e-01f, -2.5913316e-01f, -1.0637392e+00f, -7.9852618e-02f, 5.0834309e-02f, 2.2073723e-02f, 1.5596919e-01f, -5.7244521e-01f, 4.6088111e-01f, 6.1284775e-01f},
    {2.5208864e-01f, 1.2246843e-01f, -5.1260255e-02f, 4.9364086e-02f, -1.7468624e-02f, -2.8110858e-02f, 7.1973622e-02f, -1.6746162e-03f, 2.0654792e-01f, -3.1395367e-01f, -1.3655216e-01f, 1.7032516e-01f, 4.0933204e-01f, -4.5379528e-01f, -8.4414530e-01f, -9.0422921e-02f, -4.5286261e-02f, 1.1269604e+00f, -5.2818559e-02f, -6.9513075e-02f, -9.6551292e-03f},
    {-2.9167730e-01f, -8.3982833e-03f, -6.9411173e-02f, 5.0620239e-02f, -1.0841130e-01f, -1.7771564e-01f, 3.3393361e-02f, 7.4193925e-02f, 7.4012794e-02f, 2.9308948e-01f, 9.5582522e-02f, -7.5287454e-02f, -1.6561616e-02f, -5.3840595e-01f, -4.9778759e-01f, 5.6444600e-02f, -2.0493688e-02f, 6.7398679e-01f, -4.3252805e-01f, 4.4836244e-01f, -4.5242365e-02f},
    {-4.7869802e-02f, 4.3188179e-01f, 3.1031269e-01f, 1.4127062e-01f, 3.1938049e-01f, 1.6992311e-01f, 2.6265261e-01f, 3.1888351e-01f, 5.3735122e-02f, -1.3045654e-02f, 2.6701647e-01f, 2.7534628e-01f, 1.5898249e-01f, 1.2519777e+00f, 1.5207307e+00f, 4.9130026e-02f, 4.8681265e-03f, 1.4026800e-01f, -1.4929152e-01f, -1.9934836e-01f, -2.1061836e-01f},
    {1.0592332e-01f, -1.0494742e-01f, -1.0607503e-01f, -4.6937365e-02f, -2.2395407e-01f, -8.5217431e-02f, 2.2623713e-01f, 3.3042976e-01f, 1.5837769e-01f, -2.6671451e-02f, 3.6849087e-01f, 1.7913653e-01f, -1.3412160e-01f, -3.5364389e-01f, -1.9107131e+00f, 6.3440271e-02f, -8.9962119e-03f, 3.7802291e-01f, 2.6186388e-02f, -2.5462517e-01f, -2.4644189e-01f},
    {-3.5849970e-02f, 4.5625601e-02f, 1.2182728e-01f, 2.4523742e-01f, -3.7676029e-02f, -2.6205438e-04f, -4.9553630e-01f, -9.2784874e-02f, 1.4015677e-02f, -6.4293438e-01f, 3.8060635e-01f, -4.7329981e-03f, 1.0456753e-01f, 7.2085120e-02f, -2.4168767e-02f, -7.2821252e-02f, -1.9006055e-02f, 7.6416731e-01f, 3.6057718e-03f, 1.9833870e-02f, 6.2969069e-05f},
    {5.4406468e-02f, 1.2856279e-01f, 1.0120005e-01f, 6.8351328e-02f, 2.3450747e-01f, 2.3316531e-01f, 1.9003919e-01f, 1.3182113e-01f, -1.2739068e-01f, 2.9399881e-01f, 9.6124399e-01f, -4.7929195e-01f, 4.2865452e-01f, -6.6851813e-01f, -1.7804805e+00f, -3.0162981e-02f, -3.1436689e-02f, -1.2999525e+00f, 6.1713111e-01f, -5.0389618e-01f, 4.7238216e-02f},
    {-1.5988089e-02f, -1.3050152e-01f, -1.1293024e-01f, 3.4638375e-01f, -5.7068150e-02f, 6.2595136e-02f, 1.5898313e-01f, -3.3361828e-01f, -1.5950143e-01f, 2.0040499e-01f, 3.4400839e-01f, -9.1382021e-01f, 4.8595515e-01f, -1.0860538e-01f, -1.5038073e-01f, 2.6768011e-03f, 4.2951461e-02f, 6.1882019e-01f, 8.8007480e-01f, -4.4650310e-01f, 1.0075226e-01f},
    {1.3688020e-01f, 1.2727467e-02f, -6.5098964e-02f, 2.3584478e-01f, 2.4983008e-01f, -1.0438195e-01f, -2.3362845e-01f, 2.7155221e-01f, 7.3481582e-02f, -8.4751958e-01f, 4.6470857e-01f, -3.8687754e-01f, 1.8194710e-01f, 2.9410455e-01f, 5.0398415e-01f, 8.0081850e-04f, -1.0278437e-02f, 2.0894353e+00f, 4.5132393e-01f, -3.2194275e-01f, 9.4473265e-02f},
};
const float B1[32] PROGMEM = {
    3.5399821e-01f, 7.6295292e-01f, -9.6352331e-02f, 8.0767912e-01f, -1.1040075e-01f, 5.6132250e-02f, 1.0132920e-01f, 2.2558609e-01f, 2.8504662e-02f, -5.7349539e-01f, 2.7772585e-01f, 3.9722925e-01f, -4.2998978e-01f, 8.1456631e-01f, 1.6120423e-02f, 3.4068045e-01f, 4.2088839e-01f, 4.6914747e-01f, -6.9692902e-02f, 9.0460211e-01f, 2.2575359e-01f, 7.1472245e-01f, -1.2926140e-01f, 4.7507563e-01f, 6.3181210e-01f, 9.0705889e-01f, 3.1083101e-02f, 6.4103925e-01f, 5.9550691e-01f, 5.4766759e-02f, 1.9046132e-01f, -1.8951856e-02f
};

const float W2[32][32] PROGMEM = {
    {3.7007096e-01f, -6.1408436e-01f, 3.0925727e-01f, -8.7293345e-01f, -1.5602418e+00f, -6.8997747e-01f, -4.3580708e-01f, 1.9492553e-01f, 1.5616268e+00f, -1.3275076e+00f, -1.6902394e+00f, -1.1610360e-01f, -1.8752488e+00f, -2.3505816e+00f, 1.4421369e+00f, -9.0375710e-01f, -6.3368648e-01f, -2.6008739e+00f, 3.9386055e-01f, -1.8813587e+00f, -3.7786120e-01f, -5.8480489e-01f, 4.0943190e-01f, 8.8844635e-02f, -9.6939129e-01f, -5.7980579e-01f, 5.3116918e-01f, -4.3172780e-01f, -3.7976429e+00f, 9.6125752e-02f, -9.2529798e-01f, -1.5829116e+00f},
    {-4.1153744e-01f, 1.3584112e-01f, 5.5948193e-03f, 6.2897986e-01f, 1.5623373e-01f, -9.6120691e-01f, -1.7516437e-01f, 3.4825802e-01f, -4.3438983e-01f, -7.9791129e-01f, 4.5150983e-01f, -2.0878488e-01f, -3.0170786e-01f, 5.5818856e-01f, 2.0182249e-01f, 5.0728202e-01f, -1.0182935e+00f, 1.5212534e-01f, 1.1384916e-01f, -1.0704950e+00f, 3.6557637e-02f, 5.0159037e-01f, 5.7777274e-02f, 3.9437565e-01f, -7.7978154e-03f, 7.0491379e-01f, -4.2581302e-01f, -8.7813184e-02f, -1.5033731e+00f, 1.1338840e-01f, 3.2444522e-01f, -1.4773147e-01f},
    {-4.0630594e-01f, 2.8515530e-01f, 4.3697521e-02f, 2.5396407e-01f, -1.9656363e-01f, -7.9170144e-01f, 4.8359671e-01f, -5.5678312e-02f, -2.2388476e-01f, -2.1923429e-03f, 3.1614214e-02f, 9.2504591e-02f, -7.4799187e-02f, -2.3839841e-02f, -5.0974328e-02f, -5.7645023e-02f, -1.8263276e-01f, 1.5530673e-01f, -1.7432282e-03f, 6.1126393e-03f, -1.8917942e-01f, 3.2970694e-01f, 2.4729513e-02f, 1.6143961e-02f, 3.7179783e-01f, 3.7106162e-01f, 2.1474721e-01f, -2.8301936e-01f, -1.7418529e-01f, 2.3707366e-01f, 1.5263833e-01f, 2.5118926e-01f},
    {5.4521892e-02f, 3.9403665e-01f, -3.3884770e-01f, 2.9771689e-01f, -1.6836810e-01f, 1.3843197e-01f, 3.5996827e-01f, -2.0339176e-01f, -1.7064303e-01f, -4.4957200e-01f, 8.5299581e-02f, 7.6265559e-02f, 7.3442936e-01f, 2.8473711e-01f, 3.9874050e-01f, 1.8182340e-01f, -6.2789923e-01f, 3.2190490e-01f, 2.7437681e-02f, 7.9972607e-01f, -3.3867845e-01f, 1.8754756e-01f, -5.8478332e-01f, -5.2754596e-02f, 4.7589201e-01f, 2.7996629e-01f, 2.6603377e-01f, 2.5741237e-01f, 4.0386799e-01f, 1.2540896e-01f, 5.8067828e-02f, 1.3699904e-01f},
    {-2.1010570e-01f, -1.5260650e-01f, -2.0393214e-01f, 4.2906757e-02f, -1.7311294e-01f, -7.4487872e-02f, -1.7804733e-02f, -1.6238743e-01f, -1.5344252e-02f, -1.9874009e-01f, -1.6863473e-01f, -1.8515947e-01f, -1.2026937e-01f, -1.0803409e-01f, -1.2983541e-03f, -7.6060601e-02f, 4.7662873e-02f, 4.6746161e-02f, -1.7919689e-03f, -1.1513988e-01f, -1.9446395e-01f, 7.3040188e-03f, -1.5601905e-01f, 3.0904779e-02f, 3.9625097e-02f, 6.2581250e-03f, 9.1154948e-02f, 9.8537743e-02f, -2.8445156e-02f, -2.5858346e-01f, -2.1696171e-02f, -1.4749721e-01f},
    {-1.0032178e-01f, 6.0485548e-01f, 9.7559601e-02f, 1.7819478e-01f, -1.9409366e-01f, -4.8663107e-01f, 1.1926486e-01f, -2.7995467e-01f, -4.7980496e-01f, -5.8598197e-01f, 6.8247028e-02f, 1.1452251e-01f, -3.9030513e-01f, -1.4116797e-02f, 3.1701803e-01f, 2.3383337e-01f, -3.2898149e-01f, 6.2678289e-01f, -1.2270407e-01f, 1.9630496e-01f, -4.0671226e-01f, 3.1513885e-01f, -2.3954581e-01f, 2.0367872e-02f, 1.1425652e-01f, 2.4112433e-01f, -1.3833724e-01f, 6.9092453e-02f, 2.0108692e-01f, 2.8949744e-01f, 4.5379454e-01f, 2.6114351e-01f},
    {1.3791320e-01f, 3.1543350e-01f, -2.0763725e-01f, 3.7354106e-01f, 3.6178330e-01f, 3.6491883e-01f, 6.8182832e-01f, 1.0580763e-01f, -6.7131829e-01f, 3.1981462e-01f, -6.4713798e-02f, 4.4523093e-01f, 2.0482969e-01f, 6.1027057e-02f, -7.7423252e-02f, 5.0729251e-01f, -8.8547818e-02f, 4.3100804e-01f, 1.5515389e-01f, 4.8743361e-01f, 3.2751286e-01f, 3.4517983e-01f, -1.3722555e-01f, 2.7661180e-01f, 4.3776813e-01f, 3.3488372e-01f, -3.2940528e-01f, 6.2630075e-01f, 4.9547744e-01f, -1.0278834e-01f, 3.6763033e-01f, 4.1625273e-01f},
    {1.6306627e-04f, 3.9690009e-01f, 2.5946060e-01f, 1.8158129e-01f, -7.1171939e-02f, -1.5655138e-01f, 4.8080483e-01f, -1.8181121e-01f, -8.0875129e-01f, -3.1284553e-01f, 2.3149760e-01f, 2.9018852e-01f, 9.0035558e-02f, 1.7561710e-01f, 3.3082291e-01f, 3.4978038e-01f, -4.3750450e-01f, 3.1933829e-01f, -1.9508399e-01f, 3.5765311e-01f, -1.5424600e-01f, 5.0291789e-01f, -2.3522922e-01f, 7.0503093e-02f, 4.3381789e-01f, 4.9917641e-01f, 4.9062329e-04f, 2.0098317e-01f, 2.0283532e-01f, 2.4119094e-01f, 4.9031830e-01f, 4.1391328e-01f},
    {1.0814277e-02f, 4.3878254e-01f, -3.6382812e-01f, 3.2222158e-01f, -1.4682400e-01f, 3.4962377e-01f, 4.9603143e-01f, 4.5581404e-02f, -4.6199140e-01f, 1.0419908e-01f, 8.3603691e-03f, 3.7860021e-01f, 2.7883816e-01f, 3.0095490e-02f, 1.7789809e-01f, 1.9512887e-01f, -1.9132639e-01f, 3.9217487e-01f, 2.4286017e-01f, 7.4940223e-01f, 2.9383814e-01f, 5.4533845e-03f, -8.8835787e-03f, 4.3818107e-01f, 2.4167195e-01f, 3.3416477e-01f, -3.2525140e-01f, 5.7848275e-01f, 4.2126814e-01f, -1.9547513e-02f, 3.6815888e-01f, 2.5086570e-01f},
    {2.9918505e-02f, -3.5129628e-01f, -2.6416674e-01f, -2.3344378e-01f, 4.4632202e-01f, 1.6072536e-01f, -4.0561777e-01f, -7.5657040e-02f, 9.4348878e-01f, 2.1502845e+00f, -1.4590287e-01f, -1.8812542e-01f, 1.2046875e+00f, -1.3463573e+00f, -1.8005811e+00f, -1.1303002e+00f, 6.6927910e-01f, -7.5480767e-02f, 1.9571245e-01f, -1.5622329e+00f, 7.6165241e-01f, -5.0820810e-01f, 2.1180667e-01f, 3.2600525e-01f, 4.6959344e-01f, -7.4462020e-01f, -1.3835211e-01f, 4.8118016e-01f, -2.8029412e-01f, -7.6517367e-01f, -5.9043729e-01f, -1.2359837e+00f},
    {1.7452963e-01f, 2.9032737e-01f, 4.4496906e-01f, -8.9141530e-01f, -1.6952363e-01f, -5.3810614e-01f, -3.6641851e-01f, 5.0285935e-01f, 4.0320200e-01f, -4.8370126e-01f, -6.7493347e-03f, 7.3945683e-01f, -1.0211006e+00f, 2.6010355e-01f, 3.2549497e-01f, -7.3997609e-02f, -4.3071240e-01f, -2.5078970e-01f, -3.7016061e-01f, 5.0246972e-01f, 7.5902879e-01f, -1.0623412e-01f, 3.6307594e-01f, -3.5103198e-02f, 2.7547449e-01f, -1.7731842e-01f, 9.3286850e-02f, -3.4637386e-01f, -8.9018226e-01f, -2.0379315e-01f, -2.9469001e-01f, -4.8352304e-01f},
    {1.8441260e-01f, -9.9354140e-02f, 1.5977703e-01f, -5.2823222e-01f, -4.5437846e-01f, 3.3736065e-01f, -6.4322132e-01f, 5.7552479e-02f, 5.7991147e-01f, -3.7949672e-01f, -2.6815540e-01f, -1.7829763e+00f, -3.0036715e-01f, -3.0426860e-01f, 2.0087272e-01f, 5.0667934e-03f, 3.2787493e-01f, -8.0543864e-01f, 3.7203965e-01f, -2.3966415e-01f, -9.6166253e-01f, -5.4331559e-01f, 1.2501247e-01f, 1.0108097e-01f, -3.4148845e-01f, 4.4827870e-01f, -1.2876484e-01f, -7.9884809e-03f, 1.3481233e-01f, 3.9591721e-01f, -5.9460670e-01f, -3.3410151e-02f},
    {-2.9203978e-01f, -6.5359795e-01f, 3.6923021e-01f, 2.0915760e-01f, 5.8599073e-01f, -1.9950220e-01f, 7.2220910e-01f, 7.0227641e-01f, -6.1142409e-01f, 1.4199672e+00f, 2.0748143e-01f, 5.5183709e-01f, 3.6186960e-01f, 5.2856702e-01f, 2.1652587e-01f, 3.3151194e-01f, 1.3065612e-01f, 5.0858235e-01f, -3.4903571e-01f, 4.1213000e-01f, 6.2187159e-01f, 5.6785500e-01f, -7.1392632e-03f, -8.3373559e-01f, 9.9421609e-03f, -2.0339455e-01f, 2.2523615e-01f, -6.7515366e-02f, 2.2821046e-02f, 1.1853205e-02f, 2.8412905e-01f, 5.8192968e-01f},
    {-1.0223108e-01f, 6.3028157e-02f, -7.1243137e-02f, -9.1969025e-01f, 1.1676112e+00f, -9.6386027e-01f, 7.7533406e-01f, 3.8628322e-01f, 2.6378447e-01f, 8.3581805e-01f, -1.2923729e+00f, -2.1332955e-01f, 9.9116516e-01f, -1.7973797e-01f, -1.2248536e+00f, 5.6424588e-01f, 2.5964412e-01f, -6.7437313e-02f, 1.6595307e-01f, -2.9081091e-01f, 3.7424514e-01f, -7.8998333e-01f, 1.4764623e-01f, 4.2861309e-03f, 5.9745276e-01f, -4.1216007e-01f, -1.8447281e-01f, -7.1317598e-02f, 2.6240194e-01f, -1.1659320e-01f, -1.4385153e-01f, -6.6065854e-01f},
    {1.3094899e-01f, 4.4763431e-01f, -2.7012795e-01f, 3.3038291e-01f, 3.2990009e-01f, 1.9233851e-01f, 3.9155850e-01f, 1.0751735e-01f, -5.2536583e-01f, 5.5048078e-01f, 1.4663512e-01f, 4.8896313e-01f, 3.4985162e-02f, 2.3439920e-01f, -9.8061673e-02f, 2.9771399e-01f, -3.1615373e-01f, 3.3224666e-01f, -6.7820981e-02f, 4.0649328e-01f, 2.9261500e-01f, 2.2402152e-01f, 6.4818390e-02f, 3.5927969e-01f, 7.0399779e-01f, 3.0208871e-01f, -1.5616307e-01f, 5.3959411e-01f, 2.0092687e-01f, 1.0955539e-01f, 3.4851915e-01f, 1.8433879e-01f},
    {3.4595095e-02f, 1.8141033e-01f, -3.0736771e-01f, 4.0949829e-02f, -2.0592348e-01f, 1.8283332e-02f, 4.1578468e-02f, 6.4793341e-02f, -2.5419912e-01f, 3.0178774e-02f, -6.7690291e-02f, -4.7547972e-01f, 6.2740284e-01f, 7.5971179e-02f, 2.8620040e-01f, -7.3001266e-02f, -5.9245372e-01f, 1.0142914e+00f, -4.1081924e-02f, 7.1640450e-01f, -9.0331024e-01f, 3.5757404e-02f, -7.2235858e-01f, 4.6155874e-02f, 5.5556709e-01f, 4.1972092e-01f, 1.9479357e-01f, 9.1767497e-02f, 5.6562787e-01f, 2.5835179e-02f, 1.0617495e-01f, 4.0119022e-01f},
    {2.3187931e-01f, 3.2472634e-01f, -1.0557590e-01f, 3.1242800e-01f, -2.8980413e-01f, 4.9747226e-01f, 5.8536780e-01f, -2.1755983e-01f, -7.0958489e-01f, -4.6562499e-01f, 2.2002718e-01f, 4.5904085e-01f, 1.3892081e-01f, 3.0513732e-02f, 4.7362226e-01f, 4.2425445e-01f, -2.0296371e-01f, 2.0985658e-01f, -3.5494346e-02f, 6.0515493e-01f, 1.1259622e-01f, 2.8530169e-01f, -3.3673903e-01f, 1.8830128e-01f, 2.1736886e-01f, 3.3862963e-01f, -1.7072619e-01f, 5.8952248e-01f, 3.8591951e-01f, 4.0385082e-02f, 2.6844090e-01f, 2.0485537e-01f},
    {-2.7851885e-02f, 1.1898427e-01f, -7.6425570e-01f, 4.2423153e-01f, -8.6823523e-01f, -1.1477351e-01f, 2.4556172e-01f, -1.2025377e+00f, 2.3063707e-01f, 1.0712133e-01f, -2.2171617e-02f, -3.2795924e-01f, -5.6545979e-01f, 7.6643091e-01f, 1.5967044e-01f, -2.7499667e-01f, -5.9370351e-01f, 8.4888202e-01f, -3.0918071e-01f, 5.5340624e-01f, -4.6569401e-01f, 1.6924504e-02f, -8.7380797e-01f, 5.1803654e-01f, 2.1051441e-01f, 4.2636397e-01f, -5.6544149e-01f, 3.7016678e-01f, 3.6745619e-02f, -2.0439845e-01f, -7.5811249e-01f, -2.5423628e-03f},
    {5.0274443e-02f, 1.7922206e-01f, -2.9225603e-01f, -1.6573972e-01f, 5.8913970e-01f, 6.2576246e-01f, -5.0711226e-01f, -2.8620964e-01f, -3.3779871e-01f, 7.6510626e-01f, 5.5762213e-01f, -9.5750943e-02f, 1.2046884e+00f, 3.9263853e-01f, -5.7516444e-01f, 2.5008932e-01f, 6.2386841e-01f, -6.7659223e-01f, -1.0641781e-01f, 7.5354028e-01f, 2.5652811e-01f, 1.2740010e-01f, -7.2203231e-01f, -9.8042285e-01f, 2.9402050e-01f, 7.4336186e-02f, 3.3585015e-01f, 3.0810818e-01f, 6.8063122e-01f, 3.4892741e-01f, 3.4503907e-01f, 5.2435148e-01f},
    {8.9002557e-02f, -2.1472207e-01f, 2.9586613e-01f, -6.2704898e-02f, -3.3584785e-02f, 2.4941161e-01f, -1.7411335e-01f, 1.7123403e-01f, 1.5508655e-01f, -2.5124276e-01f, 1.4286660e-01f, -7.0908837e-02f, -1.9613369e-01f, 1.1419353e-01f, 1.5939446e-01f, 4.0891811e-02f, 3.1915665e-01f, -1.6175917e-01f, 1.2502904e-01f, 5.0667938e-02f, -8.3993673e-02f, -1.1509282e-02f, 1.9858715e-01f, 5.4571535e-02f, -2.4463286e-01f, -3.2096822e-02f, 4.4295838e-01f, -2.3109522e-01f, 1.9191267e-01f, -1.0300843e-01f, -5.5380690e-01f, -4.7508046e-01f},
    {3.1084621e-01f, 7.2699353e-02f, -3.9944911e-01f, 7.9928255e-01f, 4.9142221e-01f, 1.1949364e-01f, -1.1115289e-01f, -4.1494951e-01f, 8.0031657e-01f, 8.3029270e-01f, -1.6337973e-01f, 1.5992302e-01f, 1.3986118e-01f, 3.8203329e-01f, 5.9069898e-02f, -1.2629007e-01f, -7.7288830e-01f, 2.3732005e-01f, -1.0003502e-01f, 5.8266777e-01f, 1.6617090e-01f, -5.8755517e-01f, -8.7115103e-01f, 7.7477358e-02f, 3.9019230e-01f, 4.2979819e-01f, 1.2349454e-01f, 4.5123711e-01f, 1.7598556e-01f, -8.7451077e-01f, -1.4344233e-01f, 4.8710513e-01f},
    {2.3119181e-01f, 1.6808398e-01f, 3.9110634e-01f, 4.6959409e-01f, 2.8439915e-01f, -1.1920226e+00f, 1.1905427e-01f, -4.1179940e-01f, 8.4266436e-01f, -6.3819028e-02f, -4.7175887e-01f, -6.1834231e-02f, -6.2237954e-01f, -8.7985903e-01f, 1.6523404e-01f, -3.0932805e-01f, -5.6991726e-01f, 6.5581255e-02f, 3.4364939e-01f, -1.7699282e+00f, -3.0374441e-01f, 4.3383770e-02f, 3.0525249e-01f, 2.1649393e-01f, -1.4984016e-01f, 4.0015137e-01f, 7.6744273e-02f, -2.3782153e-01f, -1.9024558e+00f, -4.4461042e-01f, -4.1110045e-01f, -1.8557638e+00f},
    {-2.0358741e-01f, -2.9359818e-01f, 2.4389401e-01f, 7.0790388e-02f, 1.9448362e-01f, -6.1125952e-01f, 2.3316209e-01f, -1.3044746e-01f, -4.2606241e-01f, -7.0193149e-02f, 5.1396772e-02f, 2.5319538e-01f, -1.2253909e-01f, 2.0222056e-01f, 9.0719862e-03f, 3.0837858e-01f, 1.1118714e-01f, -5.4382324e-01f, -4.1075505e-02f, 1.9919939e-01f, 7.6329887e-02f, 2.6182017e-01f, 4.1705680e-01f, 4.6422374e-02f, -1.6972743e-01f, 7.0100509e-02f, -3.6033469e-01f, 8.8972136e-02f, -2.2694275e-01f, 3.0511251e-01f, -1.2311259e-01f, 1.4932996e-01f},
    {-1.6800684e-01f, 2.3111004e-01f, -1.3745268e-01f, 1.1466120e-01f, -4.3654510e-01f, -6.2664926e-01f, 6.0117871e-01f, -5.9469044e-02f, -4.0207055e-01f, 1.5191248e-01f, -9.4057697e-01f, -4.0320382e-01f, 7.1812195e-01f, 5.9006220e-01f, -7.0574069e-01f, -2.0984942e-01f, 1.0639555e-01f, -3.7254252e-02f, 8.7968074e-02f, -1.9360434e-01f, -6.2758911e-01f, 3.3515519e-01f, 1.0342275e-01f, 3.9386820e-02f, 6.0472310e-02f, 4.8606130e-01f, -1.7615905e-01f, 1.2569267e-01f, 2.2134107e-01f, 6.8656099e-01f, 1.9002451e-01f, 1.5881753e-01f},
    {1.9748235e-01f, 2.3850830e-01f, -6.6311115e-01f, 6.2472832e-01f, 4.3020999e-01f, 2.3222023e-01f, 8.9011051e-02f, 4.4701863e-02f, 9.6765548e-01f, 4.7297618e-01f, -2.1180905e-01f, -1.9283764e-01f, 2.6613462e-01f, 3.6635596e-01f, -9.3097448e-02f, 3.1100450e-02f, -3.3742368e-01f, 3.3090609e-01f, 3.3541426e-02f, 4.4873378e-01f, -2.3983735e-01f, -1.2084215e-01f, -6.0784072e-01f, 2.0192470e-02f, 7.8833446e-02f, 1.4345355e-01f, 1.8473119e-01f, 3.9098313e-01f, 3.1050241e-01f, -7.3537952e-01f, 5.4571176e-01f, 3.5124353e-01f},
    {2.5393683e-01f, 1.0959064e-01f, -4.4414468e-02f, 4.0068629e-01f, -9.4370991e-02f, 4.9740359e-01f, 4.1729411e-01f, 1.2800650e-01f, -4.8305926e-01f, -2.2281854e-01f, 1.0420149e-01f, 4.3773758e-01f, 1.9713685e-01f, 1.1770938e-01f, 2.0405784e-01f, 3.0255535e-01f, -2.2477670e-01f, 1.7606638e-01f, -8.0944389e-02f, 6.6143984e-01f, 1.5280087e-01f, 1.4505476e-01f, -3.0708930e-01f, 9.9790774e-02f, 3.3435038e-01f, 2.3432146e-01f, -8.7931305e-02f, 5.9909183e-01f, 1.8769866e-02f, 3.6999255e-02f, 4.1133416e-01f, 1.3498139e-01f},
    {4.2267639e-02f, 1.5010738e-01f, -2.7525520e-01f, -3.0592084e-01f, -5.2847356e-02f, 9.1615424e-02f, 4.4100590e-02f, 4.1403878e-01f, 9.5795590e-01f, 1.3275074e+00f, -5.1671769e-02f, -4.6748379e-01f, 5.4879880e-01f, -5.8334470e-01f, -4.7501349e-01f, -1.7357549e-01f, 2.6253906e-01f, -6.8876547e-01f, 2.6569340e-01f, -5.1937127e-01f, 4.2100048e-01f, -1.3773727e+00f, -1.7775255e-01f, -1.3177814e-02f, 3.5749814e-01f, 3.2145065e-01f, -1.3186727e-01f, 6.8630330e-02f, -1.0562235e-01f, -1.1715219e+00f, -6.4705670e-01f, 2.8015791e-02f},
    {-1.0876198e-02f, 3.8532549e-01f, -1.0689921e-01f, 3.4910381e-01f, 2.1929047e-01f, -1.9526865e-01f, 5.4281974e-01f, -7.2650068e-02f, -6.0999662e-01f, 3.3846936e-01f, 3.7472952e-02f, 2.1353374e-01f, 3.5218647e-01f, 2.1413529e-01f, 1.2891795e-03f, 3.4296900e-01f, -2.8844652e-01f, 3.4385207e-01f, -8.6172111e-03f, 5.5881262e-01f, 4.7926165e-02f, 3.9084524e-01f, -2.8895786e-01f, 2.7263147e-01f, 6.3532650e-01f, 2.5284028e-01f, -6.5077901e-02f, 3.1089482e-01f, 3.3556980e-01f, 6.0151629e-02f, 2.6349759e-01f, 4.5642701e-01f},
    {2.2313081e-01f, -3.5627186e-01f, 2.9375759e-01f, -1.1027870e+00f, -1.7407402e+00f, -5.0631309e-01f, -6.9882721e-01f, -1.3997187e-01f, 2.1209214e+00f, -1.8779657e+00f, -7.7601343e-01f, -2.2410491e-01f, -1.7011846e+00f, -3.4373975e+00f, 7.5137430e-01f, -6.0277814e-01f, -1.1545154e+00f, -1.2499702e-01f, 4.5493412e-01f, -2.8716147e+00f, -3.0799237e-01f, -9.1491854e-01f, 4.3338957e-01f, 3.3455873e-01f, -5.1499009e-01f, -5.1414937e-01f, 5.2484804e-01f, -4.0913200e-01f, -3.1726861e+00f, -2.2608462e-01f, -2.9012828e+00f, -1.9540054e+00f},
    {-1.8703231e-01f, -3.3174330e-01f, -5.1234680e-01f, -2.8595674e-01f, 1.0329220e-01f, -2.7928415e-01f, 1.5512472e-01f, 3.8687614e-01f, -2.2483665e-01f, 7.5909356e-03f, -4.2178747e-01f, -3.9764825e-01f, 3.5215190e-01f, -1.0369018e-01f, 2.5905314e-01f, -1.1010497e-01f, 3.7729430e-01f, -5.8724666e-01f, 2.5017372e-01f, -1.1397723e-01f, -5.1578951e-01f, 8.1392020e-02f, -8.2103275e-02f, -4.0576082e-01f, 3.4540239e-01f, -2.6038293e-02f, 5.0096500e-01f, 6.6218905e-02f, 2.5145668e-01f, -1.0947925e-01f, 1.7310941e-01f, 4.7740030e-01f},
    {-5.6690369e-02f, 3.9828110e-01f, 8.7174714e-02f, 2.0983650e-01f, -2.1702102e-01f, -1.9043399e-01f, 4.6680802e-01f, -7.3879868e-02f, -7.1878266e-01f, -4.0363529e-01f, 1.6945681e-01f, 2.3119472e-01f, 3.2975495e-01f, 2.4004671e-04f, 4.1235524e-01f, 2.2313593e-01f, -3.4542200e-01f, 2.8655624e-01f, 1.1520472e-01f, 5.1132679e-01f, -1.7674677e-01f, 3.5657966e-01f, -2.3435253e-01f, 1.0339869e-01f, 1.4384052e-01f, 3.8223383e-01f, -1.2254333e-01f, 2.0898817e-01f, 3.7635806e-01f, 3.8115731e-01f, 3.2857904e-01f, 3.3155560e-01f},
    {2.6517394e-01f, 7.4374840e-02f, 8.8638894e-02f, -7.0597720e-01f, -1.3055060e+00f, 3.3395711e-01f, -1.0472975e+00f, -2.0005673e-01f, 1.3139839e+00f, -3.5836101e-01f, 2.5123820e-01f, -1.0741152e+00f, 1.2908851e-01f, -4.6286258e-01f, 3.3990571e-01f, -4.2279691e-01f, 2.8448987e-01f, -3.1331196e-01f, 5.9078646e-01f, -2.7294803e-01f, -2.7634618e-01f, -6.6110981e-01f, 3.6097372e-01f, 1.4527491e-01f, -4.2645252e-01f, -4.1501958e-02f, 3.6032295e-01f, -1.5029967e-01f, 3.6860180e-01f, -5.2756947e-02f, -1.0447491e+00f, -1.0465057e+00f},
};
const float B2[32] PROGMEM = {
    -6.2746376e-02f, 1.7333421e-03f, -1.6294672e-01f, 4.9058583e-01f, 2.9632736e-02f, -4.1133445e-03f, 4.3937403e-01f, 5.0108212e-01f, 4.0563184e-01f, -2.3823024e-01f, -1.5838426e-01f, 1.6821095e-01f, -1.8256287e-01f, -7.8777811e-03f, 1.9312963e-01f, 3.9974561e-01f, 4.5063487e-01f, 5.9092170e-01f, 8.4254771e-02f, 2.8140008e-01f, 3.7469536e-01f, 1.3594829e-01f, 3.7485093e-01f, 4.0251195e-01f, 2.2558537e-01f, 4.6791133e-01f, -1.7811091e-01f, 3.3272088e-01f, 2.1547570e-03f, -3.9136630e-02f, 5.0619698e-01f, 1.4471783e-01f
};

const float W_ADV[9][32] PROGMEM = {
    {-6.3861333e-02f, -4.8667740e-02f, 2.4228641e-01f, 8.3103128e-02f, -1.6686378e-01f, 1.5707721e-01f, 9.4221383e-03f, -2.1855596e-01f, -7.2474303e-03f, -3.4509692e-02f, 6.6968247e-02f, 8.4062211e-02f, 1.1797744e-01f, 5.5590559e-02f, 7.6344758e-02f, 7.6237686e-02f, 7.4308828e-02f, 1.9018393e-02f, -8.7668551e-03f, -7.1735725e-02f, -7.4084601e-03f, -3.3911369e-03f, 4.6510626e-02f, -7.4290164e-02f, -9.0018459e-02f, 3.6884148e-02f, 1.0633953e-01f, 6.1096912e-03f, 6.1345711e-02f, 2.0245270e-01f, 5.7363431e-03f, -8.3715260e-02f},
    {-7.0406362e-02f, -4.5644198e-02f, 2.3505667e-01f, 5.9996933e-02f, 1.1292217e-01f, 1.5999255e-01f, -3.8655631e-02f, -2.4280624e-01f, 1.3117456e-03f, -2.2005187e-02f, 7.3854022e-02f, 9.4732940e-02f, 1.1180504e-01f, 4.0266957e-02f, 4.0100820e-02f, 6.5858692e-02f, 1.2206014e-01f, 1.3108755e-02f, -5.9971828e-03f, -8.4937297e-02f, -1.4153696e-02f, -3.8524810e-03f, 3.8876563e-02f, -7.0047960e-02f, -8.5593797e-02f, 3.3468880e-02f, 1.0301194e-01f, 1.1401739e-01f, 6.5761700e-02f, 1.9858684e-01f, -2.2065908e-02f, -8.1816263e-02f},
    {-6.9767229e-02f, -4.9514323e-02f, 2.3474029e-01f, 8.1927732e-02f, -1.5905076e-01f, 1.6208903e-01f, -4.2575353e-04f, -2.1171471e-01f, 7.4125128e-03f, -3.4544546e-02f, 6.6982590e-02f, 8.6188756e-02f, 1.1509626e-01f, 5.9637222e-02f, 6.0750686e-02f, 7.4042670e-02f, 6.5940760e-02f, 1.6313352e-02f, -8.7214205e-03f, -7.1740709e-02f, -8.4015178e-03f, -3.3596840e-03f, 4.8432924e-02f, -7.3457122e-02f, -9.0122975e-02f, 4.5116413e-02f, 1.0853160e-01f, 2.8413542e-02f, 6.5807953e-02f, 1.9995439e-01f, -7.5936415e-03f, -8.3366871e-02f},
    {-5.5410679e-02f, -4.5141187e-02f, 2.4477565e-01f, 5.4169353e-02f, -4.7776448e-03f, 1.4075071e-01f, -5.6593996e-02f, -1.7797844e-01f, 2.8211944e-02f, -1.5163427e-02f, 6.3230589e-02f, 9.5574103e-02f, 1.1807806e-01f, 4.4423927e-02f, 5.7419099e-02f, 7.1209215e-02f, 1.4769782e-01f, 1.9533044e-02f, -5.8246488e-03f, -7.8883633e-02f, -2.4696685e-02f, -8.7994598e-03f, 3.3266671e-02f, -7.3504381e-02f, -7.7035181e-02f, -5.1487377e-03f, 8.7345794e-02f, 8.5069641e-02f, 5.7220321e-02f, 1.9807640e-01f, -7.5244926e-02f, -8.7504826e-02f},
    {-7.5607762e-02f, -5.3557105e-02f, 2.0184499e-01f, 8.7760590e-02f, -6.6289231e-02f, 1.6012360e-01f, -4.5188691e-02f, -1.2748401e-01f, 1.0381146e-01f, -3.0771114e-02f, 5.6848258e-02f, 9.7831547e-02f, 1.0546036e-01f, 6.1449047e-02f, -7.9613421e-03f, 5.0773229e-02f, 1.6445385e-02f, 1.4264762e-02f, -6.9733574e-03f, -6.9938049e-02f, -1.7070182e-02f, -6.9526299e-03f, 5.1484801e-02f, -7.3153384e-02f, -9.2331283e-02f, 6.4148359e-02f, 1.0584773e-01f, 1.0268705e-01f, 6.9869854e-02f, 1.9402517e-01f, -8.9605838e-02f, -8.9600824e-02f},
    {9.9574924e-02f, -6.5555103e-02f, 5.6700712e-01f, -4.6856418e-01f, -9.5538618e-03f, 2.8210726e-01f, 1.0056765e-01f, 3.1902090e-01f, 6.1947767e-02f, 2.1942155e-03f, 4.3502244e-01f, 6.8388289e-01f, -1.4339967e-01f, -2.6984785e-02f, 1.4308234e-01f, -5.0110734e-01f, 1.0602713e-02f, 2.2227992e-01f, 2.6768959e-01f, -2.0332958e-01f, 1.5914181e-01f, -3.5755122e-01f, -5.7369184e-01f, -2.2560975e-01f, -1.1947399e-01f, 7.5871907e-02f, -9.7808361e-02f, -1.7152354e-01f, 4.7048569e-02f, 3.0387166e-01f, 6.3347809e-02f, -3.2745552e-01f},
    {-5.3746663e-02f, -4.6858512e-02f, 2.3662528e-01f, 1.1488269e-01f, -1.2663677e-02f, 1.5485068e-01f, 4.1919038e-02f, -7.6763086e-02f, 8.8844977e-02f, -1.3710517e-02f, 6.0247909e-02f, 9.7161628e-02f, 1.1382112e-01f, 5.8185935e-02f, 1.2304539e-02f, 7.0400305e-02f, -1.5951954e-02f, 2.3916639e-02f, -5.6034732e-03f, -6.2699430e-02f, -1.8674500e-02f, -1.2679131e-02f, 3.4946058e-02f, -7.3466010e-02f, -1.0279429e-01f, 6.9903880e-02f, 6.5973707e-02f, -4.2293470e-02f, 5.7785843e-02f, 1.8925595e-01f, -1.1103599e-01f, -9.3341380e-02f},
    {-1.1069780e-01f, -1.6329943e-01f, -9.1268313e-01f, -1.2145691e-01f, -7.0495822e-02f, 4.7694460e-01f, -8.4036872e-02f, 1.0484163e-01f, 7.8892104e-02f, -1.2816270e-01f, -4.5050561e-02f, 3.5383776e-01f, 1.4886451e-01f, -3.8749970e-02f, 1.8874671e-01f, -8.9964047e-03f, -2.3724551e-01f, -1.6973063e-01f, 1.0674783e-01f, -2.6417401e-01f, -5.9935939e-03f, 1.5205160e-01f, -2.7470848e-01f, 4.4082385e-01f, -9.9776223e-02f, -2.5607267e-01f, 2.7083305e-01f, 1.6905567e-01f, 7.5651579e-02f, 1.0166939e-02f, 2.3596634e-01f, -1.8531856e-01f},
    {-2.8824529e-02f, 4.5804102e-03f, 3.8097081e-01f, 1.3936819e-01f, -1.2446102e-01f, -5.1279294e-01f, -3.7026130e-02f, 1.6218784e-01f, -4.6306193e-02f, -2.6294904e-02f, -5.4536122e-01f, -9.7953933e-01f, 1.6796689e-01f, 9.9651717e-02f, -1.1934520e-01f, 3.5984567e-01f, -5.6969980e-03f, 6.6902019e-02f, -1.6188568e-01f, 2.0500524e-01f, -1.4952250e-01f, -5.6723762e-02f, 7.5800800e-01f, -3.2725322e-01f, 2.0095114e-01f, 9.0011870e-03f, 3.3937928e-01f, 9.2609495e-02f, -1.2938713e-01f, -2.0707329e-01f, 1.3430654e-01f, 5.3728777e-01f},
};
const float B_ADV[9] PROGMEM = {
    -8.6888723e-02f, -4.9699746e-02f, -8.5102662e-02f, -3.7149373e-02f, -9.2142366e-02f, -1.7518468e-01f, -1.0725030e-01f, 5.1013019e-02f, 1.8849373e-01f
};

// === Action lookup table ============================================
// idx -> (left_motor, right_motor) in [-1, +1].
const float ACTION_MAP[N_ACTIONS][2] PROGMEM = {
    { -1.0f, -1.0f },
    { -1.0f, +0.0f },
    { -1.0f, +1.0f },
    { +0.0f, -1.0f },
    { +0.0f, +0.0f },
    { +0.0f, +1.0f },
    { +1.0f, -1.0f },
    { +1.0f, +0.0f },
    { +1.0f, +1.0f },
};

inline float relu(float x) { return x > 0.0f ? x : 0.0f; }

inline uint8_t predict_action(const float in[INPUT_DIM]) {
    float h1_act[H1_DIM];
    for (uint8_t i = 0; i < H1_DIM; ++i) {
        float s = pgm_read_float(&B1[i]);
        for (uint8_t j = 0; j < INPUT_DIM; ++j) {
            s += pgm_read_float(&W1[i][j]) * in[j];
        }
        h1_act[i] = relu(s);
    }
    float h2_act[H2_DIM];
    for (uint8_t i = 0; i < H2_DIM; ++i) {
        float s = pgm_read_float(&B2[i]);
        for (uint8_t j = 0; j < H1_DIM; ++j) {
            s += pgm_read_float(&W2[i][j]) * h1_act[j];
        }
        h2_act[i] = relu(s);
    }
    // Advantage head, argmax. No mean subtraction needed: it shifts
    // all advantages by the same constant so doesn't affect argmax.
    float best = -1e30f;
    uint8_t best_idx = 0;
    for (uint8_t a = 0; a < N_ACTIONS; ++a) {
        float s = pgm_read_float(&B_ADV[a]);
        for (uint8_t j = 0; j < H2_DIM; ++j) {
            s += pgm_read_float(&W_ADV[a][j]) * h2_act[j];
        }
        if (s > best) { best = s; best_idx = a; }
    }
    return best_idx;
}

inline void action_to_motors(uint8_t idx, float &left, float &right) {
    left  = pgm_read_float(&ACTION_MAP[idx][0]);
    right = pgm_read_float(&ACTION_MAP[idx][1]);
}

// === Self-test ========================================================
// 10 (obs, expected_action_idx) pairs computed in Python with the
// same forward pass. A healthy port should return 0 mismatches.

constexpr uint8_t SELFTEST_N = 10;
const float SELFTEST_INPUTS[SELFTEST_N][INPUT_DIM] PROGMEM = {
    {7.8225148e-01f, 6.7148674e-01f, 2.3738091e-01f, 1.7946133e-01f, 3.4662366e-01f, 1.5211000e-01f, 3.1142953e-01f, 2.3900652e-01f, 5.4355729e-01f, 9.1770852e-01f, 4.4426471e-01f, 7.6028407e-01f, 1.0000000e+00f, 1.0000000e+00f, 1.0000000e+00f, 8.1693262e-01f, -5.6447226e-01f, 1.8797915e-01f, 1.0666716e-01f, 2.7914754e-01f, -2.7924818e-01f},
    {5.7528079e-01f, 5.1188409e-01f, 6.5716028e-01f, 9.4673002e-01f, 9.1530371e-01f, 7.2023469e-01f, 1.2275448e-01f, 9.0934145e-01f, 7.1328205e-01f, 3.5330293e-01f, 2.2136687e-01f, 9.1407830e-01f, 0.0000000e+00f, 1.0000000e+00f, 0.0000000e+00f, 1.7998953e-01f, -3.3618766e-01f, 1.8325223e-01f, 2.9630309e-01f, 2.3972215e-01f, 8.7376702e-01f},
    {8.1568706e-01f, 3.4031337e-01f, 9.6281809e-01f, 6.8378705e-01f, 3.6398761e-02f, 3.8488835e-01f, 1.4208660e-01f, 3.5420442e-01f, 9.6771896e-01f, 5.9558707e-01f, 3.9578947e-01f, 1.8387862e-01f, 1.0000000e+00f, 0.0000000e+00f, 1.0000000e+00f, -2.4330628e-01f, -4.4411266e-01f, 9.7857851e-01f, -6.7899477e-01f, -6.7044586e-01f, -2.4212965e-01f},
    {2.7742505e-01f, 7.1824449e-01f, 9.1700965e-01f, 4.2292172e-01f, 1.8352397e-01f, 5.0074804e-01f, 8.2354164e-01f, 3.6341172e-01f, 4.8882684e-01f, 5.7166481e-01f, 8.7326735e-01f, 6.9645077e-01f, 1.0000000e+00f, 1.0000000e+00f, 1.0000000e+00f, 9.2762369e-01f, -8.6537963e-01f, 6.9623035e-01f, 7.5847411e-01f, 7.8175175e-01f, -9.8002106e-01f},
    {8.2750422e-01f, 2.3478284e-01f, 3.6083201e-01f, 7.8728916e-03f, 9.9284118e-01f, 1.3794023e-01f, 7.1772945e-01f, 7.8305352e-01f, 8.1705695e-01f, 2.3756208e-01f, 2.9640472e-01f, 6.4491922e-01f, -1.0000000e+00f, 1.0000000e+00f, 1.0000000e+00f, 5.5438441e-01f, -3.7426227e-03f, 2.4060822e-01f, -5.9703094e-01f, 4.0270835e-01f, -2.6019722e-01f},
    {2.4609593e-01f, 7.1284014e-01f, 2.6234612e-01f, 3.6387229e-01f, 5.3549528e-01f, 8.6538607e-01f, 5.5542082e-01f, 7.0500332e-01f, 9.2982268e-01f, 9.2670482e-01f, 6.5358496e-01f, 2.2874308e-01f, 1.0000000e+00f, 0.0000000e+00f, 1.0000000e+00f, 6.1888051e-01f, 2.4767758e-01f, 1.5258378e-01f, 3.4837705e-01f, 6.9352198e-01f, -3.9986655e-01f},
    {6.0755247e-01f, 7.2169608e-01f, 4.5971435e-01f, 7.4091196e-01f, 4.8540241e-01f, 4.7401345e-01f, 1.7382109e-01f, 5.5975801e-01f, 8.2909465e-03f, 9.6654989e-02f, 4.1962749e-01f, 8.4805220e-01f, -1.0000000e+00f, 1.0000000e+00f, 1.0000000e+00f, 3.1988531e-01f, 9.7138226e-01f, 5.1316589e-01f, 2.0850340e-01f, -6.4179772e-01f, -9.2225063e-01f},
    {7.4905768e-02f, 5.2538419e-01f, 5.7628736e-02f, 1.9067481e-01f, 1.9450092e-01f, 7.5254834e-01f, 4.2582300e-01f, 7.8523964e-02f, 3.5428083e-01f, 3.1330422e-01f, 1.3918379e-01f, 5.9584761e-01f, 0.0000000e+00f, 0.0000000e+00f, 0.0000000e+00f, 8.9315981e-01f, -8.0423295e-01f, 3.7726501e-01f, 6.5722400e-01f, -2.2511004e-02f, -1.6522080e-01f},
    {4.6279541e-01f, 5.6573886e-01f, 3.2004872e-01f, 9.9741983e-01f, 3.1586149e-01f, 6.9485116e-01f, 7.1598309e-01f, 5.2608173e-02f, 5.8463097e-02f, 2.2222981e-01f, 8.0328596e-01f, 8.0841434e-01f, -1.0000000e+00f, 0.0000000e+00f, 0.0000000e+00f, -9.5002592e-02f, -9.7817016e-01f, 7.0364678e-01f, 9.1102451e-01f, -3.0228537e-01f, 3.3932510e-01f},
    {1.9110176e-01f, 4.9776337e-01f, 4.8452115e-01f, 5.3070986e-01f, 1.4718379e-01f, 9.7159618e-01f, 7.2342217e-02f, 3.8065574e-01f, 6.8362308e-01f, 5.5065686e-01f, 3.9255676e-01f, 2.8394356e-01f, 0.0000000e+00f, 0.0000000e+00f, 0.0000000e+00f, 3.4610477e-01f, 6.3197516e-02f, 3.4132668e-01f, 9.8559171e-01f, 4.3956307e-01f, 7.1880198e-01f},
};
const uint8_t SELFTEST_EXPECTED[SELFTEST_N] PROGMEM = {
    8, 8, 8, 8, 8, 8, 5, 5, 8, 8
};

inline uint8_t verify_self_test() {
    uint8_t mismatches = 0;
    for (uint8_t k = 0; k < SELFTEST_N; ++k) {
        float in[INPUT_DIM];
        for (uint8_t j = 0; j < INPUT_DIM; ++j) {
            in[j] = pgm_read_float(&SELFTEST_INPUTS[k][j]);
        }
        uint8_t got = predict_action(in);
        uint8_t expected = pgm_read_byte(&SELFTEST_EXPECTED[k]);
        if (got != expected) ++mismatches;
    }
    return mismatches;
}

}  // namespace mini_sumo_ai
