// Auto-generated by train_dqn.py — do not edit by hand.
//
// Dueling Double DQN, advantage head only (argmax over Q is invariant
// to the value head + mean shift, so AVR firmware can skip V).
//
// Architecture:
//   input(21)
//     -> Linear(32) ReLU
//     -> Linear(32) ReLU
//     -> Linear(9)    (advantage head, raw logits)
//   action_idx = argmax(advantage)
//   (left_motor, right_motor) = ACTION_MAP[action_idx]
//
// Inputs = K-frame raw-distance stack (oldest distances first) followed
// by the 9 single-frame engineered features. For INPUT_DIM=21, K=4:
//   [0 .. 11]  stacked (front,left,right) x K, each in [0, 1]
//                 layout: f[t-K+1],l,r, ... , f[t],l[t],r[t]
//   [12] last_seen        in {-1, 0, +1}
//   [13] line_l           in {0, 1}
//   [14] line_r           in {0, 1}
//   [15] prev_left        in [-1, +1]
//   [16] prev_right       in [-1, +1]
//   [17] engagement       in [0, 1]
//   [18] yaw_rate_proxy   in [-1, +1]
//   [19] front_ir_delta   in [-1, +1]
//   [20] lateral_ir_delta in [-1, +1]

#pragma once
#include <avr/pgmspace.h>
#include <stdint.h>

namespace mini_sumo_ai {

constexpr uint8_t INPUT_DIM  = 21;
constexpr uint8_t H1_DIM     = 32;
constexpr uint8_t H2_DIM     = 32;
constexpr uint8_t N_ACTIONS  = 9;

// === Weights =========================================================
const float W1[32][21] PROGMEM = {
    {1.3498864e-01f, 1.6840047e-01f, 4.1201126e-02f, 1.4993803e-01f, -4.5565166e-02f, 1.4686599e-01f, -1.3739643e-01f, 1.2942408e-01f, 2.0478874e-01f, -2.0764677e-01f, 4.0347931e-01f, -1.9459122e-01f, 1.7647147e-01f, -7.8811842e-01f, -6.1973298e-01f, 9.6787699e-02f, 1.8950808e-01f, 2.9499882e-01f, -1.7248365e-01f, 6.2335718e-02f, -3.9225158e-01f},
    {3.2080209e-01f, -2.4504018e-01f, -9.9476203e-02f, 3.5040459e-01f, -1.2939703e-01f, -1.4800628e-01f, 4.8631003e-01f, -1.1605515e-01f, -5.5255157e-01f, 8.3444285e-01f, -8.1561923e-01f, -6.2952989e-01f, 1.2037059e-01f, 2.8859873e-03f, 1.3263035e-01f, 1.6083539e-01f, 7.0434511e-02f, 1.5889402e-01f, 6.3650064e-02f, -8.4496468e-02f, -6.3948476e-01f},
    {-2.0959032e-01f, 3.4497753e-01f, 3.6833096e-01f, -2.7228788e-01f, 2.8095663e-01f, 2.1755172e-01f, -2.4591967e-01f, -1.1746716e-01f, -1.3017006e-01f, -3.5454065e-01f, -7.4900097e-01f, 4.8135269e-01f, -1.2767220e-02f, -4.3264103e-01f, -4.5471963e-01f, 3.3940482e-01f, 2.9126856e-01f, 3.6876547e-01f, -1.0372749e-01f, -1.1411397e-01f, -6.3708842e-01f},
    {5.1692434e-02f, 1.9261591e-01f, -4.9186140e-02f, 3.1650707e-01f, 6.0405526e-03f, -7.2819337e-02f, 6.0232885e-02f, 3.1066141e-01f, 2.0752196e-01f, 4.3253943e-01f, -3.1545722e-01f, -1.5741104e-01f, -6.1290823e-02f, 5.7131338e-01f, 7.1080160e-01f, 2.0422961e-01f, 2.6858899e-01f, -2.8635323e-01f, 7.2026111e-02f, 1.5599592e-01f, 2.5595667e-02f},
    {2.1847539e-01f, 1.5001875e-01f, 1.9272660e-01f, 9.5113339e-03f, 1.1602999e-01f, 1.4193869e-01f, 2.2074671e-01f, 2.7536702e-01f, 2.1760330e-01f, 4.5761886e-01f, -1.6214968e-01f, -2.0368579e-01f, 4.1695032e-02f, 6.7051739e-01f, 7.3215842e-01f, -5.0113678e-01f, -3.5176811e-01f, -3.2675423e-02f, -2.6296893e-02f, 7.1522547e-03f, 7.2900929e-02f},
    {-2.5382298e-01f, 7.8586720e-02f, 5.7838388e-02f, -2.9004943e-01f, 2.2285067e-01f, 4.3120849e-01f, -3.9545268e-01f, 4.0594178e-01f, 2.1501817e-01f, -5.6443942e-01f, 5.0409403e-02f, 6.8631142e-01f, -2.9440859e-01f, -5.8951670e-01f, -7.0995116e-01f, 2.0963691e-02f, -1.1634087e-01f, 1.4680113e-01f, 6.2760733e-02f, -5.2253437e-01f, 2.1860360e-01f},
    {1.9406997e-01f, 6.0018603e-02f, 2.7962318e-01f, 1.1856333e-01f, 3.5448927e-01f, 2.0339024e-01f, -1.9997272e-01f, 3.7913471e-01f, 3.6054057e-01f, -1.3490017e-01f, -1.1855105e-01f, 3.8865280e-01f, 7.9975434e-02f, 6.7836767e-01f, 6.9800532e-01f, 7.7067137e-02f, 3.3186293e-01f, -4.2409378e-01f, 1.9650896e-01f, -1.8820259e-01f, 6.5875930e-01f},
    {2.4040079e-01f, 3.6176369e-01f, -3.7316300e-02f, 1.3687104e-01f, 1.6183933e-02f, 4.1257560e-02f, 7.5565457e-02f, 3.2641730e-01f, -1.1709015e-01f, 3.8350815e-01f, 4.1792879e-01f, 2.3761295e-02f, -9.7621577e-03f, 2.8725696e-01f, 2.5674909e-01f, 1.0214575e-01f, -1.4193538e-01f, 1.4112453e-01f, 7.9820424e-02f, 2.1918409e-01f, 1.5881936e-01f},
    {1.4346364e-01f, 4.0122017e-02f, 7.4899316e-02f, 6.8072870e-02f, 1.7134865e-01f, 5.8260221e-02f, 1.3135386e-01f, 2.1641018e-02f, -4.2967606e-02f, 3.0169964e-01f, 4.7038728e-01f, -2.8401756e-01f, 6.5606207e-02f, 3.0748391e-01f, 3.4230831e-01f, -2.9176993e-02f, 1.7616464e-01f, 1.7557217e-01f, 1.0673799e-01f, 1.1606266e-01f, -1.5339357e-01f},
    {1.8750596e-01f, 1.1447006e-01f, 4.8745006e-02f, 3.2769129e-01f, 1.9843741e-01f, 1.2011316e-01f, 2.9738936e-01f, -1.4139044e-01f, 8.8251136e-02f, 4.6622261e-01f, -3.9395753e-01f, -3.3390144e-01f, -2.7929828e-01f, 9.5797992e-01f, 7.8675658e-01f, 1.2400211e-01f, 1.1562383e-02f, 5.3177886e-02f, 1.1621176e-01f, 2.3531458e-01f, -2.7704677e-01f},
    {7.5269982e-02f, 9.5436879e-02f, -1.7849895e-01f, -1.3085695e-01f, 4.7461689e-02f, 2.4174985e-01f, -1.3737346e-01f, 3.8104888e-02f, 2.4876553e-01f, -3.2547471e-01f, -3.0699664e-01f, 5.0585914e-01f, -2.5586712e-01f, -4.6053627e-01f, -5.9345853e-01f, 9.0823181e-02f, 1.5708791e-01f, 3.8813883e-01f, -2.3348816e-01f, -1.1378012e+00f, 9.3389027e-02f},
    {3.3405921e-01f, 3.8161156e-01f, 4.7484306e-01f, 3.5816729e-01f, 3.7650254e-01f, 2.5279072e-01f, 7.2481178e-02f, 1.3390945e-01f, 6.8315081e-02f, 4.1054717e-01f, 9.1706805e-02f, 3.3071205e-01f, -4.9403051e-01f, -2.4475832e-01f, -5.8841747e-01f, 3.2883964e-02f, -7.1576439e-02f, -1.0286798e-01f, 6.5740228e-01f, 2.2464250e-01f, 3.3814046e-03f},
    {5.1491484e-02f, -1.8387742e-04f, 4.5401707e-02f, -1.0217936e-01f, 1.5670669e-01f, -1.9887982e-01f, 4.1816393e-01f, 1.7955828e-01f, 4.6044299e-03f, 1.6818985e-01f, 5.3109252e-01f, -4.0968376e-01f, 3.5948464e-01f, 3.6433873e-01f, 1.4595968e-01f, 3.8053807e-02f, -1.7945252e-01f, -1.9753207e-01f, 2.0646183e-01f, 2.4330735e-01f, -7.7366985e-02f},
    {2.7272102e-01f, 2.5538760e-01f, -8.6416095e-02f, -8.3185703e-02f, 8.6832181e-02f, 1.3917468e-01f, -1.7186917e-01f, 7.6201409e-03f, 3.1429909e-02f, 5.3317705e-03f, -2.2222386e-01f, 5.6747403e-02f, 6.3787862e-03f, 5.0978512e-01f, 7.9844612e-01f, 2.1613501e-01f, -2.1931641e-02f, -1.2359600e-01f, -3.2100905e-02f, -3.9316830e-01f, 9.0704449e-02f},
    {1.2958255e-01f, -1.3855533e-01f, -6.7392863e-02f, 3.3491459e-02f, -4.7368690e-02f, -8.7447446e-03f, -1.5352876e-01f, -6.8794832e-02f, 4.0805273e-02f, -1.1187936e-01f, -4.1384706e-01f, 4.8655868e-01f, -3.0127338e-01f, -4.4944683e-01f, -7.2251952e-01f, 1.9908406e-01f, 4.6751598e-01f, 4.8010904e-01f, -4.1314790e-01f, 4.8682576e-01f, 5.7291156e-01f},
    {-3.1330040e-01f, 4.0380064e-01f, 3.6547154e-01f, -4.4892082e-01f, 3.6027250e-01f, 1.1372715e-01f, -6.7633015e-01f, 5.5515647e-01f, 5.1438004e-01f, -7.2353619e-01f, 6.6283360e-02f, 1.5121736e-01f, 8.1231318e-02f, -3.4770358e-01f, -3.0689329e-01f, 8.3573759e-02f, -1.9948367e-02f, -2.4687726e-02f, 1.0137056e-01f, -1.9144222e-01f, 2.9762682e-01f},
    {1.9876692e-01f, 3.7687656e-02f, 9.6731037e-02f, 1.5659033e-01f, -1.0778978e-01f, 1.8338148e-01f, 2.2998406e-01f, -3.6360294e-01f, 1.0975239e-01f, 1.4024366e-01f, -2.0475222e-01f, -2.7316442e-01f, -5.8647287e-01f, 8.4731865e-01f, 7.7125245e-01f, 2.0789954e-01f, 3.2590613e-01f, 4.7575220e-02f, -1.5019728e-02f, -1.1545555e-01f, -4.0160921e-01f},
    {3.8315976e-01f, -2.9772213e-01f, -9.0642206e-02f, 4.2561612e-01f, -2.7040744e-01f, -3.2360357e-01f, 5.9996188e-01f, -1.7476237e-01f, -1.8549852e-01f, 6.2840062e-01f, -5.9547967e-01f, -6.7395020e-01f, -1.4769787e-01f, 1.8478496e-01f, 1.2215126e-01f, 4.7574662e-02f, 4.1018609e-02f, 2.4471675e-01f, -4.0567990e-02f, -1.1236668e-01f, -7.8546673e-02f},
    {3.2460958e-01f, -2.6885536e-02f, 2.6800442e-01f, 6.4388909e-03f, 2.1135534e-01f, 2.4500769e-01f, 1.9264843e-01f, 3.3092672e-01f, -5.2743424e-02f, 1.1944241e-01f, 1.6088763e-01f, 2.1893391e-01f, -1.6126885e-01f, 3.9920816e-01f, 5.4721934e-01f, 2.1110187e-01f, 1.0671275e-01f, -1.9901314e-01f, -2.5217569e-02f, 8.9000672e-02f, 2.6476404e-01f},
    {3.5993561e-02f, 3.8449936e-02f, 2.6219824e-01f, 1.1547148e-01f, 3.9921351e-02f, 5.2236207e-02f, -2.5074534e-02f, -1.0116725e-01f, 1.0369545e-01f, 2.1662708e-02f, 2.9381299e-01f, -7.3952489e-03f, -5.3992707e-02f, 7.8972751e-01f, 6.0605937e-01f, 2.8803375e-01f, -4.9294725e-02f, -9.8096706e-02f, 1.4404184e-01f, -2.1835382e-01f, 2.9288443e-02f},
    {1.8708877e-01f, -1.3745600e-01f, -2.5376859e-01f, 3.1955823e-01f, 7.2146550e-02f, -1.9499865e-01f, 3.9823017e-01f, -1.1985067e-01f, -4.4035223e-01f, 5.6652659e-01f, 7.0187199e-01f, -5.1730615e-01f, -1.3118646e-02f, -8.3517444e-01f, -8.1141239e-01f, 6.9298431e-02f, 1.7684688e-03f, 2.7016716e-02f, 1.7453429e-01f, 8.0854994e-01f, 3.0896208e-01f},
    {2.6742095e-01f, 1.4700875e-01f, 2.6351285e-01f, 3.2354239e-01f, 3.1744409e-02f, -3.3000186e-02f, 3.3292082e-01f, 3.3349782e-01f, 6.6534087e-02f, 1.8944904e-01f, -2.7133387e-01f, -4.6266024e-03f, 5.7268914e-02f, 7.7300715e-01f, 6.7445898e-01f, 1.0367176e-01f, 3.3952671e-01f, -7.0749208e-02f, -1.4496965e-02f, 5.8309887e-02f, 3.0712900e-01f},
    {1.9127244e-01f, 6.3693896e-02f, 3.1518906e-01f, 3.8016237e-02f, 7.3112883e-03f, 3.5477288e-02f, 4.4729307e-01f, 3.8552096e-01f, 3.2754818e-01f, 4.3313757e-01f, 4.7670302e-01f, 1.2118684e-01f, -4.2839879e-01f, -3.3152685e-02f, -4.9231219e-01f, -2.3980340e-02f, -1.3784543e-01f, 1.1725550e-01f, 5.4451984e-01f, 3.0199978e-01f, -1.3024971e-01f},
    {1.4781514e-01f, -7.8082323e-02f, -1.5379056e-02f, 3.3742061e-01f, -1.7302305e-02f, 2.6803461e-01f, 5.5638915e-01f, -2.0266150e-03f, 2.1943755e-01f, 5.2316409e-01f, -2.4086282e-01f, 4.1424116e-01f, -2.0951131e-01f, 4.6790749e-02f, 5.4525279e-02f, -1.1298380e-01f, -2.0039298e-01f, -1.9778809e-01f, -2.6967883e-02f, 6.0795492e-01f, 3.4731135e-01f},
    {5.1434445e-01f, -1.7852652e-01f, -3.0364016e-01f, 4.2545310e-01f, -1.8010095e-01f, -1.0338711e-01f, 6.6549677e-01f, -3.9615673e-01f, -1.3429967e-01f, 5.1126349e-01f, -7.0429724e-01f, -7.7776551e-01f, 3.7803192e-04f, -1.2648791e-01f, 6.2587601e-03f, 4.7994033e-02f, 3.4927567e-03f, 2.5022218e-01f, -6.1452802e-02f, 9.3817331e-02f, 1.1400836e-01f},
    {-9.4847083e-02f, 2.5669670e-01f, 1.6863084e-01f, 2.1535224e-01f, 2.0489278e-01f, 1.3351502e-01f, 1.4488758e-01f, 1.8686011e-01f, 3.6480293e-01f, 4.7574306e-01f, 2.0011596e-01f, 1.1064021e-01f, -2.3429097e-01f, 1.0127223e-01f, 3.3571285e-01f, -1.4772410e-02f, -8.7377757e-02f, -2.8220573e-01f, 3.5753500e-01f, 5.5925411e-01f, 2.8635105e-01f},
    {2.2182404e-01f, 3.0484879e-01f, 2.6466930e-01f, 4.1082196e-02f, 5.7750292e-02f, 1.4347909e-01f, 1.8037319e-01f, 2.4888551e-01f, 2.9223081e-02f, 1.0851305e-01f, 3.9658985e-01f, 1.2588298e-01f, 1.6173533e-01f, 2.3151299e-01f, 1.6657329e-01f, 2.9712677e-01f, 3.7669566e-02f, -2.9149076e-01f, 5.2519929e-02f, 1.4770919e-01f, -9.9610716e-02f},
    {-6.3191897e-01f, -6.1191928e-02f, -3.8431242e-01f, -5.3706694e-01f, -1.1128851e-01f, -2.7839312e-01f, -1.0559842e-01f, 1.8857855e-01f, 1.0000371e-01f, -1.4660761e-01f, 1.1136959e-01f, -4.6735406e-02f, 1.2470960e-01f, 6.7199469e-02f, -2.0836477e-01f, 7.4118972e-02f, 3.4355003e-01f, 3.2891208e-01f, -5.2895721e-02f, 4.7370818e-02f, 2.3175041e-01f},
    {1.2030977e-01f, 2.4120833e-01f, 2.0847937e-01f, 2.7395245e-01f, -4.5419492e-02f, 1.1979339e-01f, -2.1837579e-01f, -1.3532321e-01f, 2.5632507e-01f, -3.1296131e-01f, -8.5280582e-02f, 6.9890195e-01f, -4.4704071e-01f, 4.1960290e-01f, 4.9439661e-02f, -1.0671493e-01f, -8.8877082e-02f, -4.2070359e-01f, 2.7265368e-02f, -2.3892024e-01f, 1.7719352e-01f},
    {3.2092208e-01f, 2.2801229e-01f, 2.0985503e-02f, -5.3193055e-02f, 2.0979507e-01f, 1.7736609e-01f, 2.0453678e-01f, 1.3268594e-01f, -5.3587429e-02f, 1.5133162e-01f, 5.2897078e-01f, -2.0472396e-02f, 6.2131651e-02f, -5.5576388e-02f, 5.6290094e-02f, 1.0172819e-01f, -9.8828143e-03f, 1.9736050e-02f, 1.0589254e-01f, 3.4861572e-02f, 1.2930325e-01f},
    {2.1089014e-02f, 3.8718089e-02f, 2.8578195e-01f, 3.2194722e-01f, 1.6996070e-03f, 1.2350049e-01f, 4.9060069e-02f, 3.8987346e-02f, 1.2492181e-01f, 2.0066394e-01f, 1.4438695e-01f, -1.9151302e-01f, 2.5382954e-01f, 7.7373934e-01f, 3.4018433e-01f, 2.1341796e-01f, 1.7035615e-01f, -1.2816310e-01f, 1.1242089e-01f, -5.1620235e-03f, 2.8906903e-01f},
    {4.0241499e-02f, 2.9127702e-01f, 1.7689173e-01f, 1.7615727e-01f, 2.1708344e-01f, 8.9632377e-02f, 1.4427270e-01f, 7.8677565e-02f, 3.2156706e-01f, 1.2882137e-01f, 4.0201554e-01f, -1.6507620e-01f, 2.0899902e-01f, 1.2117232e-01f, 3.4995174e-01f, 1.8045649e-01f, 1.4851019e-01f, 8.9905545e-02f, -1.8221769e-01f, 2.8880712e-01f, 1.6033454e-01f},
};
const float B1[32] PROGMEM = {
    4.3674532e-01f, 4.6608403e-01f, 2.0211273e-01f, 8.8598870e-02f, 2.1731347e-01f, 1.0079476e-01f, -1.6157466e-01f, 1.7966228e-03f, 2.6247290e-01f, 1.7815426e-01f, 5.5336002e-02f, 1.9626227e-01f, -1.4534117e-01f, 1.4559419e-01f, 7.3486514e-02f, -4.6003360e-02f, -1.9465280e-01f, 3.6027282e-01f, 1.4189857e-01f, 3.0088103e-01f, 1.9108619e-01f, 2.6985735e-01f, 5.5806052e-02f, 2.2736093e-02f, 6.5689397e-01f, 7.9715252e-02f, -9.5932148e-02f, 7.3616570e-01f, 3.5164777e-02f, -7.2490394e-02f, 8.6385161e-03f, -1.0508213e-01f
};

const float W2[32][32] PROGMEM = {
    {3.3706805e-01f, -5.7838190e-02f, -2.0169547e-01f, -3.4683456e-03f, 8.7835059e-02f, 8.9050971e-02f, -2.4474159e-01f, 4.8623517e-02f, 1.0410253e-01f, -1.4753170e-02f, 2.4665464e-01f, 1.4151962e-01f, 5.1547550e-03f, -3.3487231e-01f, 6.6909291e-02f, 4.5398176e-01f, 1.3586175e-01f, 5.6887001e-01f, 6.9801733e-03f, 8.8789299e-02f, 1.4398452e-02f, -1.0525886e-01f, 1.3863242e-01f, -2.3408528e-01f, 4.1658190e-01f, -4.1301243e-02f, 7.2477877e-02f, -1.1618415e-01f, -3.6520204e-01f, 1.0867266e-01f, -2.5390742e-02f, 1.7071189e-01f},
    {-6.6877586e-01f, -7.3704880e-01f, -9.9912155e-01f, 4.8077384e-01f, 6.7029959e-01f, -8.5084313e-01f, 3.3631971e-01f, 1.7697698e-01f, 4.5827080e-02f, 4.1928500e-01f, -6.5350872e-01f, -2.0509170e-01f, -9.2039190e-02f, 3.7703088e-01f, -7.9204124e-01f, -9.6227241e-01f, 2.4676308e-01f, -6.0597855e-01f, 1.4111345e-01f, 7.0870921e-02f, -7.5716621e-01f, 3.7194481e-01f, -2.4697910e-01f, 2.8736785e-01f, -6.5523499e-01f, 2.3460278e-01f, -1.3482495e-01f, 2.1269849e-01f, -2.4952602e-01f, -9.4615065e-02f, 3.4846804e-01f, -7.5943865e-02f},
    {-3.5880712e-01f, 1.7127182e-01f, 8.6329818e-02f, 4.5167130e-01f, 6.2649381e-01f, 7.2686918e-02f, 6.9942546e-01f, 5.5717979e-02f, -8.2998045e-02f, 6.2079495e-01f, 2.2110975e-01f, 1.5266891e-01f, -3.9673401e-03f, 2.9032290e-01f, 4.1457355e-02f, -2.6196581e-01f, 7.8141205e-02f, -3.2333952e-01f, 2.9218748e-01f, 2.7576947e-01f, -9.3092269e-01f, 5.7301366e-01f, -9.0072669e-02f, 6.8259209e-02f, -5.7467796e-02f, -6.7210000e-04f, 2.6076567e-01f, 2.3585641e-01f, 4.3755540e-01f, -1.6083244e-02f, 1.6882817e-01f, 2.7840400e-01f},
    {-2.0631325e-01f, -5.3126997e-01f, -9.5210814e-01f, 4.1255298e-01f, 5.9384340e-01f, -7.9077208e-01f, 4.1792738e-01f, 2.0391884e-01f, 4.1341311e-01f, 5.4830962e-01f, -3.9287442e-01f, 4.0190821e-03f, 3.2248050e-01f, 3.7806365e-01f, -5.0812131e-01f, -6.9970185e-01f, 8.2230461e-01f, -4.3466225e-01f, 1.2224028e-01f, 4.7658816e-01f, -5.2193207e-01f, 4.6113861e-01f, -5.5959329e-02f, -4.2643543e-02f, -3.4127599e-01f, 1.6415566e-01f, 3.2346782e-01f, 5.0906962e-01f, 1.7667466e-01f, 8.6398423e-02f, 4.6936345e-01f, 2.9026836e-01f},
    {-3.3269474e-01f, -2.3854789e-01f, -3.5505748e-01f, 4.5262164e-01f, 5.4322296e-01f, -2.4893712e-01f, 5.1370609e-01f, 1.3360965e-01f, 2.6630715e-01f, 3.2793540e-01f, -1.7168216e-01f, 7.4104317e-03f, 8.1531234e-02f, 2.9198283e-01f, -2.0407541e-01f, -6.8440580e-01f, 3.2733369e-01f, -2.1947691e-01f, 3.0209240e-01f, 2.2775570e-01f, -7.3130822e-01f, 4.4546822e-01f, 9.1499686e-02f, 2.8590879e-01f, -1.2674789e-01f, 2.8726882e-01f, 3.9058569e-01f, 7.1442229e-01f, 3.7052163e-01f, -3.1992008e-03f, 3.9186251e-01f, 9.2517577e-02f},
    {7.0820510e-02f, 5.2870061e-02f, -2.5890429e-02f, 7.4069403e-02f, 3.3856321e-02f, -6.8195373e-01f, -6.5419006e-01f, 1.2926398e-01f, 9.5064856e-02f, 7.8058563e-02f, -1.2997647e-01f, -8.2966857e-02f, 1.3094918e-01f, -6.6944689e-02f, 2.4464165e-01f, -2.4671349e-01f, 5.4119182e-01f, 4.1014981e-01f, -3.9130013e-02f, 1.3183627e-01f, 5.8138454e-01f, 5.6924134e-02f, 2.0443675e-01f, 6.5983102e-02f, 3.8028714e-01f, 7.4146666e-02f, -1.1844923e-01f, 7.8249708e-02f, -2.8110525e-01f, -4.8278011e-02f, 7.1324348e-02f, 1.3206520e-02f},
    {-2.7473694e-01f, -1.7713323e-01f, -2.9166311e-01f, 2.9680416e-01f, 7.3961252e-01f, 8.6620092e-02f, 8.3115870e-01f, 1.4003308e-01f, 1.3365251e-01f, 6.8195611e-01f, -1.2593582e-01f, 1.3616826e-01f, -3.1703386e-02f, 2.7397695e-01f, -2.9669026e-01f, -3.1353027e-01f, 4.4292176e-01f, -1.7040916e-01f, 3.8680348e-01f, 2.2536322e-01f, -8.3330536e-01f, 4.3841511e-01f, 5.6778532e-02f, -1.2399224e-02f, -3.6384311e-01f, 1.8681863e-01f, 7.9816565e-02f, 5.7063848e-01f, 5.7722199e-01f, -4.4511419e-02f, 1.6457245e-01f, 2.2710896e-01f},
    {8.8214070e-02f, 2.3101662e-01f, 1.4293462e-01f, -1.1660334e-01f, -1.3919848e-01f, 1.4069310e-01f, -8.3652131e-02f, 3.3538725e-02f, -1.2803920e-02f, -1.1312583e-02f, 1.0261925e-01f, 1.1230522e-01f, -1.0967653e-01f, -2.0329404e-01f, 6.1385162e-02f, 4.0338859e-01f, -3.2870370e-01f, 4.9426106e-01f, -7.1704313e-02f, -1.7161946e-01f, 1.4033175e-01f, 1.1375363e-02f, 4.1759633e-02f, -1.8153837e-02f, 4.7468784e-01f, 2.2753756e-01f, 1.8712531e-01f, -5.1015830e-01f, -1.5719709e-01f, 9.8457709e-02f, 1.2871684e-01f, 1.1934862e-01f},
    {-2.4388830e-01f, -3.0664471e-01f, 8.3175853e-02f, 2.8038123e-01f, 2.7013883e-01f, -1.3225652e-01f, 9.3991891e-02f, 1.7334032e-01f, 2.7534515e-01f, 8.7293372e-02f, 6.3695736e-02f, 2.8147882e-01f, 2.9571769e-01f, 2.5703949e-01f, 3.1721767e-02f, -7.2742087e-01f, 1.0393637e-01f, -4.9815822e-01f, 3.7073329e-01f, 4.7297862e-01f, 2.9673332e-02f, 2.8416523e-01f, 3.0377576e-01f, 4.6149155e-01f, -6.0183877e-01f, 2.2628453e-01f, 5.4722879e-02f, 6.0920131e-01f, 3.6458296e-01f, 7.6403737e-02f, 8.1795841e-02f, 2.0966519e-01f},
    {2.1747304e-01f, 4.9645370e-01f, 3.4964982e-01f, 3.9463337e-03f, -1.2578411e-01f, 3.7633240e-01f, -1.7488673e-01f, -1.5306242e-01f, -2.4035692e-02f, 1.1046939e-02f, 1.2756062e-01f, 2.6298344e-01f, -1.2569088e-01f, -1.9402240e-01f, 1.6191725e-01f, 4.3222359e-01f, -1.2954609e-01f, 6.3750964e-01f, 4.3699559e-02f, -2.0289302e-01f, 2.3885590e-01f, -5.3015715e-03f, 2.5398254e-01f, 2.4940088e-01f, 1.5245271e-01f, 1.7381439e-01f, 1.5424110e-01f, -1.7070681e-01f, -2.1363954e-01f, -4.2034421e-02f, -1.7847168e-01f, -8.4333867e-02f},
    {-2.6709965e-01f, -1.1197231e+00f, -1.0386758e+00f, 2.0070460e-02f, 1.8174589e-01f, -1.3889157e+00f, -1.9885945e-01f, 2.0737761e-01f, 4.2823595e-01f, -1.8459073e-01f, -7.3173958e-01f, 1.7881900e-01f, 5.3210157e-01f, -9.3611926e-03f, -1.0370789e+00f, -1.3450996e+00f, 8.2877856e-01f, -1.1314983e+00f, 1.0441883e-01f, 3.5664925e-01f, 6.5398797e-02f, -3.0287651e-02f, 2.7078250e-01f, 5.5838048e-01f, -1.0580175e+00f, 8.8264152e-02f, 2.9680690e-01f, 5.2960390e-01f, -4.5844346e-01f, 1.5848379e-01f, 4.9282479e-01f, 2.5923398e-01f},
    {2.0444767e-01f, -3.6825952e-01f, -6.3057983e-01f, -2.3003523e-01f, 7.2728507e-02f, -1.3708130e-01f, 1.4237721e-02f, -5.1046270e-03f, -2.2396281e-01f, 2.3180676e-01f, -2.7124789e-01f, -1.4884688e-01f, 4.0041152e-02f, -2.7045179e-02f, -6.5829441e-02f, 1.5857138e-01f, 2.2293130e-01f, 2.8465730e-01f, -2.0265663e-01f, 8.1979260e-03f, -4.6430179e-01f, -2.0926893e-01f, -3.0026290e-01f, -3.5600144e-01f, 2.0135051e-01f, -1.6838883e-01f, -1.9529997e-01f, 2.3039822e-01f, -2.6547289e-01f, 4.2417251e-02f, 8.2608044e-02f, 1.2781955e-01f},
    {-4.3216714e-01f, -8.2204258e-01f, -1.2567738e+00f, 3.6961725e-01f, 4.1564631e-01f, -7.1138376e-01f, 5.7014638e-01f, 8.4456876e-03f, -1.0069435e-01f, 7.3780042e-01f, -6.2711203e-01f, -5.5978879e-02f, -1.8810229e-01f, 2.5570706e-01f, -8.5092121e-01f, -7.9545665e-01f, 3.9122605e-01f, -5.2159578e-01f, 9.7358257e-02f, 1.6701911e-01f, -1.0781306e+00f, 2.6230156e-01f, -2.2045329e-01f, -2.9325670e-01f, -6.4035124e-01f, 7.8988463e-02f, 2.8745230e-02f, 3.6032745e-01f, -4.4553686e-02f, 9.9463679e-02f, 3.2588494e-01f, 2.0446861e-01f},
    {-3.8510463e-01f, -1.1385093e+00f, -1.2101334e+00f, 1.6591920e-01f, 1.9049175e-01f, -1.2259426e+00f, -1.5631907e-01f, 4.1392669e-01f, 3.9854559e-01f, 2.1783451e-02f, -7.9490018e-01f, 1.3270889e-01f, 3.3705714e-01f, -2.0028703e-02f, -6.5917981e-01f, -1.3202579e+00f, 4.9712932e-01f, -1.0013462e+00f, 3.4997806e-02f, 1.4217234e-01f, 1.5929015e-03f, 1.8463911e-01f, 1.8063429e-01f, 1.4130412e-01f, -9.0324897e-01f, 1.1501155e-01f, 4.1888922e-02f, 3.8123533e-01f, 5.0345916e-02f, 2.1707433e-01f, 1.2543327e-01f, 3.8142288e-01f},
    {3.7865937e-01f, 5.1080400e-01f, -4.2976454e-01f, 3.2614794e-02f, 2.8991827e-01f, 3.5551044e-01f, -7.3641427e-02f, 9.2090227e-02f, 8.8916952e-03f, 3.1465280e-01f, 1.9937287e-01f, 1.3274199e-01f, -3.2451785e-01f, -2.1573756e-02f, -6.0907174e-02f, 6.7945802e-01f, -1.8080342e-01f, 6.5902954e-01f, -9.2355706e-02f, -7.7950992e-02f, -1.0596448e-01f, -7.7905051e-02f, 1.2534468e-01f, -1.7674211e-01f, 7.5854075e-01f, -3.7257403e-02f, 1.4742702e-01f, -8.2892187e-02f, -1.9678153e-01f, 2.3688516e-02f, -1.3226373e-01f, -1.2417101e-01f},
    {-8.5417956e-02f, -4.8637992e-01f, -6.5275377e-01f, 3.3991578e-01f, 6.1611664e-01f, -3.7537217e-01f, 3.5921600e-01f, 2.7111945e-01f, 4.1711020e-01f, 5.5497980e-01f, -2.6062000e-01f, -1.2564841e-01f, 1.4876942e-01f, 2.3951580e-01f, -4.6396962e-01f, -5.6469870e-01f, 6.4596599e-01f, -4.8085213e-01f, 1.6040142e-01f, 5.1264131e-01f, -7.6832932e-01f, 2.4969810e-01f, 1.0705972e-01f, 5.9153568e-02f, -9.0945028e-02f, 2.7504638e-01f, 3.8330048e-01f, 5.6037843e-01f, 2.3887654e-01f, 3.1672367e-01f, 2.9580000e-01f, 4.5302337e-01f},
    {2.9341248e-01f, 6.6264063e-01f, 6.6128248e-01f, -1.1586801e-01f, -4.0911239e-01f, 5.9154910e-01f, 1.3676096e-01f, -4.3793704e-02f, -8.0218159e-02f, -6.6027039e-01f, 3.9165357e-01f, 5.5527061e-01f, -1.3500401e-01f, -2.7421823e-01f, 4.9683446e-01f, 5.3030789e-01f, -7.2022086e-01f, 3.6082006e-01f, 2.3393098e-01f, -2.8530028e-01f, 6.1210990e-01f, 7.7394117e-03f, 3.3145899e-01f, 4.8817262e-01f, -4.4941291e-02f, 2.6308888e-01f, 4.4368714e-02f, -5.8899957e-01f, 4.2061591e-01f, 4.1111344e-03f, -4.8063025e-01f, -1.6810343e-01f},
    {-5.5758554e-01f, -7.2764295e-01f, -9.8752832e-01f, -1.8609097e-02f, 5.3752935e-01f, -4.4047269e-01f, 5.0715482e-01f, 2.5976095e-01f, -7.0945315e-02f, 5.8012527e-01f, -3.5341579e-01f, -1.5978138e-01f, 6.7423545e-02f, 2.7831519e-01f, -6.9300830e-01f, -1.0829892e+00f, 4.9034700e-01f, -4.1124433e-01f, -9.6876444e-03f, 2.6274413e-01f, -1.1057262e+00f, -7.7747099e-02f, 7.6712035e-02f, -3.6519654e-02f, -6.2895375e-01f, 1.9059458e-01f, -7.3166387e-03f, 5.4969603e-01f, 4.4525617e-01f, 9.4409354e-02f, 5.9797682e-02f, 1.6598232e-01f},
    {-3.0086142e-01f, -7.3688483e-01f, 2.8983822e-01f, 1.2083299e-01f, -9.7385086e-02f, -1.8223545e-01f, 4.7413614e-02f, 3.3903457e-02f, 2.7539495e-01f, 7.9238238e-03f, 1.5261176e-01f, 2.9485720e-01f, 4.5373753e-01f, 1.8766949e-01f, 3.4725091e-03f, -6.5150386e-01f, -1.0900222e-01f, -1.1523592e+00f, 2.2489254e-01f, 3.0171809e-01f, -7.3357098e-02f, 2.9020345e-01f, 1.9930984e-01f, 3.5877579e-01f, -1.0853192e+00f, 3.2315993e-01f, 2.2843830e-01f, 4.8834634e-01f, 2.8706810e-01f, 8.8637136e-02f, 9.1450475e-02f, 2.1908151e-01f},
    {2.1077868e-01f, 8.1607997e-01f, 8.3173305e-01f, -1.3930357e-01f, -3.5582250e-01f, 6.7837816e-01f, 7.4547060e-02f, 1.3697553e-01f, -3.4541535e-01f, -5.8525038e-01f, 3.5131177e-01f, 4.7500181e-01f, -3.1150872e-01f, -2.7042013e-01f, 5.5927032e-01f, 7.5421709e-01f, -9.6384454e-01f, 3.4199923e-01f, 5.8945064e-02f, -1.7977695e-01f, 8.6846244e-01f, 7.4583970e-02f, 2.3995949e-01f, 5.2062148e-01f, 9.3197569e-02f, 3.4361863e-01f, 2.3054071e-01f, -6.8679607e-01f, 3.0135411e-01f, -8.3683796e-02f, -2.7876139e-01f, -8.6392969e-02f},
    {3.6590606e-01f, 6.7379677e-01f, 4.2966482e-01f, 7.0709579e-02f, -9.3431070e-02f, 6.3852394e-01f, 1.3986073e-01f, 6.7140192e-02f, 5.5007443e-02f, -2.4950595e-01f, 4.2012534e-01f, 2.4822783e-01f, -2.6490042e-01f, 2.2576986e-02f, 3.9414167e-01f, 6.9663578e-01f, -7.2611111e-01f, 7.3861039e-01f, -1.3126947e-01f, -1.1888794e-02f, 3.0716723e-01f, -1.6132259e-01f, 1.2427286e-01f, -3.7046786e-02f, 8.5830629e-01f, 2.7292839e-01f, 7.9195492e-02f, 5.4056523e-03f, 3.6237217e-02f, -5.4263931e-02f, -1.4193188e-01f, 1.8489506e-02f},
    {2.1771985e-01f, 9.6857578e-02f, 1.6569841e-01f, 1.4303514e-02f, 2.3992358e-01f, -3.5760731e-01f, 1.4276075e-02f, -2.3290041e-01f, 1.0158149e-01f, -1.7993218e-01f, -1.6193876e-01f, -1.3067052e-01f, -8.3726786e-02f, -1.8154255e-01f, -4.5946147e-02f, -8.0322653e-02f, -3.1593408e-02f, -2.6202286e-02f, -5.9631839e-02f, -7.3455296e-02f, 2.5006279e-03f, 2.3925246e-03f, -2.5271329e-01f, -1.1514086e-01f, 3.2248102e-02f, -3.3824238e-01f, -1.4716171e-01f, 5.0187618e-02f, -1.7839639e-01f, -1.9206047e-01f, -1.0833933e-01f, -4.8520137e-02f},
    {2.2004035e-01f, 5.6068730e-01f, 1.8933155e-01f, 1.0510819e-01f, 6.3740194e-02f, 2.2426538e-01f, -2.6563740e-01f, 7.0420057e-02f, -9.1574408e-02f, -9.7507715e-02f, 5.1787160e-02f, 2.3418823e-01f, -7.2640665e-02f, -3.0034559e-02f, 2.1120243e-01f, 3.3655879e-01f, -3.5822979e-01f, 5.2112842e-01f, -4.7925625e-02f, -1.3595870e-01f, 2.7162397e-01f, -1.2599286e-01f, 3.4019062e-01f, 1.3176465e-01f, 6.5912700e-01f, 2.3567975e-01f, -1.3490118e-01f, -9.5027857e-02f, 4.6722293e-02f, 1.5483668e-01f, -2.7992520e-01f, 1.0849521e-02f},
    {-4.6617460e-01f, -8.0400217e-01f, -9.9154973e-01f, 3.1143775e-02f, 3.7814662e-01f, -7.9920799e-01f, 3.9136758e-01f, 1.2088174e-01f, -6.5086417e-02f, 4.4401342e-01f, -3.1735089e-01f, -2.0911950e-01f, 1.4170891e-01f, 3.4060502e-01f, -5.5633163e-01f, -9.6616948e-01f, 5.8901972e-01f, -6.7561036e-01f, 2.2098355e-01f, 1.0162389e-01f, -1.1050516e+00f, 2.5383699e-01f, 3.4676168e-02f, -2.4187827e-02f, -6.9950593e-01f, -7.6411432e-03f, 2.0486759e-01f, 5.1409668e-01f, 2.5092936e-01f, 1.6420028e-01f, 1.8696825e-01f, 1.3798961e-01f},
    {2.4608521e-01f, 8.3175963e-01f, 4.6272431e-02f, 1.1479085e-01f, 1.3922752e-01f, 7.7341050e-01f, 2.1659952e-01f, 1.5577978e-02f, -1.0394779e-01f, 1.7858028e-01f, 1.5866542e-01f, 7.0666067e-02f, -2.2033623e-01f, -7.3513791e-02f, 3.7794372e-01f, 9.5162225e-01f, -4.0808174e-01f, 1.0342791e+00f, -6.0491715e-02f, -1.3991973e-01f, -1.1203590e-01f, -1.6716672e-01f, -3.1834699e-02f, -3.5052526e-01f, 5.9597975e-01f, 1.0872225e-01f, 1.7918622e-01f, 5.1834214e-02f, 2.9559013e-01f, 7.1391076e-02f, -5.5354387e-02f, -9.3284309e-02f},
    {-2.9788842e-02f, -2.3957749e-01f, 5.3444606e-01f, 3.2167995e-01f, 5.5667575e-02f, -4.6256416e-02f, -6.9808170e-02f, 3.9491558e-01f, 1.3874148e-01f, 4.3963619e-02f, 9.4253987e-02f, 3.7763461e-01f, 1.9948739e-01f, 3.0976400e-01f, 1.5217780e-01f, -7.3879480e-01f, -1.4456672e-02f, -5.2257621e-01f, 3.3764267e-01f, 2.6379457e-01f, 2.6126519e-01f, 2.4693617e-01f, 2.1287198e-01f, 4.0707812e-01f, -6.0495120e-01f, 2.0309190e-01f, 2.2291924e-01f, 4.4997883e-01f, 2.2864294e-01f, -1.1379605e-02f, -8.8221967e-02f, -2.0286465e-01f},
    {-2.9489028e-01f, -1.1651406e+00f, -1.2535031e+00f, 1.6188520e-01f, -8.5620508e-02f, -1.0395678e+00f, -2.4454901e-01f, 4.4912305e-01f, 4.2161715e-01f, 1.5425834e-01f, -7.4451119e-01f, -9.3922049e-02f, 2.5937876e-01f, -7.9149097e-02f, -1.0340991e+00f, -1.3661317e+00f, 8.0594438e-01f, -1.0669191e+00f, 2.6939210e-01f, 3.1754288e-01f, -9.2729449e-02f, 5.4644298e-02f, 1.7340139e-02f, 2.2182979e-01f, -1.0602558e+00f, 2.9573661e-01f, 3.1220725e-01f, 3.1131059e-01f, -2.8938183e-01f, 1.5413614e-01f, 3.5127220e-01f, 2.9488990e-01f},
    {-2.7578857e-02f, -1.7283713e-02f, -7.6785924e-05f, 3.7621282e-02f, -7.5947359e-02f, -1.2028160e-01f, 2.1608165e-02f, -4.6186559e-02f, -1.1779679e-01f, 4.9086530e-02f, -2.1695212e-02f, -5.2235898e-02f, -1.0327491e-01f, -5.0510913e-02f, -1.7833227e-01f, 2.1268403e-02f, -2.1089470e-02f, 8.9786202e-02f, -1.3708825e-02f, -1.1195243e-02f, 2.8115783e-02f, 1.0464931e-01f, -1.0766648e-01f, 7.9748631e-02f, 5.1412634e-03f, -1.4019300e-01f, 3.9584577e-02f, -1.2157297e-01f, -7.9843879e-02f, -1.0320438e-01f, -1.4804944e-01f, 1.1845888e-01f},
    {1.2254616e-01f, 8.2257813e-01f, 2.9134852e-01f, 5.8104731e-03f, -1.5437857e-02f, 7.1451509e-01f, 1.3954338e-01f, 1.3882278e-02f, -8.0261491e-02f, -1.6771984e-01f, 2.1623410e-01f, 2.6294485e-01f, -3.8132906e-01f, -1.9622140e-01f, 4.7244793e-01f, 5.7859337e-01f, -6.9947195e-01f, 6.3830018e-01f, 1.6120663e-01f, -1.1752937e-01f, 2.8081466e-02f, -3.4318797e-02f, 2.2190194e-01f, 1.0996554e-01f, 7.9545343e-01f, -4.5109736e-03f, 8.3234631e-02f, -4.1001472e-01f, 1.0506246e-01f, 2.6667856e-02f, -8.8520743e-02f, -2.1502382e-01f},
    {-7.0067331e-02f, 1.8695517e-02f, -1.2508611e-01f, -1.5788536e-01f, -1.7006674e-01f, 9.8681748e-03f, 9.8124914e-02f, 2.3939719e-02f, -1.0445362e-02f, 7.1451418e-02f, -1.1201262e-01f, 4.5990166e-03f, -6.5290347e-02f, -8.7273337e-02f, 1.3238612e-01f, -1.3676375e-01f, 7.4294619e-03f, -1.5533590e-01f, -2.5302870e-02f, -9.6363254e-02f, 3.9158605e-02f, -1.1796938e-01f, 1.0022540e-01f, -1.6049384e-01f, 8.0838680e-02f, -1.5412632e-01f, 7.4575648e-02f, -8.6071834e-02f, -1.9003311e-02f, -5.3220984e-02f, 9.2718855e-02f, 3.7661437e-02f},
    {-4.8556712e-01f, -4.4704635e-02f, -4.9516061e-01f, 4.8403931e-01f, 6.6797984e-01f, -4.4813406e-02f, 6.2599868e-01f, 1.2493227e-01f, 1.0401627e-02f, 7.4567407e-01f, 8.0042124e-02f, 1.1398427e-01f, 6.7662880e-02f, 2.2141814e-01f, -1.5700960e-01f, -4.1963929e-01f, 3.1069484e-01f, -2.1756881e-01f, 2.9195395e-01f, 4.5624143e-01f, -7.6543146e-01f, 4.5674989e-01f, -2.3923059e-01f, -1.1806881e-01f, -3.1597728e-01f, 1.1805475e-01f, 5.9921768e-02f, 3.1096235e-01f, 4.4718540e-01f, 1.9426502e-01f, 2.4715178e-01f, 1.1757455e-01f},
    {3.0609915e-01f, 5.8887100e-01f, -6.0892910e-02f, -6.4017653e-02f, -1.9413931e-02f, 6.9080561e-01f, 3.4275904e-01f, -1.5160760e-01f, 8.5298601e-04f, 1.7311929e-01f, 3.4711874e-01f, 9.6880548e-02f, -2.8924599e-01f, 3.5951205e-02f, 3.3463141e-01f, 9.1193497e-01f, -3.2366621e-01f, 8.7155181e-01f, 8.7371014e-02f, -2.0460106e-01f, 5.7674263e-02f, -9.5581084e-02f, 1.7746024e-01f, -2.0744696e-01f, 6.6717178e-01f, 8.0378115e-02f, -1.6630508e-01f, -2.8899893e-01f, -2.6529169e-02f, 8.0549650e-02f, 4.4766463e-02f, -1.7218271e-01f},
};
const float B2[32] PROGMEM = {
    3.2750078e-02f, -2.8202370e-01f, 7.6923132e-02f, 1.9887258e-01f, 2.4312289e-01f, -2.1613881e-02f, 1.6535451e-01f, 7.9815246e-02f, 2.6503420e-01f, 7.6573670e-02f, -1.8004103e-01f, 7.3564224e-02f, -2.7239341e-01f, 2.7866134e-02f, -5.8612347e-02f, 2.4289843e-01f, 1.8846624e-01f, -1.3569458e-01f, 2.1974951e-01f, 3.1777367e-01f, 2.0410304e-01f, 8.7053441e-02f, 2.1804704e-01f, 4.7730748e-02f, 6.7841657e-02f, 4.4265419e-01f, -3.7224330e-02f, -4.5394197e-02f, 2.7217317e-01f, -1.1476959e-01f, 1.1562221e-01f, 2.7692381e-01f
};

const float W_ADV[9][32] PROGMEM = {
    {-1.9583689e-01f, -2.7607702e-02f, -3.4015719e-02f, -3.8476788e-02f, -1.6181007e-01f, -1.1596747e-01f, 1.1367306e-01f, 9.6136801e-02f, 9.9915422e-02f, 9.8024480e-02f, 2.4980687e-02f, -9.5939234e-02f, -1.0940249e-01f, -5.8803655e-02f, 1.0951518e-01f, -1.3231080e-02f, 5.2106716e-02f, -1.6976582e-01f, -8.7048054e-02f, -2.5888564e-02f, 1.3384002e-01f, -9.1876566e-02f, -2.0338000e-01f, 1.0524403e-02f, 5.6360144e-02f, -2.9114608e-02f, 6.2194828e-02f, 7.4268818e-02f, -1.8791395e-01f, -1.6335006e-01f, 1.0015309e-01f, -1.9427356e-01f},
    {-2.4887486e-01f, 1.7091180e-01f, 8.4969342e-02f, -7.0200972e-02f, -5.0734270e-02f, -2.0856412e-01f, 2.0227146e-01f, -9.1953591e-02f, -5.3870846e-02f, -7.4235484e-02f, 2.5740927e-01f, 2.5819722e-03f, -1.3509561e-02f, -1.2599928e-02f, -1.6293202e-01f, 1.9813772e-02f, 2.1850939e-01f, -1.7624681e-01f, 4.0248491e-02f, -3.0124988e-02f, -1.3070567e-01f, 1.3458110e-01f, -2.0647885e-02f, 1.9154058e-01f, -5.3528987e-02f, -7.0199370e-02f, -2.1399902e-02f, 1.3736728e-01f, -1.2388575e-01f, 6.5120734e-02f, 1.0798537e-01f, 3.9384887e-02f},
    {-4.6062984e-02f, 8.5658832e-03f, 1.3004184e-01f, -1.6253920e-01f, -8.3405823e-02f, 9.8943654e-03f, 3.0872438e-02f, -5.7891566e-02f, -7.3178425e-02f, -4.1526776e-02f, 1.8776549e-01f, -6.8499669e-02f, -1.7563647e-03f, 1.8773132e-03f, 2.2726111e-02f, -1.4306735e-01f, -1.4301589e-02f, 5.4742996e-02f, 6.0144491e-02f, 4.0294854e-03f, -2.7277553e-01f, -3.4864503e-03f, 3.2655734e-03f, 1.9221691e-02f, 3.1984430e-02f, -1.7354020e-01f, 9.0755582e-02f, -1.3035525e-01f, 4.5384455e-02f, 1.0437731e-01f, 9.9798635e-02f, 6.2070146e-02f},
    {-1.6795418e-01f, -1.5068702e-01f, -4.7593974e-02f, 7.7460431e-02f, -2.3140304e-03f, -1.6910505e-01f, 5.1582180e-02f, 1.3513538e-01f, -1.7120102e-01f, 2.8809624e-02f, 8.9128941e-02f, -3.8830899e-02f, 1.3681099e-01f, 1.0454536e-01f, -1.5799373e-02f, 8.7695144e-02f, 1.3263753e-01f, -2.2834918e-01f, -1.2112802e-01f, 1.4445795e-01f, -1.3948271e-01f, -6.7310728e-02f, -4.1128095e-02f, -3.6458354e-02f, -1.1848285e-01f, -1.2136322e-01f, 1.1752445e-01f, 6.6871718e-02f, 6.8760805e-02f, -8.0703557e-02f, 3.1886529e-02f, -8.6422391e-02f},
    {5.1094167e-02f, -1.2588841e-01f, 1.3837744e-01f, 7.5837374e-02f, -2.0101228e-01f, -1.1340449e-01f, -4.9051424e-03f, -1.2319086e-01f, 8.0973253e-02f, 4.9834773e-02f, 3.2791275e-01f, -1.1446071e-01f, 4.7516502e-02f, -1.1650361e-01f, -1.5248394e-01f, -2.3411155e-02f, 1.5693873e-01f, 4.3634050e-02f, -1.2830156e-01f, 7.2916172e-02f, -1.6838616e-01f, -3.2239344e-02f, -1.7693862e-01f, -6.8048634e-02f, 6.1176199e-02f, -1.5664995e-01f, -1.1517595e-01f, 1.2304410e-02f, -1.0115477e-03f, -6.0192317e-02f, 1.4856188e-01f, -1.5274426e-01f},
    {-3.0676916e-01f, -4.7040349e-01f, -1.4697528e-01f, -3.7580720e-01f, -5.8459613e-02f, -1.3153912e-01f, -4.4111431e-02f, -1.9790898e-01f, 2.0783256e-01f, 6.8309411e-02f, -3.1002209e-01f, -4.3516928e-01f, -4.1971195e-01f, 4.0106058e-02f, -2.8677657e-01f, -4.7436541e-01f, 3.5321680e-01f, -4.8166353e-01f, 2.0065710e-01f, 2.9798567e-01f, 1.8362369e-01f, -1.4607133e-01f, 1.4418682e-01f, -2.1795815e-01f, 6.5771369e-03f, 2.5653163e-01f, -4.5794675e-01f, -1.4866325e-01f, 2.5177756e-01f, -1.2715882e-01f, -2.9247835e-01f, -4.8112329e-02f},
    {-6.7582682e-02f, -3.6608305e-02f, 4.0826933e-03f, 4.3105122e-02f, -1.8469931e-01f, 6.8435557e-03f, 8.2528457e-02f, 7.6816618e-02f, -5.9876770e-02f, 5.6996871e-02f, 3.4953997e-02f, -9.7636841e-03f, -8.0485374e-02f, -2.1020205e-01f, -1.6556658e-01f, 1.0294314e-01f, 2.2818942e-02f, -2.2008117e-01f, 5.8086477e-02f, 9.7084902e-02f, -9.0225779e-02f, -1.6865255e-01f, -1.7139482e-01f, 1.2898975e-02f, -9.9608116e-02f, -1.0688290e-01f, 6.6626437e-02f, 1.2321022e-01f, 1.6862258e-02f, 7.1863043e-03f, 1.8825254e-01f, 6.6536896e-02f},
    {2.8374848e-01f, -3.5551310e-01f, -5.5383480e-01f, 1.4879127e-01f, -2.6274325e-02f, 2.5840890e-01f, -1.3639700e-01f, 7.8653842e-02f, 2.3560357e-01f, 9.1956817e-02f, 4.7423398e-01f, 6.7870423e-02f, -1.9916819e-01f, 4.4846401e-01f, -2.8637145e-02f, 1.6500074e-01f, -1.3857941e-01f, -2.2637230e-01f, 2.1511012e-01f, -1.7443213e-01f, -1.9855885e-01f, -2.1206297e-02f, 1.0865936e-01f, 1.4148109e-01f, -3.1684640e-01f, 6.9336109e-02f, 4.5534894e-01f, -7.1007952e-02f, -1.7778055e-01f, -1.2066067e-01f, -4.7411174e-01f, -2.1155885e-01f},
    {2.9699111e-01f, 1.5816151e-01f, 1.0207380e-01f, 5.2923206e-02f, 1.3054651e-01f, 2.7930817e-02f, 2.5159529e-01f, 3.1966463e-02f, -4.3923337e-02f, -2.3653328e-01f, -1.0284050e+00f, 1.6982968e-01f, 1.7651865e-01f, -3.0629352e-01f, 3.8709679e-01f, 1.9036670e-01f, -2.7459297e-01f, 3.6573574e-01f, -1.5313672e-01f, -4.5909894e-01f, 1.8292615e-01f, 4.0372100e-02f, 1.7520449e-01f, 1.5740882e-01f, 4.4664177e-01f, -2.0791042e-01f, -5.5007613e-01f, -4.7325756e-02f, 2.0168175e-01f, -8.8682020e-04f, 1.9830608e-01f, 4.0606663e-01f},
};
const float B_ADV[9] PROGMEM = {
    2.1651822e-04f, 1.1998110e-02f, -1.1342294e-01f, 2.7119372e-02f, 1.6028084e-02f, -1.9018027e-01f, -1.3709764e-01f, 1.5498745e-01f, 1.6342193e-01f
};

// === Action lookup table ============================================
// idx -> (left_motor, right_motor) in [-1, +1].
const float ACTION_MAP[N_ACTIONS][2] PROGMEM = {
    { -1.0f, -1.0f },
    { -1.0f, +0.0f },
    { -1.0f, +1.0f },
    { +0.0f, -1.0f },
    { +0.0f, +0.0f },
    { +0.0f, +1.0f },
    { +1.0f, -1.0f },
    { +1.0f, +0.0f },
    { +1.0f, +1.0f },
};

inline float relu(float x) { return x > 0.0f ? x : 0.0f; }

inline uint8_t predict_action(const float in[INPUT_DIM]) {
    float h1_act[H1_DIM];
    for (uint8_t i = 0; i < H1_DIM; ++i) {
        float s = pgm_read_float(&B1[i]);
        for (uint8_t j = 0; j < INPUT_DIM; ++j) {
            s += pgm_read_float(&W1[i][j]) * in[j];
        }
        h1_act[i] = relu(s);
    }
    float h2_act[H2_DIM];
    for (uint8_t i = 0; i < H2_DIM; ++i) {
        float s = pgm_read_float(&B2[i]);
        for (uint8_t j = 0; j < H1_DIM; ++j) {
            s += pgm_read_float(&W2[i][j]) * h1_act[j];
        }
        h2_act[i] = relu(s);
    }
    // Advantage head, argmax. No mean subtraction needed: it shifts
    // all advantages by the same constant so doesn't affect argmax.
    float best = -1e30f;
    uint8_t best_idx = 0;
    for (uint8_t a = 0; a < N_ACTIONS; ++a) {
        float s = pgm_read_float(&B_ADV[a]);
        for (uint8_t j = 0; j < H2_DIM; ++j) {
            s += pgm_read_float(&W_ADV[a][j]) * h2_act[j];
        }
        if (s > best) { best = s; best_idx = a; }
    }
    return best_idx;
}

inline void action_to_motors(uint8_t idx, float &left, float &right) {
    left  = pgm_read_float(&ACTION_MAP[idx][0]);
    right = pgm_read_float(&ACTION_MAP[idx][1]);
}

// === Self-test ========================================================
// 10 (obs, expected_action_idx) pairs computed in Python with the
// same forward pass. A healthy port should return 0 mismatches.

constexpr uint8_t SELFTEST_N = 10;
const float SELFTEST_INPUTS[SELFTEST_N][INPUT_DIM] PROGMEM = {
    {7.8225148e-01f, 6.7148674e-01f, 2.3738091e-01f, 1.7946133e-01f, 3.4662366e-01f, 1.5211000e-01f, 3.1142953e-01f, 2.3900652e-01f, 5.4355729e-01f, 9.1770852e-01f, 4.4426471e-01f, 7.6028407e-01f, 1.0000000e+00f, 1.0000000e+00f, 1.0000000e+00f, 8.1693262e-01f, -5.6447226e-01f, 1.8797915e-01f, 1.0666716e-01f, 2.7914754e-01f, -2.7924818e-01f},
    {5.7528079e-01f, 5.1188409e-01f, 6.5716028e-01f, 9.4673002e-01f, 9.1530371e-01f, 7.2023469e-01f, 1.2275448e-01f, 9.0934145e-01f, 7.1328205e-01f, 3.5330293e-01f, 2.2136687e-01f, 9.1407830e-01f, 0.0000000e+00f, 1.0000000e+00f, 0.0000000e+00f, 1.7998953e-01f, -3.3618766e-01f, 1.8325223e-01f, 2.9630309e-01f, 2.3972215e-01f, 8.7376702e-01f},
    {8.1568706e-01f, 3.4031337e-01f, 9.6281809e-01f, 6.8378705e-01f, 3.6398761e-02f, 3.8488835e-01f, 1.4208660e-01f, 3.5420442e-01f, 9.6771896e-01f, 5.9558707e-01f, 3.9578947e-01f, 1.8387862e-01f, 1.0000000e+00f, 0.0000000e+00f, 1.0000000e+00f, -2.4330628e-01f, -4.4411266e-01f, 9.7857851e-01f, -6.7899477e-01f, -6.7044586e-01f, -2.4212965e-01f},
    {2.7742505e-01f, 7.1824449e-01f, 9.1700965e-01f, 4.2292172e-01f, 1.8352397e-01f, 5.0074804e-01f, 8.2354164e-01f, 3.6341172e-01f, 4.8882684e-01f, 5.7166481e-01f, 8.7326735e-01f, 6.9645077e-01f, 1.0000000e+00f, 1.0000000e+00f, 1.0000000e+00f, 9.2762369e-01f, -8.6537963e-01f, 6.9623035e-01f, 7.5847411e-01f, 7.8175175e-01f, -9.8002106e-01f},
    {8.2750422e-01f, 2.3478284e-01f, 3.6083201e-01f, 7.8728916e-03f, 9.9284118e-01f, 1.3794023e-01f, 7.1772945e-01f, 7.8305352e-01f, 8.1705695e-01f, 2.3756208e-01f, 2.9640472e-01f, 6.4491922e-01f, -1.0000000e+00f, 1.0000000e+00f, 1.0000000e+00f, 5.5438441e-01f, -3.7426227e-03f, 2.4060822e-01f, -5.9703094e-01f, 4.0270835e-01f, -2.6019722e-01f},
    {2.4609593e-01f, 7.1284014e-01f, 2.6234612e-01f, 3.6387229e-01f, 5.3549528e-01f, 8.6538607e-01f, 5.5542082e-01f, 7.0500332e-01f, 9.2982268e-01f, 9.2670482e-01f, 6.5358496e-01f, 2.2874308e-01f, 1.0000000e+00f, 0.0000000e+00f, 1.0000000e+00f, 6.1888051e-01f, 2.4767758e-01f, 1.5258378e-01f, 3.4837705e-01f, 6.9352198e-01f, -3.9986655e-01f},
    {6.0755247e-01f, 7.2169608e-01f, 4.5971435e-01f, 7.4091196e-01f, 4.8540241e-01f, 4.7401345e-01f, 1.7382109e-01f, 5.5975801e-01f, 8.2909465e-03f, 9.6654989e-02f, 4.1962749e-01f, 8.4805220e-01f, -1.0000000e+00f, 1.0000000e+00f, 1.0000000e+00f, 3.1988531e-01f, 9.7138226e-01f, 5.1316589e-01f, 2.0850340e-01f, -6.4179772e-01f, -9.2225063e-01f},
    {7.4905768e-02f, 5.2538419e-01f, 5.7628736e-02f, 1.9067481e-01f, 1.9450092e-01f, 7.5254834e-01f, 4.2582300e-01f, 7.8523964e-02f, 3.5428083e-01f, 3.1330422e-01f, 1.3918379e-01f, 5.9584761e-01f, 0.0000000e+00f, 0.0000000e+00f, 0.0000000e+00f, 8.9315981e-01f, -8.0423295e-01f, 3.7726501e-01f, 6.5722400e-01f, -2.2511004e-02f, -1.6522080e-01f},
    {4.6279541e-01f, 5.6573886e-01f, 3.2004872e-01f, 9.9741983e-01f, 3.1586149e-01f, 6.9485116e-01f, 7.1598309e-01f, 5.2608173e-02f, 5.8463097e-02f, 2.2222981e-01f, 8.0328596e-01f, 8.0841434e-01f, -1.0000000e+00f, 0.0000000e+00f, 0.0000000e+00f, -9.5002592e-02f, -9.7817016e-01f, 7.0364678e-01f, 9.1102451e-01f, -3.0228537e-01f, 3.3932510e-01f},
    {1.9110176e-01f, 4.9776337e-01f, 4.8452115e-01f, 5.3070986e-01f, 1.4718379e-01f, 9.7159618e-01f, 7.2342217e-02f, 3.8065574e-01f, 6.8362308e-01f, 5.5065686e-01f, 3.9255676e-01f, 2.8394356e-01f, 0.0000000e+00f, 0.0000000e+00f, 0.0000000e+00f, 3.4610477e-01f, 6.3197516e-02f, 3.4132668e-01f, 9.8559171e-01f, 4.3956307e-01f, 7.1880198e-01f},
};
const uint8_t SELFTEST_EXPECTED[SELFTEST_N] PROGMEM = {
    8, 8, 8, 1, 8, 1, 8, 5, 5, 8
};

inline uint8_t verify_self_test() {
    uint8_t mismatches = 0;
    for (uint8_t k = 0; k < SELFTEST_N; ++k) {
        float in[INPUT_DIM];
        for (uint8_t j = 0; j < INPUT_DIM; ++j) {
            in[j] = pgm_read_float(&SELFTEST_INPUTS[k][j]);
        }
        uint8_t got = predict_action(in);
        uint8_t expected = pgm_read_byte(&SELFTEST_EXPECTED[k]);
        if (got != expected) ++mismatches;
    }
    return mismatches;
}

}  // namespace mini_sumo_ai
