// Auto-generated by train_dqn.py — do not edit by hand.
//
// Dueling Double DQN, advantage head only (argmax over Q is invariant
// to the value head + mean shift, so AVR firmware can skip V).
//
// Architecture:
//   input(21)
//     -> Linear(32) ReLU
//     -> Linear(32) ReLU
//     -> Linear(9)    (advantage head, raw logits)
//   action_idx = argmax(advantage)
//   (left_motor, right_motor) = ACTION_MAP[action_idx]
//
// Inputs = K-frame raw-distance stack (oldest distances first) followed
// by the 9 single-frame engineered features. For INPUT_DIM=21, K=4:
//   [0 .. 11]  stacked (front,left,right) x K, each in [0, 1]
//                 layout: f[t-K+1],l,r, ... , f[t],l[t],r[t]
//   [12] last_seen        in {-1, 0, +1}
//   [13] line_l           in {0, 1}
//   [14] line_r           in {0, 1}
//   [15] prev_left        in [-1, +1]
//   [16] prev_right       in [-1, +1]
//   [17] engagement       in [0, 1]
//   [18] yaw_rate_proxy   in [-1, +1]
//   [19] front_ir_delta   in [-1, +1]
//   [20] lateral_ir_delta in [-1, +1]

#pragma once
#include <avr/pgmspace.h>
#include <stdint.h>

namespace mini_sumo_ai {

constexpr uint8_t INPUT_DIM  = 21;
constexpr uint8_t H1_DIM     = 32;
constexpr uint8_t H2_DIM     = 32;
constexpr uint8_t N_ACTIONS  = 9;

// === Weights =========================================================
const float W1[32][21] PROGMEM = {
    {1.3636497e-01f, 1.5202162e-01f, 3.2900911e-02f, 1.5471761e-01f, -5.4421630e-02f, 1.4070281e-01f, -1.2643613e-01f, 1.2647682e-01f, 2.0494293e-01f, -1.9402678e-01f, 3.9847070e-01f, -2.0082015e-01f, 1.9026765e-01f, -8.5464710e-01f, -6.4185017e-01f, 1.2451769e-01f, 2.0169288e-01f, 2.7963656e-01f, -1.3006122e-01f, 4.9184009e-02f, -4.0034974e-01f},
    {3.1003562e-01f, -2.5884789e-01f, -1.0907467e-01f, 3.4704506e-01f, -1.3549709e-01f, -1.6164288e-01f, 4.9337023e-01f, -1.1920309e-01f, -5.7009858e-01f, 8.4503084e-01f, -8.0737764e-01f, -6.6357893e-01f, 1.4161500e-01f, -8.0680229e-02f, 6.4953603e-02f, 1.1887369e-01f, 2.5073202e-02f, 1.4491828e-01f, 1.1138129e-01f, -8.7101549e-02f, -6.2828523e-01f},
    {-1.9425629e-01f, 3.7451315e-01f, 3.9299497e-01f, -2.4717645e-01f, 3.0953550e-01f, 2.3743719e-01f, -2.0808581e-01f, -1.0029582e-01f, -1.2047049e-01f, -3.1606582e-01f, -7.3966557e-01f, 4.7859257e-01f, -2.1630660e-02f, -5.3985840e-01f, -5.4375160e-01f, 3.1064764e-01f, 2.8557867e-01f, 3.1664017e-01f, -2.9611142e-02f, -1.2873808e-01f, -6.4406800e-01f},
    {3.8267754e-02f, 2.0446445e-01f, -4.7311340e-02f, 3.0081123e-01f, 1.1012312e-02f, -7.1713649e-02f, 3.9418995e-02f, 3.1008375e-01f, 2.0356798e-01f, 4.0890366e-01f, -3.1447986e-01f, -1.5288079e-01f, -6.5347642e-02f, 6.6787404e-01f, 7.8151077e-01f, 2.0659418e-01f, 2.9322469e-01f, -2.3115477e-01f, 2.0101162e-02f, 1.7032321e-01f, 3.0813809e-02f},
    {2.0716733e-01f, 1.4505669e-01f, 1.9221009e-01f, -2.1068442e-03f, 1.0357168e-01f, 1.4167702e-01f, 2.0149417e-01f, 2.5845549e-01f, 2.1343093e-01f, 4.3908712e-01f, -1.7143987e-01f, -1.9626790e-01f, 2.4624383e-02f, 7.6536310e-01f, 8.0101377e-01f, -5.1430434e-01f, -3.4395131e-01f, 5.8378443e-02f, -8.3071999e-02f, 3.7613854e-02f, 1.0660437e-01f},
    {-2.4380302e-01f, 7.4998796e-02f, 5.2274533e-02f, -2.8003773e-01f, 2.3170240e-01f, 4.3241864e-01f, -3.8393426e-01f, 4.2250854e-01f, 2.2176361e-01f, -5.5657005e-01f, 5.7534996e-02f, 6.8687403e-01f, -2.7700338e-01f, -6.2236023e-01f, -7.5613600e-01f, 6.3686937e-02f, -7.4953310e-02f, 1.1949202e-01f, 9.4419502e-02f, -5.7098389e-01f, 1.9069107e-01f},
    {1.8061861e-01f, 6.9355257e-02f, 2.8145644e-01f, 1.0336394e-01f, 3.5714242e-01f, 2.0697068e-01f, -2.1800953e-01f, 3.7907669e-01f, 3.6191231e-01f, -1.5129095e-01f, -1.1168943e-01f, 4.0364879e-01f, 6.5528490e-02f, 7.6744086e-01f, 7.6649427e-01f, 9.9579521e-02f, 3.8196424e-01f, -3.3316386e-01f, 1.3298348e-01f, -1.5015654e-01f, 6.8086261e-01f},
    {2.2895773e-01f, 3.7692156e-01f, -4.6126064e-02f, 1.2348872e-01f, 2.4291752e-02f, 3.0567173e-02f, 5.6898233e-02f, 3.2812738e-01f, -1.3554472e-01f, 3.6153203e-01f, 4.2037198e-01f, 9.7784428e-03f, -1.5267650e-04f, 3.8635626e-01f, 3.2997465e-01f, 1.0492251e-01f, -1.2905794e-01f, 2.0222163e-01f, 4.4248242e-02f, 2.2354974e-01f, 1.7530398e-01f},
    {1.2981984e-01f, 5.8282174e-02f, 7.9169266e-02f, 5.1323373e-02f, 1.8224403e-01f, 5.8631238e-02f, 1.0850528e-01f, 2.4889611e-02f, -5.2446358e-02f, 2.7226013e-01f, 4.7190005e-01f, -2.9275149e-01f, 6.4124838e-02f, 4.1252226e-01f, 4.1699114e-01f, -3.4997616e-02f, 1.8898100e-01f, 2.4456584e-01f, 5.8394227e-02f, 1.0897973e-01f, -1.6066375e-01f},
    {1.7576647e-01f, 1.0975443e-01f, 5.1153325e-02f, 3.1459177e-01f, 1.8385118e-01f, 1.2406856e-01f, 2.7753595e-01f, -1.5932722e-01f, 8.9113347e-02f, 4.4448179e-01f, -4.0558502e-01f, -3.2196552e-01f, -3.0556592e-01f, 1.0521144e+00f, 8.5555393e-01f, 1.1647874e-01f, 2.4042146e-02f, 9.6925594e-02f, 6.0889043e-02f, 2.5665161e-01f, -2.5501186e-01f},
    {8.3471671e-02f, 9.3883313e-02f, -1.8506046e-01f, -1.1646938e-01f, 5.6184694e-02f, 2.3646864e-01f, -1.1747947e-01f, 5.5274516e-02f, 2.5513601e-01f, -3.1580549e-01f, -2.9740134e-01f, 5.1113367e-01f, -2.2750348e-01f, -5.3453451e-01f, -6.2767649e-01f, 1.3279770e-01f, 2.0259172e-01f, 3.6688653e-01f, -1.8485405e-01f, -1.2456349e+00f, 9.0153687e-02f},
    {3.4287480e-01f, 3.7193054e-01f, 4.6415940e-01f, 3.7047827e-01f, 3.7563208e-01f, 2.4148478e-01f, 9.1422692e-02f, 1.3866615e-01f, 6.3629769e-02f, 4.3321201e-01f, 9.2323072e-02f, 3.1715277e-01f, -4.8057756e-01f, -2.8931761e-01f, -6.1167866e-01f, 4.5309622e-02f, -8.1523426e-02f, -1.5663022e-01f, 7.1633035e-01f, 2.0848905e-01f, 2.4944530e-03f},
    {1.1998045e-02f, -2.7504507e-03f, 4.5884703e-03f, -1.4668486e-01f, 1.4859702e-01f, -2.4461110e-01f, 3.6572731e-01f, 1.6596420e-01f, -5.3934716e-02f, 1.1351727e-01f, 5.1634681e-01f, -4.7142863e-01f, 3.8303488e-01f, 4.5935407e-01f, 2.3593278e-01f, 8.4752543e-03f, -2.1484056e-01f, -1.0898822e-01f, 1.8526149e-01f, 2.5799087e-01f, -9.0123385e-02f},
    {2.5956452e-01f, 2.6971784e-01f, -7.9693377e-02f, -9.7972982e-02f, 9.2776477e-02f, 1.4407025e-01f, -1.8901746e-01f, 9.0218168e-03f, 3.4794766e-02f, -1.0457329e-02f, -2.1354657e-01f, 7.0308186e-02f, -4.1441768e-03f, 6.0663432e-01f, 8.6974722e-01f, 2.1138644e-01f, -8.9986715e-03f, -8.3232321e-02f, -8.4872596e-02f, -3.5586464e-01f, 1.0077696e-01f},
    {1.8178821e-01f, -1.0169446e-01f, -4.2452093e-02f, 8.2661033e-02f, -1.1283519e-02f, 1.7740479e-02f, -1.1340000e-01f, -3.3683266e-02f, 7.6353617e-02f, -6.3768864e-02f, -3.7775743e-01f, 5.2168435e-01f, -2.7786568e-01f, -5.3644919e-01f, -7.8576928e-01f, 2.0498616e-01f, 4.8559761e-01f, 4.5221782e-01f, -3.4334573e-01f, 5.2009529e-01f, 5.7435787e-01f},
    {-3.1156203e-01f, 3.9747417e-01f, 3.7397638e-01f, -4.4145587e-01f, 3.5457408e-01f, 1.1720417e-01f, -6.6868114e-01f, 5.4694873e-01f, 5.1205760e-01f, -7.1212834e-01f, 5.1350378e-02f, 1.4385197e-01f, 6.1413366e-02f, -4.3421081e-01f, -3.7410855e-01f, 1.1842059e-01f, 1.1858114e-02f, -7.6174147e-02f, 1.4090408e-01f, -2.0024967e-01f, 2.6989052e-01f},
    {1.5050951e-01f, -3.1664275e-02f, 7.5471595e-02f, 1.1000777e-01f, -1.7502499e-01f, 1.6595213e-01f, 1.8420891e-01f, -4.2510518e-01f, 9.5153444e-02f, 9.7165287e-02f, -2.5188527e-01f, -2.8353399e-01f, -6.1004514e-01f, 9.4180185e-01f, 8.4414381e-01f, 2.2101521e-01f, 3.3027619e-01f, 8.7929696e-02f, -9.4396070e-02f, -7.3925957e-02f, -4.0139547e-01f},
    {3.7217227e-01f, -3.3588398e-01f, -1.3730346e-01f, 4.1079581e-01f, -3.0271202e-01f, -3.6555734e-01f, 5.9479338e-01f, -1.7874330e-01f, -2.1589023e-01f, 6.2799346e-01f, -5.9742421e-01f, -7.1132904e-01f, -1.0283690e-01f, 9.8048724e-02f, 4.7811847e-02f, -3.5099948e-03f, -1.4428574e-02f, 2.4090165e-01f, -3.4181133e-03f, -9.9057674e-02f, -7.7536948e-02f},
    {3.1030980e-01f, -1.1243476e-02f, 2.7180082e-01f, -1.0320830e-02f, 2.1996018e-01f, 2.4715112e-01f, 1.7090288e-01f, 3.3388564e-01f, -5.7266187e-02f, 9.4875373e-02f, 1.6668807e-01f, 2.2186223e-01f, -1.5933387e-01f, 4.9592349e-01f, 6.1905742e-01f, 2.1582305e-01f, 1.3039424e-01f, -1.3602199e-01f, -7.9311177e-02f, 1.0264201e-01f, 2.7554160e-01f},
    {2.2142084e-02f, 5.4124892e-02f, 2.6900712e-01f, 9.8598771e-02f, 4.7994211e-02f, 5.7196930e-02f, -4.7880415e-02f, -9.9557839e-02f, 1.0079041e-01f, -5.5446061e-03f, 2.9645139e-01f, -4.9597672e-03f, -6.3905776e-02f, 8.8800788e-01f, 6.7850780e-01f, 2.8048661e-01f, -3.9316554e-02f, -4.8669230e-02f, 9.0669103e-02f, -2.0999500e-01f, 2.5355116e-02f},
    {1.8511392e-01f, -1.4913024e-01f, -2.5076836e-01f, 3.1716534e-01f, 6.4436413e-02f, -1.9346711e-01f, 4.0392217e-01f, -1.2221334e-01f, -4.2970631e-01f, 5.8098656e-01f, 6.9679028e-01f, -5.1018143e-01f, -2.3649612e-03f, -9.3031967e-01f, -8.8275695e-01f, 9.7577848e-02f, 3.3187523e-02f, 3.0683378e-02f, 1.8145061e-01f, 8.5345048e-01f, 2.7193445e-01f},
    {2.5251231e-01f, 1.6221203e-01f, 2.6820013e-01f, 3.0590338e-01f, 3.9922114e-02f, -2.9111095e-02f, 3.1025484e-01f, 3.3636183e-01f, 6.4414516e-02f, 1.6388997e-01f, -2.6606497e-01f, 1.4855857e-03f, 5.0999232e-02f, 8.6797267e-01f, 7.4621922e-01f, 1.0456278e-01f, 3.5792127e-01f, -1.5773626e-02f, -6.9531776e-02f, 7.3785730e-02f, 3.0985284e-01f},
    {1.9991478e-01f, 4.9599618e-02f, 2.9935890e-01f, 5.1669858e-02f, 1.3884675e-03f, 1.6676715e-02f, 4.6919939e-01f, 3.8547832e-01f, 3.1418824e-01f, 4.5948955e-01f, 4.7309056e-01f, 9.6753478e-02f, -4.1918203e-01f, -6.7614228e-02f, -5.1715708e-01f, -1.3863213e-02f, -1.4866883e-01f, 6.0830209e-02f, 6.0886633e-01f, 2.8388089e-01f, -1.0947285e-01f},
    {1.3472499e-01f, -7.9333410e-02f, -2.5049027e-02f, 3.2314807e-01f, -2.6161222e-02f, 2.5345078e-01f, 5.3404087e-01f, -1.9321388e-02f, 1.9752406e-01f, 4.9434742e-01f, -2.6435363e-01f, 3.9400712e-01f, -2.1025576e-01f, 8.2084723e-02f, 4.6007097e-02f, -1.5974525e-01f, -2.5226974e-01f, -1.5888773e-01f, -5.6011476e-02f, 5.8401680e-01f, 3.5690564e-01f},
    {5.2134347e-01f, -1.8267088e-01f, -3.0564031e-01f, 4.3264976e-01f, -1.7578770e-01f, -1.1120772e-01f, 6.7619729e-01f, -3.8417143e-01f, -1.3918595e-01f, 5.2418619e-01f, -6.9540024e-01f, -7.8600633e-01f, 4.9742822e-02f, -2.1223713e-01f, -9.0488926e-02f, 2.6862575e-02f, 7.1039563e-03f, 2.3730968e-01f, -2.8902374e-02f, 1.0693128e-01f, 1.0366727e-01f},
    {-1.0398068e-01f, 2.7047613e-01f, 1.4763868e-01f, 2.0642775e-01f, 2.1624270e-01f, 1.1077984e-01f, 1.3635965e-01f, 1.9626005e-01f, 3.4111059e-01f, 4.7207713e-01f, 2.1271673e-01f, 9.2925884e-02f, -1.7771600e-01f, 1.9474331e-01f, 4.0420270e-01f, 3.7050687e-02f, -3.4542512e-02f, -1.7957304e-01f, 3.4373263e-01f, 5.7308710e-01f, 3.6472741e-01f},
    {2.0552757e-01f, 3.1856552e-01f, 2.5753871e-01f, 2.3605414e-02f, 6.5126456e-02f, 1.3244018e-01f, 1.5879895e-01f, 2.5068921e-01f, 1.0727462e-02f, 8.3583102e-02f, 4.0070659e-01f, 1.1005662e-01f, 1.7340629e-01f, 3.2242882e-01f, 2.3567376e-01f, 3.2279676e-01f, 7.6897517e-02f, -2.0506641e-01f, 7.6264874e-03f, 1.5050320e-01f, -7.7521779e-02f},
    {-6.7831862e-01f, 1.5265294e-03f, -3.5208732e-01f, -5.6618661e-01f, -3.8602483e-02f, -2.3794512e-01f, -1.3681118e-01f, 2.4879032e-01f, 1.3160466e-01f, -2.0496120e-01f, 1.6027918e-01f, -7.6310015e-03f, 1.3428195e-01f, 1.6482936e-01f, -1.0942192e-01f, 1.1407384e-01f, 3.8523781e-01f, 3.7433571e-01f, -9.8339677e-02f, -6.6674249e-03f, 2.0812666e-01f},
    {9.2858166e-02f, 1.9965011e-01f, 2.1565722e-01f, 2.4823372e-01f, -1.0509506e-01f, 1.3190596e-01f, -2.4072860e-01f, -2.0440497e-01f, 2.6449943e-01f, -3.2678482e-01f, -1.5031201e-01f, 7.1746457e-01f, -4.7368503e-01f, 4.6539000e-01f, 7.2856419e-02f, -1.6048229e-01f, -1.2218235e-01f, -3.9601362e-01f, -4.2713515e-02f, -1.8389715e-01f, 1.6132298e-01f},
    {3.0908954e-01f, 2.4004389e-01f, 1.4870449e-02f, -6.6254660e-02f, 2.1508186e-01f, 1.6843435e-01f, 1.8637539e-01f, 1.3253570e-01f, -6.8922602e-02f, 1.3122140e-01f, 5.3027141e-01f, -3.2709517e-02f, 7.1195379e-02f, 4.1057758e-02f, 1.2743361e-01f, 1.1146932e-01f, 1.5710397e-02f, 1.0325203e-01f, 6.6273533e-02f, 4.1971609e-02f, 1.5554295e-01f},
    {8.7307915e-03f, 5.2375644e-02f, 2.8758940e-01f, 3.0726627e-01f, 8.1309583e-03f, 1.2305672e-01f, 2.8523019e-02f, 3.9892878e-02f, 1.1717670e-01f, 1.7654458e-01f, 1.4693506e-01f, -1.9403818e-01f, 2.4891607e-01f, 8.7226284e-01f, 4.1294611e-01f, 2.1003357e-01f, 1.8387856e-01f, -6.8920359e-02f, 6.5204784e-02f, 2.7230261e-03f, 2.9821712e-01f},
    {2.6529184e-02f, 3.0545962e-01f, 1.7960374e-01f, 1.5980244e-01f, 2.2381793e-01f, 8.9694031e-02f, 1.2215988e-01f, 7.9142295e-02f, 3.1415555e-01f, 1.0248438e-01f, 4.0337375e-01f, -1.6906922e-01f, 2.0066762e-01f, 2.1928610e-01f, 4.2345002e-01f, 1.7697944e-01f, 1.6450340e-01f, 1.5197907e-01f, -2.3294386e-01f, 2.9397738e-01f, 1.6280887e-01f},
};
const float B1[32] PROGMEM = {
    4.1566798e-01f, 4.4075587e-01f, 1.6685247e-01f, 1.3367984e-01f, 2.6392305e-01f, 7.2145984e-02f, -8.8374689e-02f, 4.5829605e-02f, 3.0812252e-01f, 2.1736588e-01f, 4.1216247e-02f, 1.5236959e-01f, -1.5156007e-01f, 1.9317548e-01f, 7.0408061e-02f, -8.5779585e-02f, -1.6187347e-01f, 3.2731000e-01f, 1.9650608e-01f, 3.4517503e-01f, 1.8532185e-01f, 3.1998610e-01f, 1.1825606e-02f, 2.8832774e-03f, 6.3679767e-01f, 1.4020880e-01f, -3.5030749e-02f, 7.9592758e-01f, 2.7178656e-02f, -2.0380855e-02f, 5.2428059e-02f, -5.7777066e-02f
};

const float W2[32][32] PROGMEM = {
    {3.3812511e-01f, -4.6319798e-02f, -2.0353366e-01f, -2.2474583e-03f, 6.3384309e-02f, 6.3372746e-02f, -2.5072911e-01f, 4.6945170e-02f, 9.1875382e-02f, -3.7253082e-02f, 2.6172006e-01f, 1.5351753e-01f, -1.8466620e-02f, -3.6743820e-01f, 7.9858817e-02f, 4.2672515e-01f, 9.0742297e-02f, 5.7498533e-01f, 1.0410199e-03f, 6.4404406e-02f, 4.7820527e-02f, -1.1501364e-01f, 1.5337777e-01f, -2.3326693e-01f, 4.3009567e-01f, -2.9213801e-02f, 8.4245749e-02f, -1.4130013e-01f, -4.0534616e-01f, 1.1929400e-01f, -2.7192313e-02f, 1.7032787e-01f},
    {-6.8060011e-01f, -7.1680456e-01f, -1.0513813e+00f, 5.3551555e-01f, 7.0766628e-01f, -8.7383968e-01f, 3.8269100e-01f, 2.1064250e-01f, 9.5039144e-02f, 4.8370621e-01f, -7.3615390e-01f, -2.0903334e-01f, -5.8478441e-02f, 4.6116257e-01f, -8.6468297e-01f, -1.0119355e+00f, 3.1605560e-01f, -5.7613760e-01f, 1.7407787e-01f, 1.3815720e-01f, -7.9796487e-01f, 4.2608970e-01f, -2.5050747e-01f, 2.9001722e-01f, -6.4758503e-01f, 2.4610217e-01f, -1.1714407e-01f, 3.2661241e-01f, -2.4013183e-01f, -8.0688909e-02f, 4.0677005e-01f, -4.3425754e-02f},
    {-3.5245979e-01f, 1.7430951e-01f, 9.4216578e-02f, 4.8117286e-01f, 6.6209853e-01f, 1.0087224e-01f, 7.2740763e-01f, 7.3395602e-02f, -4.8482440e-02f, 6.7203069e-01f, 2.1002145e-01f, 1.4335449e-01f, 3.2938007e-02f, 3.5206702e-01f, 3.5495367e-02f, -2.3232719e-01f, 1.4475846e-01f, -3.1464678e-01f, 3.1726792e-01f, 3.2755709e-01f, -9.6132648e-01f, 6.0790205e-01f, -1.0168691e-01f, 7.0156693e-02f, -5.9336238e-02f, -3.6374694e-03f, 2.6190183e-01f, 2.8578201e-01f, 4.7809395e-01f, -1.7673630e-02f, 1.9922093e-01f, 2.9676563e-01f},
    {-1.9273719e-01f, -4.9813682e-01f, -9.3879294e-01f, 4.4016397e-01f, 6.2291783e-01f, -8.0083299e-01f, 4.2693588e-01f, 2.2119379e-01f, 4.5458266e-01f, 6.0079092e-01f, -4.2046669e-01f, -1.9819815e-02f, 3.5800341e-01f, 4.4010437e-01f, -5.0643212e-01f, -6.9533819e-01f, 8.9583397e-01f, -3.9582461e-01f, 1.3556759e-01f, 5.2803391e-01f, -5.4819673e-01f, 4.9396852e-01f, -7.7781722e-02f, -5.3937059e-02f, -3.1034568e-01f, 1.4979303e-01f, 3.1686702e-01f, 6.0740399e-01f, 1.8379684e-01f, 8.2987450e-02f, 4.9868441e-01f, 3.0486071e-01f},
    {-3.2731771e-01f, -2.3569754e-01f, -3.4710526e-01f, 4.8060495e-01f, 5.7756108e-01f, -2.2155882e-01f, 5.3992230e-01f, 1.4906164e-01f, 2.9896620e-01f, 3.7835696e-01f, -1.8256858e-01f, -3.4909893e-03f, 1.1623970e-01f, 3.5294619e-01f, -2.1038540e-01f, -6.5559667e-01f, 3.9381579e-01f, -2.1076754e-01f, 3.2541326e-01f, 2.7828977e-01f, -7.6465809e-01f, 4.7867283e-01f, 7.8225970e-02f, 2.8612563e-01f, -1.2885348e-01f, 2.8212517e-01f, 3.8975227e-01f, 7.6390469e-01f, 4.1009542e-01f, -6.8426766e-03f, 4.2028272e-01f, 1.0872881e-01f},
    {7.7347405e-02f, 5.2311171e-02f, 3.4732211e-03f, 1.6483571e-02f, -1.7599658e-03f, -7.2222334e-01f, -7.3104888e-01f, 1.0178427e-01f, 5.6840301e-02f, 1.1763128e-02f, -1.2758557e-01f, -9.2318468e-02f, 1.3622721e-01f, -1.4740984e-01f, 2.5678465e-01f, -2.4687147e-01f, 4.7521019e-01f, 4.0119672e-01f, -9.0644956e-02f, 6.2105667e-02f, 6.2002027e-01f, 1.5303368e-03f, 2.0513901e-01f, 6.2662877e-02f, 3.8303149e-01f, 6.3581109e-02f, -1.4503501e-01f, 7.3547564e-02f, -3.3387733e-01f, -6.0252540e-02f, 1.1063136e-02f, -2.1799477e-02f},
    {-2.6370353e-01f, -1.6788386e-01f, -2.7819401e-01f, 3.2592914e-01f, 7.7428252e-01f, 1.1434340e-01f, 8.5806382e-01f, 1.5624928e-01f, 1.6927625e-01f, 7.3304272e-01f, -1.3409552e-01f, 1.2552215e-01f, 3.6610968e-03f, 3.3629268e-01f, -2.9836285e-01f, -2.8396839e-01f, 5.1006484e-01f, -1.5689121e-01f, 4.1086978e-01f, 2.7766123e-01f, -8.6484700e-01f, 4.7428268e-01f, 4.3757103e-02f, -1.1774430e-02f, -3.5947102e-01f, 1.8228379e-01f, 7.9885416e-02f, 6.2803876e-01f, 6.1699992e-01f, -4.7357291e-02f, 1.9556771e-01f, 2.4568167e-01f},
    {8.7753840e-02f, 2.6069027e-01f, 1.4388162e-01f, -1.0069849e-01f, -1.6193865e-01f, 1.1415613e-01f, -8.4913358e-02f, 3.4335926e-02f, -1.5275807e-02f, -1.4552815e-02f, 1.1790638e-01f, 1.1761732e-01f, -1.3824077e-01f, -2.1561408e-01f, 7.7086225e-02f, 3.7740523e-01f, -3.5673219e-01f, 5.2080894e-01f, -7.2108611e-02f, -1.8032727e-01f, 1.7527807e-01f, 1.2467275e-02f, 5.0323859e-02f, -2.5157487e-02f, 5.0158048e-01f, 2.3507114e-01f, 1.9613068e-01f, -5.2478069e-01f, -2.0259534e-01f, 1.0510401e-01f, 1.3907675e-01f, 1.2171535e-01f},
    {-2.3725627e-01f, -3.0350065e-01f, 9.0826876e-02f, 3.0849239e-01f, 3.0411544e-01f, -1.0432445e-01f, 1.2030547e-01f, 1.8868791e-01f, 3.0845311e-01f, 1.3762195e-01f, 5.3227838e-02f, 2.7099407e-01f, 3.3005366e-01f, 3.1809413e-01f, 2.5351269e-02f, -6.9778067e-01f, 1.7016618e-01f, -4.8949260e-01f, 3.9403787e-01f, 5.2346343e-01f, -4.5067393e-03f, 3.1733406e-01f, 2.9095769e-01f, 4.6176264e-01f, -6.0403782e-01f, 2.2141966e-01f, 5.4225527e-02f, 6.5926421e-01f, 4.0433401e-01f, 7.3007584e-02f, 1.1013845e-01f, 2.2639617e-01f},
    {2.1901287e-01f, 5.2138931e-01f, 3.4757707e-01f, 2.0852549e-02f, -1.4499700e-01f, 3.4885040e-01f, -1.6960993e-01f, -1.4721426e-01f, -2.3675416e-02f, 6.2336880e-03f, 1.4016601e-01f, 2.7168533e-01f, -1.3909341e-01f, -2.0800218e-01f, 1.7243987e-01f, 4.0671015e-01f, -1.6866949e-01f, 6.5789175e-01f, 4.5391642e-02f, -2.0910040e-01f, 2.7489939e-01f, -4.2057838e-04f, 2.6615185e-01f, 2.4502887e-01f, 1.7499594e-01f, 1.8440013e-01f, 1.7153479e-01f, -1.8940631e-01f, -2.5885087e-01f, -2.9330416e-02f, -1.5813774e-01f, -7.6456718e-02f},
    {-2.8353101e-01f, -1.0851001e+00f, -1.1156137e+00f, 5.8338095e-02f, 2.2107509e-01f, -1.4089974e+00f, -1.7004050e-01f, 2.2902943e-01f, 4.6668288e-01f, -1.2049434e-01f, -8.2249010e-01f, 1.6541599e-01f, 5.6428117e-01f, 7.3729113e-02f, -1.1361990e+00f, -1.3789707e+00f, 9.1583550e-01f, -1.0965734e+00f, 1.2338771e-01f, 4.1667083e-01f, 1.7428169e-02f, 9.3996264e-03f, 2.5727236e-01f, 5.4681784e-01f, -1.0491415e+00f, 8.5499853e-02f, 3.0004913e-01f, 6.3420045e-01f, -4.4612691e-01f, 1.6140063e-01f, 5.3498113e-01f, 2.7763581e-01f},
    {2.2629903e-01f, -3.6500031e-01f, -6.1442542e-01f, -2.4381727e-01f, 6.2296350e-02f, -1.2878098e-01f, 1.7173478e-03f, -1.6300710e-02f, -2.3366719e-01f, 2.1499641e-01f, -2.5782737e-01f, -1.6047077e-01f, 4.1842774e-02f, -4.0140834e-02f, -6.1014410e-02f, 1.7029993e-01f, 2.1152131e-01f, 2.8075415e-01f, -2.1450464e-01f, -1.7824012e-03f, -4.4349688e-01f, -2.1990630e-01f, -3.0335402e-01f, -3.6043605e-01f, 2.0520678e-01f, -1.9171633e-01f, -2.0491460e-01f, 2.2782502e-01f, -2.8466076e-01f, 3.7121646e-02f, 7.4450038e-02f, 1.1901781e-01f},
    {-4.5177808e-01f, -7.9630524e-01f, -1.3327600e+00f, 4.1862646e-01f, 4.5548391e-01f, -7.4684954e-01f, 6.0617483e-01f, 3.9586540e-02f, -5.4918379e-02f, 8.0039191e-01f, -7.2899079e-01f, -6.4771026e-02f, -1.4811389e-01f, 3.3183867e-01f, -9.3347734e-01f, -8.7417352e-01f, 4.6194810e-01f, -4.8298061e-01f, 1.2427270e-01f, 2.2927494e-01f, -1.1153626e+00f, 3.1015053e-01f, -2.2510031e-01f, -2.8810385e-01f, -6.1728042e-01f, 8.8325143e-02f, 3.9075572e-02f, 4.6905860e-01f, -3.9129082e-02f, 1.0822122e-01f, 3.7721592e-01f, 2.3042104e-01f},
    {-4.0789956e-01f, -1.0976012e+00f, -1.2962025e+00f, 2.0511851e-01f, 2.3049691e-01f, -1.2513491e+00f, -1.2958756e-01f, 4.3333551e-01f, 4.3432084e-01f, 8.8639095e-02f, -8.9320880e-01f, 1.1929987e-01f, 3.6687300e-01f, 6.1460525e-02f, -7.5417322e-01f, -1.3749572e+00f, 5.8493316e-01f, -9.6421438e-01f, 5.2399650e-02f, 1.9999939e-01f, -4.9249522e-02f, 2.2334279e-01f, 1.6714339e-01f, 1.3126214e-01f, -8.9082712e-01f, 1.1251666e-01f, 4.2792264e-02f, 4.8227134e-01f, 6.2050186e-02f, 2.1648003e-01f, 1.6599438e-01f, 3.9712065e-01f},
    {3.8030609e-01f, 5.0998628e-01f, -4.3291238e-01f, 1.7259004e-02f, 2.6016891e-01f, 3.3030906e-01f, -8.6469099e-02f, 8.8497207e-02f, -1.3392380e-02f, 2.7044261e-01f, 2.1417589e-01f, 1.4840135e-01f, -3.4294724e-01f, -7.8129761e-02f, -5.2412316e-02f, 6.5349227e-01f, -2.4991973e-01f, 6.5138525e-01f, -1.0472890e-01f, -1.1903185e-01f, -7.0944116e-02f, -9.9079654e-02f, 1.4429767e-01f, -1.7363061e-01f, 7.6345956e-01f, -2.4383703e-02f, 1.6088302e-01f, -1.2112365e-01f, -2.3761234e-01f, 3.7839737e-02f, -1.4470099e-01f, -1.2825899e-01f},
    {-7.0375040e-02f, -4.7105786e-01f, -6.3003796e-01f, 3.6957616e-01f, 6.5022421e-01f, -3.4708846e-01f, 3.8457540e-01f, 2.8759694e-01f, 4.5510450e-01f, 6.0826129e-01f, -2.6359007e-01f, -1.3752155e-01f, 1.8408319e-01f, 3.0350202e-01f, -4.5657638e-01f, -5.3560984e-01f, 7.1759975e-01f, -4.5981249e-01f, 1.8390104e-01f, 5.6690902e-01f, -7.9912835e-01f, 2.8683162e-01f, 9.3434311e-02f, 5.8408681e-02f, -7.9838596e-02f, 2.6962778e-01f, 3.8271123e-01f, 6.3086987e-01f, 2.7602220e-01f, 3.1399599e-01f, 3.2665440e-01f, 4.7155741e-01f},
    {2.9657114e-01f, 6.8992245e-01f, 6.5970987e-01f, -9.2406332e-02f, -4.2664832e-01f, 5.6427824e-01f, 1.4578056e-01f, -3.4059517e-02f, -7.3963977e-02f, -6.5925676e-01f, 4.0423071e-01f, 5.6392503e-01f, -1.4699894e-01f, -2.7939644e-01f, 5.0972134e-01f, 5.0436443e-01f, -7.5530487e-01f, 3.8165879e-01f, 2.3996247e-01f, -2.8519422e-01f, 6.4921373e-01f, 1.8000301e-02f, 3.4416202e-01f, 4.8446098e-01f, -2.1871423e-02f, 2.7571827e-01f, 6.3606791e-02f, -6.0404772e-01f, 3.7538821e-01f, 1.9365719e-02f, -4.5601547e-01f, -1.5574409e-01f},
    {-5.8918250e-01f, -6.8935031e-01f, -1.0477099e+00f, 3.6583643e-02f, 5.7079244e-01f, -4.8458785e-01f, 5.4399246e-01f, 2.8679121e-01f, -2.8700659e-02f, 6.5175736e-01f, -4.2784595e-01f, -1.6596924e-01f, 8.9248970e-02f, 3.5364607e-01f, -6.9597799e-01f, -1.1903509e+00f, 5.7792503e-01f, -3.5797507e-01f, 2.0432608e-02f, 3.2630077e-01f, -1.1357660e+00f, -2.5908925e-02f, 7.2210923e-02f, -2.4609944e-02f, -5.8677834e-01f, 2.0139287e-01f, -1.2484142e-03f, 6.6222924e-01f, 4.6433419e-01f, 9.7706787e-02f, 1.1262420e-01f, 1.8896493e-01f},
    {-2.7564687e-01f, -7.1402472e-01f, 3.3508986e-01f, 1.5865211e-01f, -5.9597809e-02f, -1.4911683e-01f, 7.8587353e-02f, 5.1779389e-02f, 3.2085189e-01f, 6.9170862e-02f, 1.6822615e-01f, 2.8648195e-01f, 4.9157941e-01f, 2.6062360e-01f, 2.6974140e-02f, -6.2053275e-01f, -2.3295201e-02f, -1.1251875e+00f, 2.5430343e-01f, 3.6421520e-01f, -1.1161410e-01f, 3.3555818e-01f, 1.8920390e-01f, 3.5971886e-01f, -1.0686984e+00f, 3.2240885e-01f, 2.3171540e-01f, 5.9322667e-01f, 3.3207181e-01f, 8.7980844e-02f, 1.2835661e-01f, 2.4350575e-01f},
    {2.1157771e-01f, 8.4438330e-01f, 8.3078551e-01f, -1.2294851e-01f, -3.7766197e-01f, 6.5183741e-01f, 7.5834043e-02f, 1.4050506e-01f, -3.4568492e-01f, -5.9035611e-01f, 3.6421853e-01f, 4.7979414e-01f, -3.3114380e-01f, -2.8230074e-01f, 5.7213587e-01f, 7.2889715e-01f, -1.0002837e+00f, 3.6457032e-01f, 5.9271138e-02f, -1.8731172e-01f, 9.0536952e-01f, 7.7357046e-02f, 2.4819230e-01f, 5.1295435e-01f, 1.1749964e-01f, 3.5167354e-01f, 2.4307448e-01f, -7.0283878e-01f, 2.5268120e-01f, -7.3980168e-02f, -2.6388291e-01f, -8.0679491e-02f},
    {3.6402872e-01f, 6.9283193e-01f, 4.2594048e-01f, 7.1069188e-02f, -1.2031590e-01f, 6.1005169e-01f, 1.3099453e-01f, 6.1415352e-02f, 4.2070989e-02f, -2.6901588e-01f, 4.3310589e-01f, 2.5314206e-01f, -2.9290655e-01f, -7.3191314e-03f, 4.0375137e-01f, 6.6851878e-01f, -7.6788390e-01f, 7.5350195e-01f, -1.4035450e-01f, -3.4741178e-02f, 3.3991927e-01f, -1.7159025e-01f, 1.3145892e-01f, -4.5150883e-02f, 8.7670046e-01f, 2.7744344e-01f, 8.5418031e-02f, -2.1673659e-02f, -9.9160131e-03f, -4.9823202e-02f, -1.4280502e-01f, 1.4305674e-02f},
    {2.5029415e-01f, 1.2621096e-01f, 2.1015385e-01f, 1.2387096e-02f, 2.2883143e-01f, -3.2778257e-01f, -2.5536833e-02f, -2.4974705e-01f, 1.1820999e-01f, -1.7461626e-01f, -1.1363322e-01f, -1.4047913e-01f, -6.0924258e-02f, -1.7583223e-01f, 4.2663906e-03f, -8.4941491e-02f, 8.3003547e-03f, 7.6596276e-03f, -6.8072662e-02f, -6.4730696e-02f, 1.4393037e-02f, 1.0390830e-02f, -2.3026659e-01f, -1.4936456e-01f, 6.3991673e-02f, -3.7063792e-01f, -1.8079317e-01f, 9.4433434e-02f, -1.1368101e-01f, -2.1485449e-01f, -1.1055974e-01f, -4.1712314e-02f},
    {2.2053243e-01f, 5.8511150e-01f, 1.8758917e-01f, 1.1839835e-01f, 4.2610001e-02f, 1.9534779e-01f, -2.6380244e-01f, 7.2604790e-02f, -9.4441764e-02f, -1.0482458e-01f, 6.4762913e-02f, 2.4091253e-01f, -9.0665691e-02f, -4.7725514e-02f, 2.2204711e-01f, 3.0922458e-01f, -3.9690137e-01f, 5.4135311e-01f, -4.9120616e-02f, -1.4556402e-01f, 3.0434459e-01f, -1.2443586e-01f, 3.5032266e-01f, 1.2607618e-01f, 6.8120551e-01f, 2.4347006e-01f, -1.2123667e-01f, -1.1427829e-01f, 1.4264624e-03f, 1.6403288e-01f, -2.6394871e-01f, 1.5288964e-02f},
    {-5.1156193e-01f, -7.7424663e-01f, -1.0649292e+00f, 7.4891016e-02f, 4.0630889e-01f, -8.5321248e-01f, 4.1848210e-01f, 1.3709734e-01f, -3.4509312e-02f, 5.0757551e-01f, -3.9884019e-01f, -2.2586328e-01f, 1.5043697e-01f, 4.0894449e-01f, -5.6490898e-01f, -1.0797329e+00f, 6.7495131e-01f, -6.2304395e-01f, 2.4074332e-01f, 1.5639734e-01f, -1.1472923e+00f, 2.9554358e-01f, 1.9753942e-02f, -1.9347360e-02f, -6.6299284e-01f, -6.9230907e-03f, 1.9839053e-01f, 6.1936659e-01f, 2.6504290e-01f, 1.5615571e-01f, 2.2912109e-01f, 1.4954944e-01f},
    {2.4867123e-01f, 8.3022583e-01f, 4.0961314e-02f, 9.6784502e-02f, 1.0577785e-01f, 7.4500161e-01f, 2.0094684e-01f, 9.1529582e-03f, -1.2841424e-01f, 1.3216685e-01f, 1.7174534e-01f, 8.7036595e-02f, -2.4794583e-01f, -1.3278289e-01f, 3.8758892e-01f, 9.2302430e-01f, -4.7660008e-01f, 1.0261223e+00f, -7.4474409e-02f, -1.8459250e-01f, -7.6085053e-02f, -1.9157274e-01f, -1.3913366e-02f, -3.4801504e-01f, 5.9993613e-01f, 1.2139217e-01f, 1.9127642e-01f, 8.9312345e-03f, 2.5497591e-01f, 8.4301196e-02f, -7.1510091e-02f, -9.9025086e-02f},
    {-2.3577716e-02f, -2.3673595e-01f, 5.4187769e-01f, 3.5012585e-01f, 9.0069704e-02f, -1.8179707e-02f, -4.2862989e-02f, 4.1076055e-01f, 1.7205496e-01f, 9.4538197e-02f, 8.3285473e-02f, 3.6726743e-01f, 2.3466483e-01f, 3.7080136e-01f, 1.4588112e-01f, -7.0898867e-01f, 5.1805422e-02f, -5.1399302e-01f, 3.6150187e-01f, 3.1462881e-01f, 2.2773746e-01f, 2.8056017e-01f, 2.0013382e-01f, 4.0752223e-01f, -6.0730493e-01f, 1.9863030e-01f, 2.2283174e-01f, 4.9955195e-01f, 2.6847824e-01f, -1.4445176e-02f, -5.9227604e-02f, -1.8584953e-01f},
    {-3.1501305e-01f, -1.1243542e+00f, -1.3399673e+00f, 2.0385776e-01f, -4.8266683e-02f, -1.0671686e+00f, -2.1332781e-01f, 4.7054458e-01f, 4.6053153e-01f, 2.2129272e-01f, -8.3659846e-01f, -1.0701019e-01f, 2.9011419e-01f, 4.8521389e-03f, -1.1254764e+00f, -1.4168481e+00f, 8.9556152e-01f, -1.0222071e+00f, 2.9030752e-01f, 3.7979794e-01f, -1.3566385e-01f, 9.7316302e-02f, 4.1049169e-03f, 2.1246497e-01f, -1.0391041e+00f, 2.9428709e-01f, 3.1608739e-01f, 4.1121516e-01f, -2.7823174e-01f, 1.5693429e-01f, 3.9790082e-01f, 3.1411964e-01f},
    {-2.7578857e-02f, -1.7283713e-02f, -7.6785924e-05f, 3.7621282e-02f, -7.5947359e-02f, -1.2028160e-01f, 2.1608165e-02f, -4.6186559e-02f, -1.1779679e-01f, 4.9086530e-02f, -2.1695212e-02f, -5.2235898e-02f, -1.0327491e-01f, -5.0510913e-02f, -1.7833227e-01f, 2.1268403e-02f, -2.1089470e-02f, 8.9786202e-02f, -1.3708825e-02f, -1.1195243e-02f, 2.8115783e-02f, 1.0464931e-01f, -1.0766648e-01f, 7.9748631e-02f, 5.1412634e-03f, -1.4019300e-01f, 3.9584577e-02f, -1.2157297e-01f, -7.9843879e-02f, -1.0320438e-01f, -1.4804944e-01f, 1.1845888e-01f},
    {1.2154919e-01f, 8.4677643e-01f, 2.8892750e-01f, 1.5935695e-02f, -3.8445301e-02f, 6.8676198e-01f, 1.3788299e-01f, 1.3766670e-02f, -8.6274952e-02f, -1.7949125e-01f, 2.2941974e-01f, 2.6781356e-01f, -4.0326518e-01f, -2.1685864e-01f, 4.8279828e-01f, 5.5216056e-01f, -7.3990691e-01f, 6.5761220e-01f, 1.5782379e-01f, -1.3169082e-01f, 6.3770376e-02f, -3.6570787e-02f, 2.2985674e-01f, 1.0280661e-01f, 8.1711900e-01f, 2.3096227e-03f, 9.3720160e-02f, -4.2995515e-01f, 5.7619490e-02f, 3.4091022e-02f, -7.8640893e-02f, -2.1333434e-01f},
    {-7.0067331e-02f, 1.8695517e-02f, -1.2508611e-01f, -1.5788536e-01f, -1.7006674e-01f, 9.8681748e-03f, 9.8124914e-02f, 2.3939719e-02f, -1.0445362e-02f, 7.1451418e-02f, -1.1201262e-01f, 4.5990166e-03f, -6.5290347e-02f, -8.7273337e-02f, 1.3238612e-01f, -1.3676375e-01f, 7.4294619e-03f, -1.5533590e-01f, -2.5302870e-02f, -9.6363254e-02f, 3.9158605e-02f, -1.1796938e-01f, 1.0022540e-01f, -1.6049384e-01f, 8.0838680e-02f, -1.5412632e-01f, 7.4575648e-02f, -8.6071834e-02f, -1.9003311e-02f, -5.3220984e-02f, 9.2718855e-02f, 3.7661437e-02f},
    {-4.6721664e-01f, -2.6559385e-02f, -4.7271702e-01f, 5.1527041e-01f, 7.0360404e-01f, -1.6096864e-02f, 6.5417892e-01f, 1.4284150e-01f, 5.0549582e-02f, 7.9879361e-01f, 7.7353790e-02f, 1.0394543e-01f, 1.0450067e-01f, 2.8605521e-01f, -1.4986528e-01f, -3.8957819e-01f, 3.8026822e-01f, -1.9637339e-01f, 3.1757373e-01f, 5.1143026e-01f, -7.9353136e-01f, 4.9627835e-01f, -2.5134084e-01f, -1.1628533e-01f, -3.0235881e-01f, 1.1490362e-01f, 6.1676834e-02f, 3.8226077e-01f, 4.8759308e-01f, 1.9312301e-01f, 2.8129041e-01f, 1.3929488e-01f},
    {3.0655840e-01f, 5.9275502e-01f, -6.5557376e-02f, -7.7059217e-02f, -5.0853968e-02f, 6.6223401e-01f, 3.2885858e-01f, -1.5668267e-01f, -1.9189848e-02f, 1.3331020e-01f, 3.5977134e-01f, 1.0726876e-01f, -3.1031510e-01f, -1.4917825e-02f, 3.4412912e-01f, 8.8491696e-01f, -3.8546529e-01f, 8.6889505e-01f, 7.3821828e-02f, -2.4244171e-01f, 9.4769597e-02f, -1.1575879e-01f, 1.9015360e-01f, -2.0970027e-01f, 6.7468393e-01f, 8.9386046e-02f, -1.5579878e-01f, -3.2356715e-01f, -7.1218394e-02f, 9.1182001e-02f, 3.5043724e-02f, -1.7690928e-01f},
};
const float B2[32] PROGMEM = {
    1.3223550e-02f, -2.3187913e-01f, 1.1490261e-01f, 2.5191420e-01f, 2.8007182e-01f, -4.3554686e-02f, 2.0772003e-01f, 6.6532508e-02f, 3.0219299e-01f, 6.2470458e-02f, -1.4232485e-01f, 7.1013086e-02f, -2.2239813e-01f, 6.3347913e-02f, -8.7326236e-02f, 2.9280299e-01f, 1.7802237e-01f, -8.7285742e-02f, 2.8514716e-01f, 3.0383554e-01f, 1.8263412e-01f, 1.1420080e-01f, 2.0252657e-01f, 8.5504428e-02f, 3.6539350e-02f, 4.7976869e-01f, 1.0801537e-03f, -4.5394197e-02f, 2.5481945e-01f, -1.1476959e-01f, 1.6663301e-01f, 2.4914940e-01f
};

const float W_ADV[9][32] PROGMEM = {
    {-1.9260916e-01f, -1.4097423e-02f, -2.2113277e-02f, -2.4824135e-02f, -1.4963113e-01f, -1.1796738e-01f, 1.2568484e-01f, 1.1180238e-01f, 1.1156650e-01f, 1.0583483e-01f, 3.8689952e-02f, -9.3423210e-02f, -9.6554108e-02f, -4.4693086e-02f, 1.1414319e-01f, -1.1591958e-03f, 6.4793229e-02f, -1.5926723e-01f, -7.4294470e-02f, -1.3422466e-02f, 1.3794288e-01f, -1.0168400e-01f, -1.9557482e-01f, 2.2101700e-02f, 5.6489073e-02f, -1.8384853e-02f, 7.6341748e-02f, 7.4268818e-02f, -1.7985611e-01f, -1.6335006e-01f, 1.1312737e-01f, -1.9036417e-01f},
    {-2.5585780e-01f, 1.7070222e-01f, 8.0307357e-02f, -7.4502498e-02f, -5.5464026e-02f, -2.0453745e-01f, 1.9762531e-01f, -9.8311663e-02f, -5.9449252e-02f, -8.0361806e-02f, 2.5240389e-01f, -2.4470558e-02f, -1.2986257e-02f, -1.7729321e-02f, -1.6968329e-01f, 1.4903599e-02f, 2.1097724e-01f, -1.7815076e-01f, 3.4812018e-02f, -3.7445184e-02f, -1.3690765e-01f, 1.3295169e-01f, -2.8334385e-02f, 1.9033867e-01f, -5.5629160e-02f, -7.6245897e-02f, -2.5500327e-02f, 1.3736728e-01f, -1.3034953e-01f, 6.5120734e-02f, 1.0360721e-01f, 3.4254983e-02f},
    {-3.9529726e-02f, 1.9275775e-02f, 1.5435709e-01f, -1.4380072e-01f, -6.0614381e-02f, 2.2305001e-03f, 5.5397980e-02f, -3.8177874e-02f, -4.8949204e-02f, -1.6374193e-02f, 2.0237966e-01f, -8.3348610e-02f, 5.2899150e-03f, 1.7929219e-02f, 4.1083016e-02f, -1.2207208e-01f, 1.7408390e-02f, 7.4154563e-02f, 8.3476484e-02f, 3.3250645e-02f, -2.5606665e-01f, -7.5817625e-03f, 2.6545040e-02f, 3.2437705e-02f, 4.7302227e-02f, -1.4900170e-01f, 1.0381553e-01f, -1.3035525e-01f, 7.1434595e-02f, 1.0437731e-01f, 1.2340439e-01f, 8.1782423e-02f},
    {-1.6503800e-01f, -1.4309569e-01f, -3.8755722e-02f, 8.8913389e-02f, 7.6801269e-03f, -1.7766704e-01f, 6.0934674e-02f, 1.4543787e-01f, -1.6096134e-01f, 3.3330739e-02f, 1.0249665e-01f, -5.0298207e-02f, 1.4356107e-01f, 1.1710557e-01f, -1.8704820e-02f, 9.8210603e-02f, 1.4179294e-01f, -2.2310773e-01f, -1.0892794e-01f, 1.5413937e-01f, -1.3533562e-01f, -8.7595284e-02f, -3.7728738e-02f, -3.0262837e-02f, -1.2170891e-01f, -1.1142220e-01f, 1.3086940e-01f, 6.6871718e-02f, 7.2740637e-02f, -8.0703557e-02f, 4.1485328e-02f, -8.4965289e-02f},
    {5.5754766e-02f, -1.1445165e-01f, 1.5279450e-01f, 9.0118468e-02f, -1.8707640e-01f, -1.2094811e-01f, 8.9417743e-03f, -1.1220030e-01f, 9.3505464e-02f, 5.5854879e-02f, 3.3705389e-01f, -1.2194595e-01f, 6.1269522e-02f, -1.0636762e-01f, -1.4859381e-01f, -9.2249429e-03f, 1.6710611e-01f, 5.3924609e-02f, -1.1430208e-01f, 8.3323479e-02f, -1.6078761e-01f, -2.8625833e-02f, -1.7181763e-01f, -5.4577164e-02f, 6.6682480e-02f, -1.4473040e-01f, -1.0491300e-01f, 1.2304410e-02f, 6.7155329e-03f, -6.0192317e-02f, 1.6310094e-01f, -1.4687955e-01f},
    {-3.0952537e-01f, -4.7864085e-01f, -1.4956465e-01f, -3.8116798e-01f, -6.1845854e-02f, -1.2013953e-01f, -4.9132150e-02f, -2.0086423e-01f, 2.0028478e-01f, 6.6741019e-02f, -3.1926808e-01f, -4.4455802e-01f, -4.4387370e-01f, 2.8498804e-02f, -2.8464624e-01f, -4.8051125e-01f, 3.4735277e-01f, -4.7478303e-01f, 1.8919377e-01f, 2.9236710e-01f, 1.8350118e-01f, -1.3236928e-01f, 1.4433193e-01f, -2.0607603e-01f, 8.7293983e-03f, 2.4963868e-01f, -4.6617728e-01f, -1.4866325e-01f, 2.5239882e-01f, -1.2715882e-01f, -2.9601881e-01f, -4.6633661e-02f},
    {-5.4489322e-02f, -3.8849428e-02f, 4.5208069e-03f, 4.6350300e-02f, -1.8282886e-01f, 1.5797365e-02f, 8.4213935e-02f, 8.6059347e-02f, -5.6328174e-02f, 6.2837563e-02f, 4.0553074e-02f, -2.4001431e-02f, -8.3093844e-02f, -2.0622772e-01f, -1.5835880e-01f, 1.0663424e-01f, 2.8232647e-02f, -2.2391096e-01f, 6.1749499e-02f, 1.0303362e-01f, -8.5154653e-02f, -1.9215669e-01f, -1.6459009e-01f, 9.4876336e-03f, -9.5018737e-02f, -1.0328317e-01f, 7.0932731e-02f, 1.2321022e-01f, 2.0598633e-02f, 7.1863043e-03f, 1.8941046e-01f, 7.0961595e-02f},
    {2.8615707e-01f, -3.7255666e-01f, -5.6371313e-01f, 1.3769887e-01f, -3.6560602e-02f, 2.5612468e-01f, -1.4535555e-01f, 6.9379337e-02f, 2.2674499e-01f, 8.7613747e-02f, 4.6049148e-01f, 8.5732490e-02f, -2.1507092e-01f, 4.3398583e-01f, -2.5056740e-02f, 1.5607470e-01f, -1.4472069e-01f, -2.3777388e-01f, 2.0642342e-01f, -1.8178375e-01f, -2.0243047e-01f, -1.6434751e-02f, 1.0421194e-01f, 1.2728545e-01f, -3.1350544e-01f, 6.0777530e-02f, 4.4026047e-01f, -7.1007952e-02f, -1.8389876e-01f, -1.2066067e-01f, -4.8466420e-01f, -2.1245769e-01f},
    {2.8617862e-01f, 1.5407673e-01f, 7.9607509e-02f, 2.8009048e-02f, 1.0679768e-01f, 2.8016154e-02f, 2.2669750e-01f, 8.4025776e-03f, -6.7241453e-02f, -2.5047988e-01f, -1.0415585e+00f, 1.8588437e-01f, 1.7243558e-01f, -3.1819168e-01f, 3.7650663e-01f, 1.6462164e-01f, -2.9681432e-01f, 3.5837829e-01f, -1.8196940e-01f, -4.8014808e-01f, 1.7360593e-01f, 5.3786419e-02f, 1.6390136e-01f, 1.5112415e-01f, 4.3906084e-01f, -2.2809093e-01f, -5.6159455e-01f, -4.7325756e-02f, 1.8886630e-01f, -8.8682020e-04f, 1.7331146e-01f, 3.9668548e-01f},
};
const float B_ADV[9] PROGMEM = {
    1.8279308e-03f, 5.8601154e-03f, -9.8496519e-02f, 3.1668447e-02f, 2.3365580e-02f, -1.9044985e-01f, -1.3392843e-01f, 1.5095447e-01f, 1.5848412e-01f
};

// === Action lookup table ============================================
// idx -> (left_motor, right_motor) in [-1, +1].
const float ACTION_MAP[N_ACTIONS][2] PROGMEM = {
    { -1.0f, -1.0f },
    { -1.0f, +0.0f },
    { -1.0f, +1.0f },
    { +0.0f, -1.0f },
    { +0.0f, +0.0f },
    { +0.0f, +1.0f },
    { +1.0f, -1.0f },
    { +1.0f, +0.0f },
    { +1.0f, +1.0f },
};

inline float relu(float x) { return x > 0.0f ? x : 0.0f; }

inline uint8_t predict_action(const float in[INPUT_DIM]) {
    float h1_act[H1_DIM];
    for (uint8_t i = 0; i < H1_DIM; ++i) {
        float s = pgm_read_float(&B1[i]);
        for (uint8_t j = 0; j < INPUT_DIM; ++j) {
            s += pgm_read_float(&W1[i][j]) * in[j];
        }
        h1_act[i] = relu(s);
    }
    float h2_act[H2_DIM];
    for (uint8_t i = 0; i < H2_DIM; ++i) {
        float s = pgm_read_float(&B2[i]);
        for (uint8_t j = 0; j < H1_DIM; ++j) {
            s += pgm_read_float(&W2[i][j]) * h1_act[j];
        }
        h2_act[i] = relu(s);
    }
    // Advantage head, argmax. No mean subtraction needed: it shifts
    // all advantages by the same constant so doesn't affect argmax.
    float best = -1e30f;
    uint8_t best_idx = 0;
    for (uint8_t a = 0; a < N_ACTIONS; ++a) {
        float s = pgm_read_float(&B_ADV[a]);
        for (uint8_t j = 0; j < H2_DIM; ++j) {
            s += pgm_read_float(&W_ADV[a][j]) * h2_act[j];
        }
        if (s > best) { best = s; best_idx = a; }
    }
    return best_idx;
}

inline void action_to_motors(uint8_t idx, float &left, float &right) {
    left  = pgm_read_float(&ACTION_MAP[idx][0]);
    right = pgm_read_float(&ACTION_MAP[idx][1]);
}

// === Self-test ========================================================
// 10 (obs, expected_action_idx) pairs computed in Python with the
// same forward pass. A healthy port should return 0 mismatches.

constexpr uint8_t SELFTEST_N = 10;
const float SELFTEST_INPUTS[SELFTEST_N][INPUT_DIM] PROGMEM = {
    {7.8225148e-01f, 6.7148674e-01f, 2.3738091e-01f, 1.7946133e-01f, 3.4662366e-01f, 1.5211000e-01f, 3.1142953e-01f, 2.3900652e-01f, 5.4355729e-01f, 9.1770852e-01f, 4.4426471e-01f, 7.6028407e-01f, 1.0000000e+00f, 1.0000000e+00f, 1.0000000e+00f, 8.1693262e-01f, -5.6447226e-01f, 1.8797915e-01f, 1.0666716e-01f, 2.7914754e-01f, -2.7924818e-01f},
    {5.7528079e-01f, 5.1188409e-01f, 6.5716028e-01f, 9.4673002e-01f, 9.1530371e-01f, 7.2023469e-01f, 1.2275448e-01f, 9.0934145e-01f, 7.1328205e-01f, 3.5330293e-01f, 2.2136687e-01f, 9.1407830e-01f, 0.0000000e+00f, 1.0000000e+00f, 0.0000000e+00f, 1.7998953e-01f, -3.3618766e-01f, 1.8325223e-01f, 2.9630309e-01f, 2.3972215e-01f, 8.7376702e-01f},
    {8.1568706e-01f, 3.4031337e-01f, 9.6281809e-01f, 6.8378705e-01f, 3.6398761e-02f, 3.8488835e-01f, 1.4208660e-01f, 3.5420442e-01f, 9.6771896e-01f, 5.9558707e-01f, 3.9578947e-01f, 1.8387862e-01f, 1.0000000e+00f, 0.0000000e+00f, 1.0000000e+00f, -2.4330628e-01f, -4.4411266e-01f, 9.7857851e-01f, -6.7899477e-01f, -6.7044586e-01f, -2.4212965e-01f},
    {2.7742505e-01f, 7.1824449e-01f, 9.1700965e-01f, 4.2292172e-01f, 1.8352397e-01f, 5.0074804e-01f, 8.2354164e-01f, 3.6341172e-01f, 4.8882684e-01f, 5.7166481e-01f, 8.7326735e-01f, 6.9645077e-01f, 1.0000000e+00f, 1.0000000e+00f, 1.0000000e+00f, 9.2762369e-01f, -8.6537963e-01f, 6.9623035e-01f, 7.5847411e-01f, 7.8175175e-01f, -9.8002106e-01f},
    {8.2750422e-01f, 2.3478284e-01f, 3.6083201e-01f, 7.8728916e-03f, 9.9284118e-01f, 1.3794023e-01f, 7.1772945e-01f, 7.8305352e-01f, 8.1705695e-01f, 2.3756208e-01f, 2.9640472e-01f, 6.4491922e-01f, -1.0000000e+00f, 1.0000000e+00f, 1.0000000e+00f, 5.5438441e-01f, -3.7426227e-03f, 2.4060822e-01f, -5.9703094e-01f, 4.0270835e-01f, -2.6019722e-01f},
    {2.4609593e-01f, 7.1284014e-01f, 2.6234612e-01f, 3.6387229e-01f, 5.3549528e-01f, 8.6538607e-01f, 5.5542082e-01f, 7.0500332e-01f, 9.2982268e-01f, 9.2670482e-01f, 6.5358496e-01f, 2.2874308e-01f, 1.0000000e+00f, 0.0000000e+00f, 1.0000000e+00f, 6.1888051e-01f, 2.4767758e-01f, 1.5258378e-01f, 3.4837705e-01f, 6.9352198e-01f, -3.9986655e-01f},
    {6.0755247e-01f, 7.2169608e-01f, 4.5971435e-01f, 7.4091196e-01f, 4.8540241e-01f, 4.7401345e-01f, 1.7382109e-01f, 5.5975801e-01f, 8.2909465e-03f, 9.6654989e-02f, 4.1962749e-01f, 8.4805220e-01f, -1.0000000e+00f, 1.0000000e+00f, 1.0000000e+00f, 3.1988531e-01f, 9.7138226e-01f, 5.1316589e-01f, 2.0850340e-01f, -6.4179772e-01f, -9.2225063e-01f},
    {7.4905768e-02f, 5.2538419e-01f, 5.7628736e-02f, 1.9067481e-01f, 1.9450092e-01f, 7.5254834e-01f, 4.2582300e-01f, 7.8523964e-02f, 3.5428083e-01f, 3.1330422e-01f, 1.3918379e-01f, 5.9584761e-01f, 0.0000000e+00f, 0.0000000e+00f, 0.0000000e+00f, 8.9315981e-01f, -8.0423295e-01f, 3.7726501e-01f, 6.5722400e-01f, -2.2511004e-02f, -1.6522080e-01f},
    {4.6279541e-01f, 5.6573886e-01f, 3.2004872e-01f, 9.9741983e-01f, 3.1586149e-01f, 6.9485116e-01f, 7.1598309e-01f, 5.2608173e-02f, 5.8463097e-02f, 2.2222981e-01f, 8.0328596e-01f, 8.0841434e-01f, -1.0000000e+00f, 0.0000000e+00f, 0.0000000e+00f, -9.5002592e-02f, -9.7817016e-01f, 7.0364678e-01f, 9.1102451e-01f, -3.0228537e-01f, 3.3932510e-01f},
    {1.9110176e-01f, 4.9776337e-01f, 4.8452115e-01f, 5.3070986e-01f, 1.4718379e-01f, 9.7159618e-01f, 7.2342217e-02f, 3.8065574e-01f, 6.8362308e-01f, 5.5065686e-01f, 3.9255676e-01f, 2.8394356e-01f, 0.0000000e+00f, 0.0000000e+00f, 0.0000000e+00f, 3.4610477e-01f, 6.3197516e-02f, 3.4132668e-01f, 9.8559171e-01f, 4.3956307e-01f, 7.1880198e-01f},
};
const uint8_t SELFTEST_EXPECTED[SELFTEST_N] PROGMEM = {
    1, 8, 8, 1, 1, 1, 1, 5, 5, 3
};

inline uint8_t verify_self_test() {
    uint8_t mismatches = 0;
    for (uint8_t k = 0; k < SELFTEST_N; ++k) {
        float in[INPUT_DIM];
        for (uint8_t j = 0; j < INPUT_DIM; ++j) {
            in[j] = pgm_read_float(&SELFTEST_INPUTS[k][j]);
        }
        uint8_t got = predict_action(in);
        uint8_t expected = pgm_read_byte(&SELFTEST_EXPECTED[k]);
        if (got != expected) ++mismatches;
    }
    return mismatches;
}

}  // namespace mini_sumo_ai
