// Auto-generated by train_dqn.py — do not edit by hand.
//
// Dueling Double DQN, advantage head only (argmax over Q is invariant
// to the value head + mean shift, so AVR firmware can skip V).
//
// Architecture:
//   input(12)
//     -> Linear(48) ReLU
//     -> Linear(48) ReLU
//     -> Linear(9)    (advantage head, raw logits)
//   action_idx = argmax(advantage)
//   (left_motor, right_motor) = ACTION_MAP[action_idx]
//
// Inputs (must be normalised the same way the env does):
//   [0] front           in [0, 1]
//   [1] left            in [0, 1]
//   [2] right           in [0, 1]
//   [3] last_seen       in {-1, 0, +1}
//   [4] line_l          in {0, 1}
//   [5] line_r          in {0, 1}
//   [6] prev_left       in [-1, +1]
//   [7] prev_right      in [-1, +1]
//   [8] engagement      in [0, 1]
//   [9] yaw_rate_proxy  in [-1, +1]
//   [10] front_ir_delta  in [-1, +1]
//   [11] lateral_ir_delta in [-1, +1]

#pragma once
#include <avr/pgmspace.h>
#include <stdint.h>

namespace mini_sumo_ai {

constexpr uint8_t INPUT_DIM  = 12;
constexpr uint8_t H1_DIM     = 48;
constexpr uint8_t H2_DIM     = 48;
constexpr uint8_t N_ACTIONS  = 9;

// === Weights =========================================================
const float W1[48][12] PROGMEM = {
    {2.9238546e-01f, 5.7216340e-01f, -4.5177901e-01f, -2.2252358e-02f, -4.0554360e-01f, -4.2324200e-01f, 2.5303356e-02f, 8.5081086e-03f, 2.2614448e+00f, -5.7427794e-01f, -1.2270641e-01f, 1.6952796e-01f},
    {3.0750036e-01f, 2.3540798e-01f, 5.4819262e-01f, 5.4845828e-01f, -1.0793681e+00f, 1.2536002e+00f, -1.1404438e-01f, -4.7845755e-02f, 7.1948450e-03f, -2.8726718e-01f, -1.8662652e-02f, -2.9027334e-01f},
    {9.8622620e-02f, -3.0137637e-01f, -5.9321497e-02f, 1.8462496e-01f, -9.9604660e-01f, -1.7152921e+00f, 3.6092907e-01f, -3.3253780e-01f, -1.3368673e+00f, 3.7441086e-02f, 7.1549690e-01f, 6.0158604e-01f},
    {1.4120017e-01f, 4.7106180e-01f, 1.1367594e-01f, -2.2816393e-01f, 7.2552659e-02f, 6.5874720e-01f, 4.5396477e-02f, -1.8034399e-02f, 6.6858530e-01f, -2.8957170e-01f, 1.0852702e+00f, 2.8245136e-01f},
    {-5.0751287e-03f, -4.9133620e-01f, -4.3314707e-01f, 9.7796693e-02f, 1.0462757e+00f, 5.4644501e-01f, 2.1461432e-03f, -4.7910842e-03f, -7.6006424e-01f, 2.0333357e-01f, 2.8700271e-01f, -3.3095783e-01f},
    {4.3659472e-01f, -6.0146827e-01f, 3.4098935e-01f, -2.9782069e-01f, 6.3638306e-01f, -5.7646161e-01f, 2.3105133e-02f, 7.2681367e-02f, 1.2218659e-01f, 3.9803833e-01f, 9.5994368e-02f, -2.9140836e-01f},
    {2.3029730e-01f, -2.7875969e-01f, -2.4573497e-01f, -4.8461583e-01f, -6.6413730e-02f, 3.8898042e-01f, 5.6354994e-01f, 5.4222673e-01f, -1.1868834e+00f, -6.3617498e-01f, -1.1936863e-01f, -7.2691417e-01f},
    {4.4633934e-01f, -1.2210760e-01f, 3.0521944e-01f, -2.7466106e-01f, -1.0354261e+00f, -1.4461996e-01f, -6.3249908e-02f, 1.0154122e-01f, -1.2617452e-01f, 6.2620246e-01f, 8.6290903e-02f, -5.5860419e-02f},
    {8.2333839e-01f, -5.0727624e-01f, -1.9501230e-02f, -7.4095553e-01f, -3.2091165e-01f, 8.4855080e-01f, -1.9350316e-02f, 6.1023943e-03f, -1.1239139e+00f, 1.6014319e-02f, -3.8813683e-01f, -3.7348887e-01f},
    {-9.7939068e-01f, 3.7132433e-01f, 4.2748836e-01f, -3.5701007e-02f, -1.7317548e+00f, -1.6016091e+00f, -7.0546053e-02f, 2.5305983e-02f, 1.6434065e-01f, -6.3139641e-01f, -4.7963941e-01f, -1.0266846e-01f},
    {4.4617522e-01f, -1.3260005e+00f, -1.5597790e-01f, -5.6146747e-01f, -1.1525477e+00f, -1.3492711e+00f, -3.1111406e-02f, -6.8794787e-02f, -2.1393822e-01f, -4.5990148e-01f, 4.9312111e-02f, 1.9106276e-01f},
    {-1.2751879e-01f, 4.9066216e-01f, -1.3700081e-01f, -3.0859642e-02f, -1.2211415e+00f, 8.8225573e-01f, 2.0957632e-02f, 3.0138234e-02f, 6.4857185e-01f, -5.9674751e-02f, 1.1548530e-01f, 4.4799771e-02f},
    {-2.4294758e-01f, -5.9305141e-03f, 2.8720975e-01f, 8.6292207e-01f, 8.7111473e-01f, -2.1995311e+00f, -8.2593709e-02f, -1.1472248e-02f, -3.6373523e-01f, -1.6710837e+00f, -1.8966412e-03f, -9.3367465e-02f},
    {-7.7715419e-02f, 3.1885347e-01f, 1.9595601e-01f, 1.1946120e-01f, 1.0725349e+00f, 9.8172021e-01f, -1.1049997e-01f, -1.2080839e-02f, -1.3154801e+00f, 4.1417688e-01f, -1.8032068e-01f, 1.8296195e-03f},
    {3.2661852e-01f, -6.2261248e-01f, -4.7607738e-01f, -1.9199839e-02f, 5.3963661e-01f, -3.8649845e-01f, 1.0207115e-02f, 1.1164326e-02f, 2.4410176e-01f, -2.1987844e-01f, -2.8190279e-01f, 3.9515258e-03f},
    {5.7020947e-02f, -1.9794720e-01f, 1.8495505e-01f, -6.4578513e-03f, 6.5351284e-01f, 9.8914409e-01f, -2.9243493e-01f, -4.9547210e-02f, -3.2914270e-02f, -2.4426633e-01f, 9.1941833e-02f, 4.4952750e-02f},
    {2.7423781e-01f, 3.6005503e-01f, -4.7273800e-02f, -1.6419018e-02f, -6.1129379e-01f, 2.1264286e-01f, -4.7481838e-03f, 1.9071987e-04f, -4.5960974e-02f, -3.4824011e-01f, 5.1465195e-01f, 8.3884275e-01f},
    {5.1657033e-01f, -2.3029392e+00f, 1.4772299e-01f, -7.4210741e-02f, -6.9163734e-01f, -1.9275796e+00f, 9.2252694e-02f, 4.7672752e-02f, -1.3703655e+00f, -1.2412435e+00f, -1.6205387e-01f, -1.5677078e-01f},
    {-6.3478649e-02f, 2.3268467e-01f, 2.3057255e-01f, 1.0383463e-02f, 8.8074243e-01f, 6.8559980e-01f, -5.4066060e-03f, -1.4281124e-02f, -1.7517060e+00f, 1.5879354e-01f, 1.1482713e-01f, 2.0404834e-01f},
    {-1.4164628e-02f, 4.6752235e-01f, -2.3876770e+00f, 1.9490038e-01f, -3.3430588e-03f, 1.1568273e-01f, -4.9912329e-03f, 6.6062853e-02f, 1.2144364e+00f, -4.8248526e-01f, -2.6075789e-01f, -4.8890755e-01f},
    {9.5694497e-02f, -1.4712666e-01f, -1.5196536e-01f, -5.3469646e-01f, 7.0587397e-01f, -3.6943778e-01f, -1.4322245e-01f, 1.5412144e-01f, 2.5407115e-01f, 1.6949151e+00f, -8.6605966e-01f, -4.5531824e-01f},
    {-4.0388262e-01f, -8.8060755e-01f, 6.8621922e-01f, -2.0913970e-01f, -4.1276261e-01f, -7.6780684e-02f, -7.8297360e-03f, -6.2653415e-02f, 9.3227553e-01f, 3.8855916e-01f, 1.1681342e-01f, 7.7869885e-02f},
    {1.9291283e-01f, 4.5008981e-01f, 8.7302439e-02f, 1.1994008e-01f, 4.8083106e-01f, -7.7634722e-02f, 2.6830220e-01f, 6.0817644e-02f, 2.9892859e-01f, -7.6519740e-01f, 3.8461745e-01f, -3.1159797e-01f},
    {-1.7190400e-01f, 6.1043430e-02f, 4.7270828e-01f, -3.5938028e-01f, -4.5643002e-01f, 1.5095229e-01f, 7.5569242e-02f, -1.8628629e-02f, 2.7713150e-01f, -5.7021087e-01f, -1.5740307e-01f, 3.7841905e-02f},
    {3.1823510e-01f, 2.9141846e-01f, 6.2118646e-02f, 3.1798878e-03f, -1.2227538e-01f, 3.2210749e-01f, -1.0067639e-01f, -8.9643132e-03f, -2.4649739e+00f, 8.4111536e-01f, 8.1613086e-02f, 6.0023136e-02f},
    {1.7142616e-01f, -8.6434990e-01f, 1.9015026e-01f, -1.8646643e-01f, -1.9018646e-01f, 3.2258943e-01f, -4.6785194e-03f, -1.3448781e-02f, 6.2288213e-01f, -5.0345641e-01f, 3.5299984e-01f, 5.2364357e-02f},
    {-9.7036296e-01f, 4.6553966e-01f, 4.6826580e-01f, -2.4853284e-02f, 3.6126778e-01f, -3.4292508e-02f, 1.7536301e-02f, 1.2755245e-02f, -5.4865193e-01f, -2.8572120e-02f, 4.4855077e-02f, -2.3171338e-01f},
    {-2.2219262e-01f, 3.5504070e-01f, -8.9628652e-02f, -3.6958081e-01f, -1.0711917e+00f, -6.9462663e-01f, -3.3569559e-02f, 1.9633040e-02f, -1.7147682e+00f, -7.5593942e-01f, -4.2840749e-01f, -2.0479587e-01f},
    {1.8474483e-01f, 4.1985086e-01f, -4.8619729e-01f, -5.8383659e-02f, -4.1293044e-02f, -5.6339443e-01f, -1.8906094e-02f, -1.9260405e-02f, 2.0620541e-01f, -7.3037058e-01f, 1.0729762e+00f, 1.1959256e-01f},
    {-1.7965473e-01f, 1.2997049e-01f, 7.6090381e-02f, -1.3977751e-02f, 1.0380781e+00f, 1.0053500e+00f, -3.5177056e-02f, 1.2052377e-01f, -5.1151490e-01f, -7.4156713e-01f, 2.6469249e-01f, 1.7074743e-01f},
    {1.0129893e+00f, -1.2620343e+00f, -1.0066105e+00f, -4.3478310e-02f, 9.7169173e-01f, 3.0417922e-01f, 1.7917585e-02f, 9.2805009e-03f, -3.1258601e-01f, 1.1467081e-01f, 1.1831922e-02f, -2.9322281e-02f},
    {-9.9695891e-01f, -2.0071793e-01f, 4.9187341e-01f, 1.2305676e-01f, -6.9798362e-01f, -1.2376424e+00f, 1.0366522e-01f, -1.9787960e-02f, 7.5856429e-01f, -3.5449244e-02f, 3.5647029e-01f, 1.3895202e-01f},
    {-1.7325144e-01f, 7.0304960e-01f, -4.6577573e-01f, -4.5280522e-01f, 1.0342238e+00f, 7.3255140e-01f, -1.4314721e-02f, 3.4848932e-02f, -4.4569635e-01f, 4.2183656e-01f, 9.0006524e-04f, 2.0196863e-01f},
    {-5.8475071e-01f, -4.4635007e-01f, 1.7834814e-01f, -1.3502520e-01f, -1.3856454e-02f, 3.0176112e-01f, 1.7877690e-02f, 1.6374204e-02f, 7.1856844e-01f, -6.1113652e-02f, -1.3452102e-01f, 2.9962443e-02f},
    {-2.5004321e-01f, 3.8932014e-01f, -9.9607952e-02f, 6.7802079e-02f, 1.0757667e+00f, -2.4858876e-01f, 1.6942216e-01f, 6.5865153e-03f, -5.9335488e-01f, 2.3717776e-01f, -3.2462019e-01f, -8.2387693e-02f},
    {7.8093797e-01f, 1.7634964e-01f, -1.1141462e+00f, 2.0238918e-01f, 1.1852556e-01f, -3.9704058e-01f, 2.1316370e-02f, 1.9048390e-03f, -1.2000090e+00f, 4.1276091e-01f, 7.5320631e-02f, 1.8823747e-01f},
    {-7.6586559e-02f, 6.0097301e-01f, -5.5125737e-01f, 1.6967116e-01f, 1.1603885e-02f, -1.7905571e-01f, 2.0530790e-02f, 1.2821578e-02f, 9.7731370e-01f, 1.3647056e-01f, 5.2852863e-01f, 5.1055050e-01f},
    {6.1126238e-01f, -3.3862394e-01f, -3.2743534e-01f, 1.7223012e-01f, 1.5128505e+00f, -1.5435631e+00f, -2.9661069e-02f, 9.0032658e-03f, -1.8755910e+00f, 8.1775022e-01f, -5.8576412e-02f, -1.2473284e-03f},
    {3.7291279e-04f, 2.6155919e-01f, -6.9093960e-03f, -2.8839785e-01f, -2.2212094e-01f, 6.5046817e-01f, -5.1718447e-02f, -1.6018824e-01f, 3.8344690e-01f, -8.0843449e-02f, -5.1669538e-01f, 1.3150901e-01f},
    {6.3537762e-02f, 3.4007066e-01f, 3.1499037e-01f, 5.5292219e-01f, 3.8056219e-01f, 7.9612404e-01f, 1.3790475e-01f, 8.7898716e-02f, -1.0914844e+00f, -3.8382781e-01f, -1.4964273e-02f, 3.1615400e-01f},
    {6.5001577e-01f, -2.3093626e-01f, -1.9360795e+00f, 1.2977864e-01f, -1.7627829e+00f, -5.3277975e-01f, 1.0145205e-01f, 3.8011786e-02f, 1.1295670e-01f, 5.9890634e-01f, 1.6659152e-02f, 1.4185813e-01f},
    {2.3147886e-01f, -1.0783342e-01f, 4.5692023e-02f, -4.2579148e-02f, 9.2242450e-01f, 7.9725164e-01f, -1.1407263e-02f, -7.0230551e-02f, -1.3512086e+00f, -7.5552529e-01f, -9.2869185e-02f, 4.4135307e-03f},
    {3.2265913e-01f, 4.4349474e-01f, -8.0569047e-01f, -2.1877283e-01f, -4.5447376e-01f, 2.5121343e-01f, -6.8892024e-02f, 2.5741205e-02f, -6.9159240e-02f, 2.7248049e-01f, -2.3896669e-01f, 1.0384562e-02f},
    {1.9222607e-01f, -3.6371285e-01f, 3.4377760e-01f, -3.3238787e-02f, -5.5684321e-02f, 3.5032868e-01f, 7.9975925e-02f, 2.7978804e-02f, 5.5592191e-01f, 6.5875858e-02f, 1.3111888e-01f, 3.5991125e-02f},
    {1.0531121e-01f, -1.7793599e-01f, 6.8620473e-02f, -2.9813820e-02f, 7.7949119e-01f, 7.9154342e-01f, 5.3763890e-01f, -3.3972356e-01f, -1.2143024e+00f, 3.7836587e-01f, 1.9959678e-01f, 7.8967601e-01f},
    {-8.1159496e-01f, 3.7032259e-01f, 3.3354050e-01f, 4.1204620e-02f, 4.7266471e-01f, -8.5994267e-01f, -7.6185847e-03f, -4.7009069e-02f, 1.2735668e+00f, 2.9829428e-01f, 2.9574154e-02f, -9.7148970e-02f},
    {-8.6220890e-02f, 6.0769320e-01f, -4.0539730e-01f, 3.2345775e-01f, 1.4251107e+00f, 2.0200153e-01f, -1.7358968e-01f, 9.0393029e-02f, 2.0336784e-01f, 2.1000309e+00f, 1.1300480e-01f, -5.2846301e-01f},
    {2.4999764e-02f, -5.2234203e-01f, -4.9758384e-01f, 2.9521162e-02f, -1.4046866e+00f, 3.9368004e-01f, -2.1908605e-03f, 4.5316882e-02f, -2.3477435e+00f, -4.5770118e-01f, 1.5888204e-01f, 2.1780357e-01f},
};
const float B1[48] PROGMEM = {
    -5.1781122e-02f, 1.6983536e-01f, -1.4417569e-01f, -1.4862037e-01f, 2.7128521e-01f, -1.1970194e-01f, 2.8962642e-01f, 2.9537246e-01f, 1.4441168e-01f, 1.1006095e-01f, 1.7210176e-02f, 1.6440688e-01f, -3.0023931e-02f, -4.6109207e-02f, 5.0396758e-01f, 3.5479972e-01f, -2.7248615e-01f, 5.5915666e-01f, -4.2164701e-01f, 3.5563228e-01f, 2.0010668e-01f, -2.1596371e-01f, 2.8805843e-01f, 4.2300273e-02f, -4.8163274e-01f, 2.4624388e-01f, -3.0954602e-01f, -4.2836872e-01f, -1.4674768e-01f, -2.7015582e-02f, -2.9914007e-02f, 3.3095065e-01f, 3.1206635e-01f, 5.5565637e-01f, 3.1107125e-01f, -9.1996044e-03f, 1.0003015e-01f, 2.1921283e-01f, 2.2367242e-01f, -1.7079970e-01f, 4.4497246e-01f, -1.6656582e-01f, 1.4955688e-01f, 5.5690581e-01f, 4.4282847e-03f, 1.5958351e-01f, -1.0675856e-01f, 4.4078246e-01f
};

const float W2[48][48] PROGMEM = {
    {8.4476724e-02f, 6.6150971e-02f, -3.5773948e-02f, -1.2326580e-02f, 3.5292998e-01f, 8.0420256e-01f, -2.4211308e-01f, 3.3912178e-02f, -2.9521877e-01f, 3.1233603e-01f, 1.0209796e-02f, 3.3970454e-01f, -6.9520885e-01f, 1.6639297e-01f, -2.6375747e-01f, 1.5256796e-02f, -2.1855468e-01f, 1.8060601e-01f, 9.2738116e-01f, 3.2653114e-01f, -1.0975629e+00f, -4.9137717e-01f, 6.6984482e-02f, -1.6752724e-01f, 3.2876337e-01f, 4.5427158e-01f, -1.2128613e-01f, 6.1181349e-01f, -1.0880722e+00f, -3.5464190e-02f, 5.9998810e-01f, 4.8469889e-01f, -1.8134007e-02f, 3.1867409e-01f, 1.5520157e-01f, -3.4635377e-01f, -2.3299755e-01f, 6.4093016e-02f, -2.4656500e-01f, 1.0919052e-01f, -3.0436561e-01f, -6.4524400e-01f, -3.6674452e-01f, 2.1354987e-01f, 1.7953579e-01f, 1.9858304e-01f, 4.8935482e-01f, -9.7454232e-01f},
    {-2.2618413e-01f, 7.1346477e-02f, -1.0374454e-01f, 1.6414824e-01f, -1.8317214e-01f, 3.5384867e-01f, 1.5316464e-02f, 5.7476263e-02f, 2.8082343e-02f, 1.5704837e-01f, 8.5637540e-02f, 2.7253473e-01f, -1.1402771e-01f, -1.0622811e-01f, 2.3493350e-01f, -1.9955289e-01f, 9.6950941e-02f, 1.7482172e-01f, -8.8212281e-02f, 1.4289978e-01f, 1.3201852e-01f, -2.0181778e-01f, -7.4820280e-02f, 3.2718081e-02f, 1.8116465e-01f, 7.9696947e-01f, 2.5555072e-02f, 1.0075653e-01f, 1.9265249e-01f, 8.5082442e-02f, -4.5080975e-02f, -4.5238923e-02f, 6.8020046e-02f, 1.6564597e-01f, -4.9695756e-02f, -4.7552548e-02f, -3.3090279e-01f, 4.2723802e-01f, -6.1224751e-02f, 8.9627616e-02f, 3.7434450e-01f, -8.5003281e-01f, -7.5534540e-03f, 2.6571563e-01f, 2.3532188e-02f, 3.8338995e-01f, 3.7818812e-03f, 4.4106986e-02f},
    {1.1925757e-01f, 1.8939684e-01f, 2.2376925e-02f, 9.5708631e-02f, -2.2203274e-01f, 2.2774065e-01f, 1.6971616e-01f, 6.8618618e-02f, -1.5517592e-01f, -8.7656766e-02f, 1.7865437e-01f, 3.3581352e-01f, -1.0293422e-01f, 5.2983891e-02f, 4.5335558e-01f, 3.3056992e-01f, -3.0596146e-01f, -2.0410648e-01f, 6.1152667e-01f, -5.0720334e-02f, 2.3992363e-01f, -8.1480879e-01f, 2.1196942e-01f, 2.8653243e-01f, -3.9697826e-01f, 3.2977667e-01f, -2.8050700e-01f, -3.8131261e-01f, -2.1659483e-01f, 4.4686970e-01f, -3.3318251e-01f, -3.2626553e-03f, 3.1418487e-02f, 3.6796749e-01f, 5.8766086e-02f, -7.2666071e-02f, 1.1449017e-01f, 3.2160778e-02f, 1.3303927e-01f, 2.4606395e-01f, -5.0113842e-02f, 7.0463151e-02f, 4.3460716e-02f, -4.4350803e-02f, -3.9596879e-03f, 4.1390082e-01f, 1.1054154e-01f, -1.5424658e-01f},
    {-4.0248832e-01f, 3.1747288e-01f, -1.0418839e-01f, 9.6973352e-02f, 9.3789764e-02f, 2.9287562e-01f, -8.8637732e-02f, 4.7396067e-01f, -7.1163483e-02f, 3.0061631e-02f, 1.5816201e-01f, -2.0335735e-01f, 1.1061762e-01f, -1.0048134e-01f, 2.5315300e-01f, -7.3890634e-02f, 6.4086050e-01f, -1.0637617e-01f, 3.1593734e-01f, -2.5828347e-02f, 3.6744878e-01f, -5.0681490e-01f, 1.2475030e-01f, 1.4375703e-01f, 4.1364691e-01f, 3.9786953e-01f, -6.4527464e-01f, -1.3483684e+00f, 6.3765556e-01f, -4.2503053e-01f, -9.3691963e-01f, 4.1347259e-01f, -2.1772951e-01f, -2.1586876e-01f, -8.0468631e-01f, 4.0021566e-01f, 3.2258400e-01f, 3.0057961e-01f, 3.7648864e-02f, 2.9849961e-02f, 2.7088568e-01f, -8.1665540e-01f, 3.4992039e-01f, 3.4399435e-01f, -5.6198863e-03f, 7.1722221e-01f, 1.4460339e-01f, 1.0088688e+00f},
    {-2.2488553e-02f, 2.1816710e-01f, 2.5835234e-01f, 5.3264014e-02f, -3.2661051e-01f, -2.5673094e-01f, -1.4501100e-02f, -2.9499929e-02f, -6.2012866e-02f, 1.8665184e-01f, 3.2357100e-01f, 3.5766748e-01f, 4.1772053e-01f, -3.2365000e-01f, 4.4423676e-01f, -2.8464533e-02f, -3.2920238e-01f, 1.4899050e-01f, -2.5257063e-01f, -1.8004122e-01f, -1.9301328e-01f, -7.8611743e-01f, 1.8580072e-01f, 1.6419029e-01f, 3.5324124e-01f, 5.0543970e-01f, -4.0861967e-01f, -3.2523462e-01f, 3.5695296e-02f, -1.1793156e-01f, 1.1646627e-01f, 9.4301142e-03f, 8.7093987e-02f, 5.6511497e-01f, -2.0575657e-01f, -4.5045480e-02f, -1.8322667e-01f, 3.5181117e-01f, 2.6849157e-01f, 1.7202033e-01f, 1.6409817e-01f, -6.7268038e-01f, 1.9916193e-01f, 2.2371911e-01f, -2.8033717e-02f, 6.3182563e-01f, 4.0495530e-01f, 4.7703308e-01f},
    {1.0067938e-02f, 2.7640060e-01f, 2.1001138e-03f, -2.0064896e-02f, -1.4016142e-01f, 2.8931579e-01f, 1.0744853e-01f, 3.5779786e-01f, -9.1334768e-02f, 1.7680049e-01f, 3.9199120e-01f, 3.0457640e-01f, 3.4504777e-01f, -2.0746179e-01f, 8.1572109e-01f, 2.1856433e-01f, 5.1731855e-02f, 1.7256308e-01f, 5.9275359e-01f, 1.5821950e-01f, 3.2924128e-01f, -5.5337584e-01f, 2.7151003e-01f, 9.7013153e-02f, -3.6088261e-01f, 3.9228889e-01f, -4.0876967e-01f, -1.5635607e-01f, 6.6514283e-02f, 2.3702133e-01f, 4.6795702e-01f, 1.7115075e-02f, 5.1848181e-02f, 2.1780626e-01f, 1.6025539e-02f, 2.9632303e-01f, 2.6519290e-01f, 1.9833210e-01f, 4.0992430e-01f, 1.2717862e-01f, 8.6744137e-02f, 1.0335068e-01f, -1.1020857e-01f, 1.4065264e-01f, 2.4108024e-01f, 3.9404917e-01f, 3.9390810e-02f, 5.0099958e-02f},
    {8.6766116e-02f, 3.0559460e-02f, 1.1903396e-01f, -7.2165541e-02f, -4.0529259e-02f, 5.4648891e-02f, 4.2801299e-03f, -3.7683554e-02f, -1.3277711e-01f, 1.1606240e-02f, -7.0424244e-02f, -2.6079955e-02f, 1.0981846e-01f, -1.0478961e-01f, -7.1355090e-02f, 5.1448703e-02f, -6.7089461e-02f, -8.4210876e-03f, 1.3084491e-01f, -6.4572267e-02f, -1.1241293e-01f, -8.0777615e-02f, -6.7658931e-02f, -6.7779340e-02f, -7.4901342e-02f, 5.7421990e-02f, 2.4528399e-02f, -2.8797466e-02f, -1.5202259e-01f, -3.9873634e-02f, -5.3047996e-02f, -6.8075635e-02f, -1.5295842e-01f, 7.1471571e-03f, -1.2553844e-01f, -1.3115650e-01f, -1.5762936e-01f, 3.7335288e-02f, -1.2729612e-01f, -8.8976905e-02f, 5.8327597e-02f, 7.1904913e-02f, 3.9470300e-02f, -1.7785914e-01f, -1.0350443e-01f, -8.9982107e-02f, 1.1923692e-01f, 1.5271055e-02f},
    {1.5300867e-01f, 3.5575384e-01f, 5.4830724e-01f, -1.1220119e-01f, -1.4303400e-01f, -2.1774407e-01f, -3.1327119e-01f, 2.3465835e-02f, -2.8542081e-01f, 4.1374308e-01f, 5.1766920e-01f, 4.7377372e-01f, -7.1387720e-01f, -8.0653423e-01f, 9.0380555e-01f, 8.6881958e-02f, -1.2394016e+00f, 2.9493213e-01f, -2.5995026e+00f, 6.0964662e-01f, -3.8928437e-01f, -8.6993659e-01f, 2.7214235e-02f, 4.1184750e-01f, -1.0802666e+00f, 8.5815042e-01f, -4.8976386e-04f, -5.2396780e-01f, -9.4875169e-01f, -9.3659687e-01f, 8.3223450e-01f, 1.0668512e-01f, -3.2617539e-01f, 5.8640206e-01f, -4.2198401e-02f, 9.4228096e-02f, 1.7245834e-01f, 1.3364722e-01f, 1.7129473e-01f, -3.5932714e-01f, 2.5570095e-01f, -6.0986692e-01f, 3.6159702e-02f, 3.3959699e-01f, -8.7515450e-01f, 5.3892529e-01f, -6.0083354e-01f, -8.9848447e-01f},
    {3.2091122e-02f, 7.8137182e-02f, 9.6593238e-02f, 1.9016949e-02f, 3.1562590e-03f, -3.7284163e-01f, -3.9018101e-01f, -7.8359805e-02f, -5.1596642e-01f, 5.8985585e-01f, -1.1036863e+00f, 4.1960022e-01f, -8.0954891e-01f, 1.1202089e-01f, 2.1930948e-01f, -5.0457269e-02f, -3.7379271e-01f, -1.1746668e+00f, 4.0975279e-01f, -1.1086963e-01f, -8.6970884e-01f, -4.3422943e-01f, 1.5483241e-01f, 4.1385061e-01f, -1.1752372e+00f, 4.3907154e-01f, 4.7558442e-02f, -7.9270279e-01f, -1.2707449e-01f, -1.1209979e-02f, -1.1916655e+00f, 3.6041912e-01f, -1.0639600e-02f, 7.4898368e-01f, 9.4235055e-02f, 8.1572723e-01f, 8.3212413e-02f, -3.2824096e-01f, 1.0298632e-01f, -2.0649511e-01f, 1.3613901e-01f, -1.4999806e+00f, 4.2024934e-01f, 8.2453117e-03f, -8.7559491e-01f, 6.2803930e-01f, 2.2901107e-01f, 4.7250740e-02f},
    {-9.2180394e-02f, 7.5096525e-02f, -1.9340058e-01f, -1.7379908e-01f, -1.5961419e-01f, 4.1701555e-01f, 1.9333658e-01f, 2.8871688e-01f, -1.0894478e-01f, 3.2265574e-01f, 2.4494293e-01f, 4.1837251e-01f, 1.6203229e-01f, -1.6209459e-02f, 4.9584392e-01f, 2.2235471e-01f, -2.9561676e-02f, 1.7772494e-01f, 6.2331468e-01f, -9.0946771e-02f, 9.9956013e-02f, -5.9714687e-01f, -6.7512438e-02f, 7.5585380e-02f, -2.9162312e-01f, 3.2493877e-01f, -3.3976290e-01f, -2.7688694e-01f, 7.3492220e-03f, 2.7096403e-01f, 6.6443497e-01f, 9.7690895e-02f, -4.4010535e-02f, 9.8569192e-02f, 3.5454761e-02f, 3.9082953e-01f, 3.2121401e-02f, 1.7313628e-01f, 2.9835358e-01f, 4.0937643e-02f, 4.2094063e-02f, 1.5591569e-01f, 4.4283874e-02f, 1.9664747e-01f, -3.6055874e-02f, 5.3781778e-01f, 2.4384221e-02f, 2.1563792e-01f},
    {-3.8196150e-02f, 1.4639120e-01f, -8.7804563e-02f, 2.2836943e-01f, -6.9464155e-02f, 3.2536390e-01f, 2.0603006e-01f, 5.8410703e-03f, -1.5005618e-01f, 2.1245448e-01f, 3.0222431e-01f, 5.9777761e-01f, -3.8848421e-01f, 3.6371700e-02f, 7.2639114e-01f, 3.4309268e-01f, -1.8580382e-01f, -2.5475051e-02f, 6.3357502e-01f, -2.1883906e-01f, 3.1512505e-01f, -7.5910813e-01f, 1.8927212e-01f, 2.1042968e-01f, -2.7740416e-01f, 8.0363876e-01f, 1.1516931e-02f, 9.1219261e-02f, -9.6891150e-03f, 8.8450879e-02f, 6.6936624e-01f, 9.2207357e-02f, 4.1536552e-01f, 4.8718178e-01f, -1.3364753e-01f, 8.8841714e-02f, 2.0614989e-01f, 4.5177929e-02f, 1.4531790e-01f, -3.0313528e-01f, 2.6921538e-01f, 3.4615916e-01f, 1.1881731e-01f, -5.8610253e-02f, 1.7877509e-01f, 5.4267174e-01f, 2.0323662e-01f, 3.1772402e-01f},
    {-4.9171627e-02f, 2.2983132e-01f, -6.7647032e-02f, 1.1467121e-01f, 6.2793946e-01f, -2.8059605e-01f, -5.3704012e-02f, 1.0556389e-01f, 3.0288470e-01f, -6.1140674e-01f, -4.3031874e+00f, -3.6798590e-01f, -1.0633770e-02f, 4.9983644e-01f, -5.4142118e-01f, 5.9636161e-02f, -1.7176464e-02f, -4.8095236e+00f, -1.5300275e+00f, -5.5675626e-01f, 2.1212661e-01f, 6.0538644e-01f, 1.5994623e-01f, -2.9054783e-02f, 4.9169895e-01f, -8.0097252e-01f, -1.7949260e+00f, 6.6957879e-01f, 6.7704394e-02f, 3.0844799e-01f, -2.4403174e-01f, -2.5959523e+00f, 2.6904222e-01f, -3.5403606e-01f, 3.4716088e-01f, -1.5564658e-02f, -1.5313905e-01f, 4.8421466e-01f, -2.4930741e-01f, 2.7138600e-01f, -7.9284161e-01f, -1.0727324e-01f, 7.3650010e-02f, -1.7219310e-01f, 1.7683454e-01f, -6.0811388e-01f, 4.6327170e-02f, 6.6765112e-01f},
    {2.2701484e-01f, 1.8523948e-01f, 3.4190691e-01f, -3.6551081e-02f, -2.5237140e-01f, 1.2556271e-01f, -9.8562101e-03f, 3.5016686e-01f, 5.3144139e-01f, 6.6298604e-02f, -2.2286986e-01f, -1.9441950e-01f, 6.9286245e-01f, 1.7789775e-01f, 3.7851205e-01f, 2.0886253e-01f, 9.7186273e-01f, 2.5702676e-01f, 1.4026991e-01f, -5.0364792e-01f, -2.3698181e-01f, 2.9026827e-01f, 3.5468248e-01f, 1.2600374e-01f, 4.1600955e-01f, -1.7847584e-01f, -1.7139813e+00f, -7.2471887e-01f, 6.3386977e-01f, -6.3055974e-01f, 8.9372402e-01f, -2.0196700e-01f, -1.4501569e-01f, -4.3115314e-02f, -1.3265283e-01f, -4.0743506e-01f, -3.4432843e-01f, 2.4703568e-01f, -3.8783915e-02f, 1.1916870e-01f, -6.5286028e-01f, -1.8369403e-01f, 4.8573783e-01f, 1.0689348e-01f, -2.2331904e-01f, -1.5220790e-01f, -5.3763497e-01f, 2.6407170e-01f},
    {-7.4165601e-01f, 2.2873166e-01f, -1.7093278e-01f, 2.5161180e-01f, 3.2140446e-01f, -5.5503708e-01f, 1.7433858e-02f, -2.1331663e-01f, 1.9569182e-01f, -6.9479525e-01f, -3.7039223e+00f, -5.8689755e-01f, -3.1982169e-01f, 7.0099258e-01f, -1.4479009e+00f, 8.5097753e-02f, 6.7770028e-01f, -4.2489543e+00f, -1.0900004e+00f, -9.0336376e-01f, 1.5759771e-01f, 5.3275496e-01f, -4.2439219e-02f, -9.4760209e-02f, 4.1049388e-01f, -8.5983038e-01f, -2.8523500e+00f, 1.9819791e+00f, -5.1389831e-01f, 1.1537644e+00f, -5.5372059e-01f, -2.6482923e+00f, 5.1576767e-02f, -3.4704268e-01f, 3.5129341e-01f, -1.1060753e+00f, -6.5816534e-01f, 2.7248323e-01f, -1.5139882e-01f, 3.8022358e-02f, -3.5266466e+00f, 1.1809391e+00f, -1.9053100e-01f, 1.9685358e-02f, 4.3457928e-01f, -1.1275172e+00f, 2.6321676e-01f, 1.1506153e+00f},
    {-7.7897751e-01f, 6.2578827e-02f, -2.8480303e-02f, -3.4669229e-01f, 3.2669455e-01f, 2.2142205e-01f, 1.0566011e-01f, -8.8178188e-02f, 8.9854427e-02f, 5.7194310e-01f, 6.4470690e-01f, -9.1675639e-01f, -3.7567386e-01f, -1.3821961e-01f, 9.1010469e-01f, 2.6918218e-01f, 1.5319881e-01f, 7.7630794e-01f, -4.7774073e-01f, 3.7090075e-01f, -3.2722524e-01f, -1.3198031e+00f, -1.5889040e-01f, -6.8055704e-02f, -1.0890400e+00f, 2.2576432e-01f, 2.7003491e+00f, -3.8226697e-01f, 3.0207390e-01f, -6.3641983e-01f, 1.5732293e+00f, -3.5068333e-01f, -1.0428505e-02f, 2.1677403e-01f, 6.2910721e-02f, 1.0566115e+00f, -1.4565766e-01f, 3.5025972e-01f, -3.0039960e-01f, 6.6812807e-03f, 7.0601887e-01f, 1.8572902e-02f, 7.1151435e-01f, 4.3758094e-02f, -1.8910658e-01f, -5.9077746e-01f, -3.0215746e-01f, 9.8117244e-01f},
    {5.5852111e-02f, 6.9653928e-02f, -3.3472136e-01f, -2.6717244e-02f, -2.2024702e-01f, 2.5805125e-01f, 3.0197152e-01f, 1.7458095e-01f, -8.5265212e-02f, -1.6773553e-01f, 5.2629459e-01f, 4.7450837e-01f, 3.2397010e-03f, 3.7692729e-02f, 7.4178153e-01f, 1.4585868e-01f, -2.8509608e-02f, -9.7403929e-02f, 7.4994349e-01f, 2.7478343e-01f, 3.1909797e-01f, -5.2244526e-01f, 9.0474308e-02f, -1.1865544e-01f, 1.4623521e-01f, 6.0473359e-01f, -4.7415709e-01f, 2.8471908e-01f, 3.0281088e-01f, 1.5505522e-01f, 2.5622031e-01f, -1.2700200e-01f, 1.1686841e-01f, 3.1667033e-01f, 3.1361945e-02f, 4.0580511e-01f, 2.8440243e-01f, 2.3717365e-01f, 3.3523336e-01f, 4.2454590e-04f, -3.3239432e-02f, 1.9307299e-01f, 1.6056813e-01f, 2.2154710e-01f, 1.8246581e-01f, 4.2495797e-03f, 4.3302100e-02f, -1.2883012e-01f},
    {1.0328984e-01f, -3.4975819e-02f, -2.6586613e-02f, -1.4320898e-01f, -2.8090143e-01f, -3.3592466e-02f, -1.6445991e-01f, -6.4944351e-01f, -7.5076741e-01f, -3.6012048e-01f, -5.4100983e-02f, -9.2985541e-02f, 1.7505118e-01f, -4.5550856e-01f, -2.3460647e-01f, -5.7776328e-02f, -3.0180156e-01f, 8.0971802e-03f, -3.3053446e-01f, -7.7558212e-02f, 7.6811336e-02f, -7.0899516e-02f, -6.4876646e-02f, -1.8447633e-01f, -9.0189838e-01f, -1.6782305e-01f, -3.0363580e-02f, 1.3389429e-01f, -2.2666615e-01f, -1.7095801e-03f, -1.5570827e-01f, -4.2700148e-01f, -4.4812223e-01f, -3.1673983e-01f, -1.2946200e-01f, 5.5561163e-02f, -2.2175913e-01f, -2.5545388e-02f, 1.7624573e-01f, 1.4694306e-01f, -4.7007287e-01f, -2.4597517e-01f, -8.5242969e-01f, 8.6225607e-02f, 1.0387786e-01f, 4.9144411e-03f, -3.7991026e-01f, 5.1368237e-02f},
    {-1.1961759e-01f, -3.6004018e-02f, -5.7472792e-02f, -1.5815075e-01f, -1.3768569e-01f, -1.1828010e-01f, 6.5496132e-02f, 4.1522987e-02f, -1.6104713e-01f, -8.8081419e-02f, 2.3576766e-03f, -1.5362866e-01f, 3.9881106e-02f, 1.0084178e-01f, 2.5527790e-02f, -1.4857367e-01f, -3.6380482e-03f, 5.2396506e-02f, 1.0259779e-01f, -7.6797679e-02f, -1.3122201e-01f, 6.3414797e-02f, -1.9584483e-02f, -7.0103839e-02f, -6.6917293e-02f, -9.2109770e-02f, 1.1684084e-01f, -2.4903879e-02f, 1.0409726e-01f, 1.1688241e-01f, 1.8284112e-02f, 9.3775624e-03f, -4.5776386e-02f, 6.8403095e-02f, -1.5646289e-01f, 5.7400599e-02f, -4.2514611e-02f, 3.9884586e-02f, -3.3438090e-02f, -8.3145045e-02f, -2.9934563e-02f, 3.6072083e-02f, -1.2832509e-01f, -1.2235682e-01f, -6.2852807e-02f, -7.4060157e-02f, 3.8960751e-02f, 9.7134829e-02f},
    {4.0882429e-01f, 1.4717181e-03f, -3.0690393e-01f, -1.8042159e-01f, -1.6502647e-01f, -3.8562608e-01f, -2.7484035e-01f, -3.2379052e-01f, -1.1517533e+00f, 2.5277781e-01f, 4.5797059e-01f, 6.5479201e-01f, 5.0462157e-01f, -3.3161688e-01f, 6.2403536e-01f, -9.2860848e-02f, -2.7775571e-01f, -3.0891889e-01f, 4.8449636e-01f, 1.4892106e-01f, -5.4214537e-01f, -8.0892086e-01f, 3.1373042e-01f, 1.2621681e-01f, -1.0669357e+00f, 2.8702858e-01f, 6.6865712e-01f, 2.7820182e-01f, -5.3912476e-02f, -6.2928768e-03f, 8.7708503e-01f, 7.0546605e-02f, 4.7794911e-01f, 5.7075787e-01f, 6.0915542e-01f, 2.7808371e-01f, 1.4998052e-01f, 1.8250455e-01f, 6.4809613e-02f, 2.1265399e-02f, 1.7737903e-01f, -4.8273870e-01f, 3.3784184e-01f, 4.6879448e-02f, -4.1034585e-01f, 6.4289838e-01f, 5.5065084e-01f, 3.7324187e-01f},
    {7.6316103e-02f, -1.4724125e-01f, -3.4892246e-02f, -1.0761591e-01f, 5.0872487e-01f, -2.3348275e-01f, 1.0468083e-01f, -1.0093089e-01f, 1.0837955e-01f, -1.3555117e-01f, 2.1092619e-01f, 3.6783710e-01f, -5.7556152e-01f, 6.1538316e-02f, 3.2837287e-01f, 3.3422415e-03f, -8.2756514e-03f, 3.4570441e-02f, 7.9329127e-01f, 1.6888808e-02f, 1.3219224e-01f, -5.1613551e-01f, -2.7199307e-01f, -2.3327552e-01f, -3.1224039e-01f, 4.3385628e-01f, 1.6676202e-01f, -1.1190811e-01f, 7.3972356e-01f, -3.1334076e-02f, 9.1588640e-01f, 2.1308430e-01f, 9.0582013e-02f, 3.6229280e-01f, 1.8668316e-01f, 5.3067219e-01f, 4.1107062e-01f, -2.9638659e-02f, 1.5090022e-02f, -1.7195374e-01f, -1.2507631e-01f, 4.0472609e-01f, 1.3416558e-02f, 9.6627668e-02f, -1.5650578e-01f, 3.3253708e-01f, 1.4339159e-01f, -2.9091626e-01f},
    {-1.5118222e-01f, 1.2937619e-01f, -4.8446447e-02f, 1.6822976e-01f, 3.1112447e-01f, -5.1398563e-01f, -3.3026028e-02f, 2.1749839e-01f, 2.8288826e-01f, -1.2586689e-01f, -1.5815581e-01f, -3.4606180e-01f, 3.8811588e-01f, 3.0721715e-01f, -3.9807501e-01f, 8.8512182e-02f, 3.5039046e-01f, 1.3938591e-01f, 3.3808809e-02f, 1.7818359e-01f, 9.8987166e-03f, 5.2590573e-01f, -1.3782085e-01f, 1.1496192e-01f, 1.9068465e-01f, -8.0756910e-02f, -3.1333479e-01f, -1.0748649e-01f, -7.4786389e-01f, 1.1816966e-01f, -2.0169933e+00f, 3.3519047e-01f, 3.1229785e-01f, 2.5473133e-01f, 7.4574655e-01f, -1.3575714e+00f, -1.1787719e+00f, -6.9516070e-02f, 2.0147236e-01f, 3.4134859e-01f, -2.9285365e-01f, 6.8394326e-02f, 2.0010372e-01f, 1.4556324e-01f, -9.7923227e-02f, 4.4373993e-02f, -3.3197016e-01f, 7.8014351e-02f},
    {8.6837307e-02f, 1.2306403e-01f, -1.5413058e-01f, -1.0846761e-01f, -1.1315407e-01f, 1.2906736e-01f, 7.9734884e-02f, 1.8762067e-01f, 1.0652699e-01f, 1.3481635e-01f, 3.2940235e-02f, 3.9386791e-01f, -8.9356683e-02f, -2.2371398e-02f, 5.0924689e-01f, 6.0096368e-02f, -6.8118125e-02f, -8.5362740e-02f, 7.5387865e-01f, -2.0219445e-01f, 2.1518552e-01f, -6.6000301e-01f, 1.9729711e-01f, 4.3985624e-02f, -1.9654440e-02f, 3.7476265e-01f, -2.9424104e-01f, -1.6037548e-01f, 1.2158331e-01f, 3.4171396e-01f, 6.7512542e-01f, 9.5034935e-02f, 3.6212236e-02f, 3.5896298e-01f, -1.6648716e-01f, 3.8989580e-01f, 2.5062293e-01f, 2.4597399e-02f, 9.2981048e-02f, 1.3917188e-01f, 6.5506650e-03f, 8.3377443e-02f, 1.1702032e-01f, 1.6125011e-01f, 1.5026087e-01f, 2.2484376e-01f, 2.1388969e-01f, -4.8561567e-01f},
    {3.0770296e-01f, -2.8528401e-01f, -6.9621867e-01f, 1.2188552e-01f, -2.8072104e-01f, -1.6740009e-02f, 1.3452853e-01f, 4.1975170e-01f, 3.6703783e-01f, -5.1819420e-01f, -6.4665830e-01f, -7.6636904e-01f, -3.8393524e-01f, 4.3816426e-01f, -3.1350461e-01f, -2.6758969e-01f, -1.0360692e-01f, -1.1656426e+00f, -3.1088537e-01f, 5.4349822e-01f, -5.8742575e-02f, -4.7134843e-01f, 3.0312042e-03f, -4.0533701e-01f, 1.0276480e+00f, 6.3259298e-01f, -1.5688293e+00f, -3.0432519e-01f, -3.0326712e-01f, 1.5179484e-01f, -1.1310860e+00f, -1.1451625e+00f, 7.3285617e-02f, -9.7565275e-01f, 4.1126794e-01f, 5.8651000e-01f, 6.8092871e-01f, -5.6767178e-01f, 7.7060342e-02f, -6.2042605e-02f, 7.0126134e-01f, -5.5923176e-01f, -2.8067341e-01f, -2.5802806e-01f, 1.5466690e-01f, 6.1902618e-01f, 5.0994784e-01f, 1.6127491e-01f},
    {-4.5227859e-02f, 7.0778430e-02f, -1.3032439e-02f, -2.1128072e-01f, 7.0145421e-02f, 3.6574197e-01f, 1.7302120e-01f, 2.5864086e-01f, -3.1262737e-02f, -2.4798097e-02f, 2.8794301e-01f, 6.4189613e-01f, -1.1888853e-01f, 1.5034080e-01f, 5.7706147e-01f, 2.3346594e-01f, 1.5246627e-01f, 1.6133366e-02f, 8.0281383e-01f, 5.6671858e-01f, 1.7440800e-01f, -8.6823814e-02f, 2.0059285e-01f, 1.7442749e-01f, 1.1689325e-01f, 5.8683205e-01f, -3.5644704e-01f, 3.5360453e-01f, 2.5124595e-01f, 1.1087352e-01f, 2.7458096e-01f, -1.2377841e-02f, -1.4541255e-01f, 7.1017914e-02f, -1.7346270e-01f, 1.7294447e-01f, 6.7970291e-02f, 3.7192908e-01f, 2.9989561e-01f, 2.7361700e-01f, -2.7901015e-01f, -9.6861050e-03f, 4.0962726e-01f, 1.5027836e-02f, 1.7773013e-01f, 8.6234353e-02f, 1.5893576e-01f, -6.3251648e-03f},
    {8.1318296e-02f, 3.4819990e-02f, -2.2517312e-01f, -1.3118844e-01f, 1.7172295e-01f, 1.1139328e-01f, 3.5275020e-02f, 1.6834438e-01f, 1.9066481e-02f, 2.9217940e-02f, 2.3321064e-01f, 5.5579978e-01f, -1.5940852e-01f, -6.0327832e-02f, 4.0035325e-01f, 3.8865414e-02f, -1.0313455e-01f, 2.0415552e-01f, 7.0602423e-01f, -1.7233965e-01f, 1.2149747e-01f, -5.9475857e-01f, 2.3649079e-01f, 7.9864331e-02f, -8.7374374e-02f, 4.1072318e-01f, -1.9576624e-01f, 2.2050184e-04f, 2.0201510e-01f, 2.2342490e-01f, 4.8027235e-01f, 9.8370649e-02f, 2.1789019e-01f, 2.9413325e-01f, -4.0776834e-02f, 1.7507143e-01f, 1.9102378e-01f, 3.4733653e-01f, 1.9886845e-01f, 2.2780053e-01f, 2.4482835e-02f, -1.1562038e-01f, 5.7281751e-02f, 2.6370877e-01f, 8.3812527e-02f, 4.4205433e-01f, 1.9773883e-01f, -1.2046432e-01f},
    {1.6353987e-01f, 9.5296241e-03f, -1.4871423e-01f, -1.3933775e-01f, 1.0326112e-01f, 4.4889349e-01f, 5.9159819e-02f, 2.3711726e-01f, -1.9607130e-01f, -2.3365508e-01f, 1.5364185e-01f, 2.7557245e-01f, -1.9879641e-01f, -3.4480009e-02f, 4.5801985e-01f, 7.7815428e-02f, 8.4805235e-02f, -1.0052204e-02f, 7.8636962e-01f, -3.9967957e-01f, -3.0051407e-01f, -1.9486935e-01f, 2.2214510e-01f, 7.1704593e-03f, 3.6659338e-02f, 2.0532782e-01f, -1.1889006e-01f, -1.3498826e-01f, 3.4385392e-01f, 1.1388016e-01f, 5.5027443e-01f, 1.5276834e-01f, 9.0569202e-03f, 6.7857787e-02f, -1.9034761e-01f, 3.6769685e-01f, 3.8504240e-01f, -1.2707704e-02f, 1.1992508e-01f, 3.2474779e-02f, -4.0360417e-02f, 1.1421264e-02f, -8.0514088e-02f, 1.3865913e-01f, 3.8560998e-01f, 3.5394415e-01f, 2.3387991e-01f, 2.2526878e-01f},
    {2.9265589e-01f, -1.5205164e-01f, -3.7711546e-02f, 4.7478572e-02f, -6.7786855e-01f, -7.6736504e-01f, -1.9301072e-01f, -9.1245040e-02f, -3.1824893e-01f, 8.2567936e-01f, 1.9858796e-02f, 2.3528138e-01f, -6.4475703e-01f, -1.0486781e-02f, -5.2791115e-02f, -3.9818149e-02f, 1.2471697e-01f, 1.2461615e-01f, 1.3967643e+00f, 5.8842635e-01f, -4.2739943e-01f, -2.5905308e-01f, -1.2566975e-01f, 1.8502253e-01f, -4.0520361e-01f, -1.1022221e-01f, 1.8592176e+00f, -4.3443716e-01f, 1.2712057e+00f, -4.5397186e-01f, 5.2950823e-01f, -4.1079983e-02f, 3.8103360e-01f, 1.8767761e-01f, 6.8001039e-02f, -1.0147938e+00f, -2.1814676e-01f, 6.7013311e-01f, 9.3093291e-02f, -5.9799548e-02f, -8.3923124e-02f, -7.6954323e-01f, -5.4552674e-02f, -2.3580708e-01f, -5.0565350e-01f, 2.5623217e-01f, -1.7180029e-01f, -6.8492210e-01f},
    {-4.9784234e-01f, 4.1920140e-02f, 1.0094380e-01f, 1.3826205e-01f, 5.5804390e-01f, 1.5374735e-01f, 3.3513007e-01f, -1.7791700e-01f, 5.1026344e-01f, -6.6856980e-01f, -1.5601740e-02f, -2.0864302e-01f, 2.9420060e-01f, 4.8639622e-01f, -6.5176493e-01f, 1.2504251e-01f, 2.3481278e-01f, 1.2921283e-01f, -6.7703408e-01f, -1.1095591e+00f, 7.8966618e-01f, 7.3811746e-01f, -5.5981059e-02f, -1.4240490e-01f, 1.2360078e-01f, -9.2963956e-02f, -1.9856701e+00f, 9.0692294e-01f, -8.2590461e-01f, 3.9183187e-01f, -2.7905875e-01f, -9.7167975e-01f, 1.6785355e-01f, 1.7050101e-01f, 3.2215040e-02f, -4.0578291e-01f, -4.3097082e-01f, -5.5910356e-02f, -4.9902610e-02f, 1.5553752e-01f, -4.5830843e-01f, 6.9492781e-01f, -8.7183729e-02f, 1.6188735e-01f, 3.6620858e-01f, -8.6669439e-01f, 4.9060050e-02f, 5.5935067e-01f},
    {-3.9496772e-02f, 2.9008280e-02f, 9.4853789e-02f, -2.6634457e-02f, -7.7649876e-02f, -9.7794324e-02f, -5.3174436e-02f, 2.8885365e-02f, -1.3171305e-01f, -2.8587261e-02f, 5.4904073e-02f, 1.0858788e-01f, 2.3233632e-02f, 7.0209680e-03f, 8.5488394e-02f, 4.4509802e-02f, 3.3582225e-02f, -4.4751361e-02f, -1.2860000e-01f, -3.1177215e-02f, -2.6177615e-02f, 1.0599747e-02f, -3.8024947e-02f, 3.9276876e-02f, 8.2545370e-02f, -5.8517382e-02f, -1.4294620e-01f, -7.4053779e-02f, -6.9062121e-02f, 6.8405770e-02f, -9.3104020e-02f, -1.3575971e-02f, -5.1606856e-02f, -1.0058086e-01f, 4.3096859e-02f, -6.4627752e-02f, -1.6246364e-02f, -1.1657449e-01f, -2.8028399e-02f, -8.9666090e-04f, -1.0372390e-02f, -6.7337252e-02f, 4.2880327e-02f, -5.7785261e-02f, -9.2902899e-02f, -1.1189166e-01f, -4.4794586e-02f, -1.3635258e-01f},
    {6.4129090e-01f, -2.7528512e-01f, -2.9510796e-01f, 6.0301262e-01f, 6.4132565e-01f, 1.0408029e-01f, 1.1236691e-01f, -9.4464839e-02f, 4.6124986e-01f, -2.4754791e-01f, -2.1301115e-02f, -1.5380102e-01f, 6.3380432e-01f, -2.0720175e-01f, 2.1131255e-01f, 1.7624760e-01f, 2.9570442e-01f, -2.0907770e-01f, -1.1229795e+00f, 5.0395352e-01f, 1.3098800e-02f, 6.8854916e-01f, 1.7023173e-01f, 2.4073178e-01f, -3.9522091e-01f, -5.7636105e-02f, -1.7015143e-01f, 2.2302468e-01f, 2.5825140e-01f, 2.3487046e-01f, -1.7549160e-01f, -2.7327803e-01f, 4.3090025e-01f, -8.0783449e-02f, -3.7240404e-01f, 4.0640074e-01f, 1.6160946e-01f, 2.2318689e-02f, -2.1254331e-01f, -1.7948592e-01f, 6.6602930e-02f, 4.4926205e-01f, 4.2085129e-01f, 2.0100955e-02f, -2.6452616e-01f, -6.9436455e-01f, -2.2210664e-01f, 1.8613112e-01f},
    {1.7525835e-01f, -1.8548405e-02f, 2.8144416e-01f, -1.0136906e-01f, -6.0122985e-02f, 2.9707086e-01f, -2.3187253e-01f, 1.0103255e-01f, -2.9936865e-01f, 4.5887092e-01f, 2.8162843e-01f, 2.2654685e-01f, -1.1149467e+00f, -2.8476033e-01f, 8.8088679e-01f, -8.3855510e-02f, -4.0198714e-01f, 2.1663462e-01f, -9.7769432e-02f, 4.5639774e-01f, 6.9314905e-02f, -6.8317312e-01f, 4.4831209e-02f, 1.2947750e-01f, 2.4350283e-01f, 6.9961107e-01f, 3.9748371e-02f, -1.6803838e-01f, 2.7121142e-01f, -6.0711879e-02f, 4.1341588e-01f, 4.4007130e-02f, 3.1009167e-01f, 4.1895628e-01f, -1.0870996e-01f, 1.4083806e-01f, 6.8775302e-01f, 4.7353989e-01f, -1.2784605e-01f, -1.9468160e-01f, -1.0631891e-01f, -1.0764253e+00f, 1.3777213e-01f, 2.2995540e-01f, -4.6968794e-01f, 4.4108143e-01f, 1.6158858e-01f, -6.0968369e-01f},
    {-3.1043606e-02f, 1.4393245e-01f, 1.1913889e-02f, 3.0488418e-02f, -4.8199218e-02f, 3.7052515e-01f, 2.0491438e-01f, 2.2363257e-01f, 5.6122139e-02f, 2.2046278e-01f, 4.4405091e-01f, 4.5003754e-01f, -2.0474750e-01f, -3.4358364e-02f, 6.9998825e-01f, 9.1915568e-03f, 1.5545122e-01f, 2.7837038e-01f, 8.0447280e-01f, 3.8384639e-02f, 9.8961197e-02f, -6.5314162e-01f, -7.3496602e-02f, 2.3376514e-01f, -6.2314957e-02f, 3.7433848e-01f, -3.6065045e-01f, -2.8263167e-01f, 1.5766734e-01f, 2.4571592e-01f, 5.5182832e-01f, 1.9718932e-01f, 2.6788121e-01f, 5.3034550e-01f, -7.4363060e-02f, 2.0419146e-01f, 3.1399176e-01f, -3.9897818e-02f, 1.3580906e-01f, -9.6564077e-02f, 2.3847449e-01f, 1.4818362e-02f, 2.4576303e-01f, 1.8504946e-01f, 3.7261239e-01f, 6.4900470e-01f, 4.8416376e-02f, -3.3892798e-01f},
    {-4.4721305e-01f, 2.0473659e-01f, -4.0721071e-01f, 5.3036386e-01f, 9.9794322e-01f, -7.5854349e-01f, 1.1076841e-02f, -3.3522055e-01f, -3.5010985e-01f, -7.0784581e-01f, -7.4050194e-01f, -4.9537006e-01f, 1.3076678e-01f, 3.6019632e-01f, -2.9786858e-01f, 5.9248354e-02f, -2.4430078e-02f, 3.8552335e-01f, -8.5240012e-01f, -1.7700551e-01f, 4.9378011e-01f, 1.1050794e+00f, 9.3695574e-02f, -4.5932782e-01f, 3.2760581e-01f, 3.5941777e-01f, -5.6170201e-01f, -3.5012498e-01f, -3.0921048e-01f, 2.9737362e-01f, -1.2285839e+00f, 3.9518657e-01f, 7.2724386e-03f, -4.1149080e-01f, 2.0727783e-01f, -4.4502336e-01f, 5.8504736e-01f, 3.6292511e-01f, -4.3433747e-01f, 4.0953344e-01f, -6.3588195e-02f, 9.0042330e-02f, -2.1108651e+00f, 1.8618722e-01f, 1.9689767e-01f, 6.7185909e-02f, 8.6150326e-02f, -9.9073879e-02f},
    {6.4811677e-01f, -4.5680329e-01f, -3.9473811e-01f, 2.3157591e-01f, 2.8049198e-01f, 9.2645913e-01f, -3.2137325e-01f, -3.1511983e-01f, -1.5537111e-01f, -9.6579380e-02f, -8.9763552e-01f, -1.0466357e-01f, -1.9139870e-01f, 1.0217929e-01f, 5.0078297e-01f, -9.6283108e-03f, -5.3131849e-01f, -2.1469405e-01f, -6.8602830e-01f, 4.6555325e-01f, -1.5181968e-01f, 6.7718863e-01f, 1.0668338e-02f, -7.8123674e-02f, -2.9426840e-01f, 5.2079421e-01f, 1.7873281e-01f, -4.1193205e-01f, 8.9193618e-01f, 1.2148253e-01f, 6.9379497e-01f, -4.3940744e-01f, -5.7707988e-02f, -1.2826708e-01f, 2.6283739e-02f, 8.0440298e-02f, 6.8975604e-01f, 1.4857589e-01f, -4.9440378e-01f, -8.2645193e-02f, -4.1717061e-01f, 2.4452168e-02f, -5.8671254e-01f, -1.9864821e-01f, 3.4559950e-02f, 4.6628171e-01f, 1.9044696e-01f, -1.2751546e+00f},
    {-6.5746474e-01f, 1.5264641e-01f, 2.9722285e-01f, 2.3249255e-01f, 5.6482160e-01f, 5.1148001e-02f, 3.1621492e-01f, -5.1734310e-01f, 4.9480224e-01f, -9.5429361e-01f, -1.4787784e+00f, -4.8081544e-01f, 4.0616703e-01f, 6.5333515e-01f, -7.7675676e-01f, 6.5340364e-01f, 4.2765245e-01f, -2.5830948e+00f, -1.0234135e+00f, -8.6712152e-01f, -3.1553742e-01f, 6.7689192e-01f, 2.1818265e-02f, -2.7206257e-02f, -5.7703501e-01f, -1.1073591e+00f, -2.2530766e+00f, 1.8705760e+00f, -7.9065716e-01f, 7.9598063e-01f, -6.6836482e-01f, -3.4646213e+00f, 3.4577757e-01f, 7.4196756e-02f, 5.3709924e-01f, -1.2668403e+00f, -8.4673709e-01f, 1.5663357e-01f, -1.0278989e-01f, 3.2722226e-01f, -4.8412557e+00f, 5.8247572e-01f, -1.1949740e-01f, 3.7414502e-02f, 3.7086850e-01f, -8.2230157e-01f, -1.1290248e-01f, 9.7750729e-01f},
    {1.5076922e-01f, 2.8796797e-04f, -2.3849338e-01f, -2.0797169e-01f, 4.3354429e-02f, 4.7315684e-01f, 1.3361116e-01f, 1.5386218e-01f, -6.1461601e-02f, 2.2301055e-01f, 4.0301165e-01f, 2.0200782e-01f, 9.0400893e-03f, -1.1986841e-01f, 4.7117680e-01f, 1.2193437e-01f, -2.1470469e-01f, 1.6099919e-02f, 6.1445326e-01f, 1.1170668e-01f, 3.3024332e-01f, -5.2326745e-01f, 1.1793796e-01f, 1.4270465e-01f, -3.1923920e-01f, 4.2905053e-01f, -1.6351455e-01f, -2.1463962e-01f, -1.7148631e-02f, 4.8058528e-01f, 7.4003309e-01f, -4.4202041e-02f, 2.1260467e-01f, 2.8305888e-01f, 8.6709701e-02f, 2.7229917e-01f, 4.0192509e-01f, 1.6882738e-01f, 1.1859369e-01f, 2.2240445e-02f, 2.1644406e-01f, 1.8920675e-01f, -1.4195465e-01f, 1.3456595e-01f, 1.5607543e-01f, 3.4628066e-01f, 5.2944928e-02f, -8.2008310e-02f},
    {-6.9989748e-02f, 1.5791951e-01f, 9.0420932e-02f, -1.6238859e-01f, -1.0292466e-01f, 5.9018141e-01f, 2.7560147e-02f, 2.0093012e-01f, -5.7507336e-01f, 3.3449203e-01f, 8.8285685e-01f, 2.2446889e-01f, -3.0796549e-01f, -6.4676797e-01f, 6.1470532e-01f, 3.0842760e-01f, -3.1195787e-01f, 2.7855653e-01f, 5.2058578e-01f, 4.5638257e-01f, -2.1630479e-01f, -9.7332066e-01f, 1.7995040e-01f, 2.9874146e-01f, -6.0606962e-01f, 8.0904162e-01f, -4.1315523e-01f, -2.1076654e-01f, 2.8958732e-01f, -6.3348985e-01f, 2.8662878e-01f, -2.1058340e-02f, -1.2651926e-01f, 4.3910122e-01f, -2.6677284e-01f, 3.0143303e-01f, 5.6187660e-01f, 4.6304513e-02f, -2.5256367e-02f, -5.1688898e-01f, 3.5576531e-01f, -1.4950709e+00f, -7.3298551e-02f, -1.5847984e-01f, -4.3423662e-01f, 5.5497277e-01f, 9.9704161e-02f, -3.4836617e-01f},
    {5.8507942e-02f, 1.2737551e-01f, -2.5706470e-01f, -6.3035899e-01f, -2.8641902e-02f, -7.7057190e-02f, 3.2263085e-01f, 1.2451419e-01f, -2.9353462e-02f, 7.9416561e-01f, -1.1132462e-01f, -3.6662221e-01f, 4.5320722e-01f, 3.4115267e-01f, -9.5766731e-02f, 1.3385935e-01f, 1.8819043e-01f, -1.7063631e-01f, -1.0760939e+00f, -1.3727479e-02f, 4.3311879e-01f, 6.4253658e-01f, 8.9498259e-02f, 5.7759303e-01f, 1.0073450e-01f, -3.0689394e-01f, 1.3208769e-01f, 4.7697467e-01f, -7.7704333e-02f, -1.7750722e-01f, -1.0456126e+00f, -3.2712170e-01f, -4.0098509e-01f, 1.6072506e-01f, -6.2920749e-01f, 9.1307992e-01f, 2.2075195e-02f, 1.3923350e-01f, 1.5446998e-01f, -2.2767481e-01f, -2.4590291e-01f, -3.3204463e-01f, 2.2181177e-01f, -2.2693646e-01f, 6.8094224e-01f, -5.5831748e-01f, 1.6961838e-01f, 5.0953960e-01f},
    {-1.0523340e-01f, 8.3562382e-02f, 1.2715229e-01f, -2.4549985e-01f, -5.4699588e-01f, 1.7467204e-01f, -1.0519671e-01f, -4.1911513e-01f, 1.8244010e-01f, -5.0976008e-01f, -1.9897738e-01f, 2.3652877e-01f, 7.2296864e-01f, -1.0299667e-01f, 8.3881259e-01f, 3.8379204e-01f, 1.1357614e-01f, -9.1463789e-02f, -1.0372665e+00f, 2.6483074e-01f, -9.8707028e-02f, 4.9606260e-02f, -1.7338531e-01f, -7.3270375e-01f, -1.9237125e-01f, 3.8035265e-01f, -1.0433309e+00f, 6.6952395e-01f, 2.8210083e-01f, 5.0055385e-01f, 2.2501770e-01f, 2.6908243e-01f, -1.0352950e+00f, -1.2779674e-01f, -7.7686675e-02f, -3.7259507e-01f, -3.6036458e-02f, 1.0177556e+00f, -3.0337602e-01f, -2.9140720e-01f, -1.0286885e-01f, 4.3376845e-01f, -1.2547861e+00f, 4.9291745e-01f, -2.6731068e-01f, 8.2308196e-02f, -8.7438703e-01f, -1.1127857e-01f},
    {1.6049935e-01f, 2.2433825e-01f, 5.3314686e-01f, 1.4231718e-01f, 2.5321984e-01f, -4.8325464e-01f, 3.6656812e-02f, -1.1177682e-01f, 2.8650680e-01f, 6.6666019e-01f, 3.0345875e-01f, -2.7374402e-01f, 3.1061056e-01f, 1.4103773e-01f, -3.6303435e-02f, 4.3449631e-01f, -6.5957978e-02f, -1.1158322e-01f, -6.8727529e-01f, -1.8649225e-01f, -2.9525942e-01f, 1.3212690e-01f, 3.8828695e-01f, 2.1387216e-01f, 1.9001381e-01f, -7.7037644e-01f, 3.8861537e-01f, 2.3103918e-01f, -2.0079145e-01f, 3.6956179e-01f, 2.6760659e-01f, -9.4577782e-03f, 2.8490105e-01f, -1.5614326e-01f, -1.3388009e-01f, -4.7670882e-02f, 5.3528893e-01f, -2.4148309e-01f, 1.3057610e-01f, 1.2043072e-01f, 2.8178203e-01f, 4.6585381e-01f, 4.5465833e-01f, -2.5027719e-01f, -8.7232374e-02f, 1.1544945e-01f, -2.5318047e-01f, 4.9871939e-01f},
    {-1.1110458e-01f, 1.8731090e-01f, -2.5557706e-01f, 1.2885810e-01f, 3.7280965e-01f, -2.3271880e-01f, 1.9705261e-01f, -8.7412104e-02f, 3.7562683e-01f, -1.0245577e+00f, -4.8463413e-01f, -4.5116606e-01f, 2.7195910e-01f, 4.4379014e-01f, -1.1431616e-01f, 2.1434924e-01f, 3.8938123e-01f, 2.2471066e-01f, -6.5572524e-01f, -5.1066059e-01f, 3.0802357e-01f, 6.5346587e-01f, 6.1963554e-02f, 3.0844024e-01f, 2.0687510e-01f, -4.1227418e-01f, -1.8553089e+00f, 6.3992631e-01f, -4.1435382e-01f, 3.4609324e-01f, 1.6890548e-01f, -2.7619538e+00f, 1.6580035e-01f, -6.4694941e-01f, 1.9575404e-01f, -1.2365241e-01f, -1.3669364e-01f, 1.5752897e-01f, 5.3504173e-02f, 9.7495846e-02f, -3.0181435e-01f, 3.9528295e-01f, -1.6100453e-02f, 1.5457234e-01f, 8.1711300e-02f, -9.2147762e-01f, 2.5433049e-01f, 1.0623018e-01f},
    {1.1604724e-01f, 9.5884860e-02f, -5.9851207e-02f, 1.0138229e-01f, 3.1496808e-02f, 3.3452615e-01f, 2.8107294e-01f, 1.9093898e-01f, -1.1964245e-01f, -9.4821543e-02f, 3.0893904e-01f, 4.6924379e-01f, -3.8708061e-01f, -3.6537707e-02f, 4.3216294e-01f, 1.6737302e-01f, 2.2935705e-02f, -5.7661958e-02f, 8.6343724e-01f, -1.9190446e-01f, 2.5364950e-01f, -7.6789665e-01f, 5.0885092e-02f, 1.6086696e-01f, 1.7861247e-02f, 5.0199181e-01f, -3.2225102e-01f, -2.1179543e-01f, 1.0826003e-01f, 1.3491108e-01f, 4.1790873e-01f, 1.1462597e-02f, 1.3749617e-01f, 5.1512396e-01f, -2.0948544e-01f, 2.4359484e-01f, 2.3771663e-01f, -2.0163262e-01f, 1.7361586e-01f, -5.8287065e-02f, 2.4606775e-01f, 2.7837110e-01f, 1.1126040e-01f, -2.2285221e-02f, 2.5348765e-01f, 3.8256130e-01f, 9.6020535e-02f, -5.8458697e-02f},
    {8.9586549e-02f, 1.7984886e-01f, 1.6751505e-01f, 9.2592733e-03f, -4.9445909e-02f, 2.5027680e-01f, 1.1132722e-01f, 1.2489842e-01f, 1.6323608e-01f, 9.3720175e-02f, 2.3553321e-01f, 6.4784914e-01f, 1.9170947e-01f, 2.9196008e-03f, 3.3041474e-01f, 1.5845554e-01f, -5.1658016e-02f, 8.8381926e-03f, 6.3704777e-01f, -6.4875074e-02f, 4.8130121e-02f, -5.6943488e-01f, 9.7625889e-02f, 1.0757238e-01f, -1.2537793e-02f, 5.5756301e-01f, -3.3771023e-01f, 2.0203595e-01f, 9.9141836e-02f, 2.1937333e-01f, 5.5032408e-01f, 1.4333437e-01f, 9.9896185e-02f, 3.9082116e-01f, -1.0809706e-01f, 2.4087697e-01f, 2.3196311e-01f, 2.0042205e-01f, 4.9772021e-01f, 5.1556468e-02f, 6.8857305e-02f, -1.9429603e-01f, 2.2311017e-01f, 2.0333864e-01f, 1.3026574e-01f, 5.8828908e-01f, 9.6733503e-02f, 6.2708460e-02f},
    {-1.2367808e-01f, 1.5220737e-01f, 1.9908211e-01f, 1.4500038e-01f, -5.0089274e-02f, 1.8086033e-01f, 2.2807376e-01f, 1.8917182e-01f, 1.5525229e-01f, 3.4422755e-01f, 3.1876311e-01f, 2.9790410e-01f, -7.0149946e-01f, 1.5631428e-02f, 2.2589384e-01f, 4.6501745e-02f, 1.8262656e-02f, 2.0019974e-01f, 9.6763891e-01f, -1.9899100e-01f, 1.1728273e-01f, -8.0215132e-01f, 1.4379734e-01f, 1.1586332e-01f, -1.6471742e-01f, 7.0824093e-01f, 1.9679179e-02f, -9.4214991e-02f, 1.7234050e-01f, 2.6659623e-01f, 7.5521982e-01f, 1.8433708e-01f, 3.0081099e-01f, 5.0817209e-01f, 9.1616280e-02f, 1.6943134e-01f, 2.9242152e-01f, -1.9737314e-01f, 2.4756688e-01f, -1.2120151e-01f, 3.2134360e-01f, 5.6273222e-02f, 1.9250271e-01f, 1.0092755e-01f, 5.8458533e-02f, 5.7036090e-01f, 2.8856960e-01f, -1.8908997e-01f},
    {-5.3950375e-01f, 1.8986608e-01f, 1.3423949e-01f, 2.5688496e-01f, 5.4029566e-01f, -4.8586318e-01f, 1.1097517e-01f, -3.3192533e-01f, 2.7233592e-01f, -6.6440701e-01f, -4.5704083e+00f, -3.1793207e-01f, 1.3244642e-01f, 5.2184904e-01f, -7.1352065e-01f, 2.2506450e-01f, 5.2305895e-01f, -4.5024800e+00f, -1.0755165e+00f, -6.5111458e-01f, 5.4532933e-01f, 7.0456159e-01f, -1.4903320e-02f, -2.3760948e-01f, 4.2084086e-01f, -5.1021302e-01f, -3.0062857e+00f, 1.7272382e+00f, -7.6589662e-01f, 7.7514189e-01f, -8.4639591e-01f, -2.3261743e+00f, 9.3176834e-02f, -4.5888150e-01f, 2.4084045e-01f, -8.8586754e-01f, -6.8705434e-01f, 2.8216809e-01f, -1.5202962e-01f, 6.5819904e-02f, -3.5497606e+00f, 9.0559983e-01f, -4.3038413e-01f, -2.1212685e-01f, 2.3338944e-01f, -8.3475405e-01f, 1.0831591e-01f, 1.1374085e+00f},
    {7.3758946e-03f, 3.8465835e-02f, 7.5338864e-01f, 2.9227713e-01f, -1.3640072e+00f, 1.3523291e+00f, -1.1212364e+00f, 1.1331277e-01f, -3.6442351e-01f, -1.6106321e+00f, -6.3398355e-01f, 1.0164520e-01f, -1.0051917e+00f, -1.9592667e-01f, 4.0298805e-01f, -5.1054943e-01f, 6.2894964e-01f, -1.2211403e+00f, 2.5780407e-01f, 4.1070637e-01f, -9.2834091e+00f, -9.6544021e-01f, 2.4404654e-01f, -2.1376746e-02f, 4.3741025e-02f, 4.1262275e-01f, -1.6821660e+00f, -2.6501195e+00f, 3.6324109e-03f, -1.5138170e+00f, -8.5777664e-01f, 1.8146133e+00f, 2.8360417e-01f, -1.9489871e+00f, 7.3068988e-01f, -2.0663849e-01f, 1.8668270e-02f, 1.2942295e-01f, 2.8766055e-02f, 4.1126874e-01f, -8.5647172e-01f, -1.1895237e+00f, 2.8397936e-01f, 2.1932790e-01f, -2.1655736e+00f, -1.5101085e+00f, -1.1046555e+00f, 5.2605426e-01f},
    {-9.6054479e-02f, 2.4556188e-01f, -1.1992911e-01f, -9.6627651e-03f, 2.2718171e-02f, 1.5603440e-01f, 2.6682410e-02f, 3.0842653e-01f, 7.7492326e-02f, 1.1479383e-01f, 3.9358789e-01f, 4.4389030e-01f, 1.4456852e-01f, -2.1230653e-01f, 6.8979257e-01f, 2.4060750e-01f, -2.3580341e-02f, 9.4938293e-02f, 6.2994093e-01f, -1.3765287e-01f, 1.4489859e-01f, -5.6365126e-01f, 2.6055086e-01f, 1.8572047e-01f, -3.1274445e-02f, 2.8665930e-01f, -4.2486155e-01f, -4.7226913e-02f, 2.1823218e-01f, 5.8526363e-02f, 5.7284433e-01f, 2.7763094e-03f, -4.9115773e-03f, 4.3092594e-01f, -2.9398257e-02f, 1.8383940e-01f, 2.1789485e-01f, 7.1482353e-02f, 2.0349494e-01f, 2.4693777e-01f, 1.2485273e-01f, 9.3815468e-02f, 7.4414536e-02f, 1.3258363e-01f, 1.2985490e-01f, 3.7531719e-01f, 9.7250946e-02f, -1.0366298e-01f},
    {-1.6121268e+00f, 1.1182477e-01f, -6.3386708e-01f, 1.2056479e-01f, 7.4041253e-01f, -1.0314765e-01f, 3.5856485e-01f, -3.1330502e-01f, 1.5141153e-01f, -1.8498014e+00f, -3.4481993e+00f, -4.3198094e-01f, -7.0970666e-01f, 8.6258119e-01f, -9.4055307e-01f, 4.6111095e-01f, 5.5729592e-01f, -3.8737979e+00f, -3.8698143e-01f, -7.3827171e-01f, 2.3456627e-01f, 3.5373485e-01f, -3.0894947e-01f, -1.4493199e-01f, 6.4722285e-02f, -4.1025594e-01f, -1.4145781e+00f, 1.0357366e+00f, -6.6942948e-01f, 6.2869471e-01f, -8.7118143e-01f, -2.0773580e+00f, 7.3987687e-01f, -5.4920518e-01f, 4.6389011e-01f, 5.6456125e-01f, -1.5467015e-01f, 3.7317869e-01f, -4.3652397e-02f, 1.7147903e-01f, -2.1391571e+00f, 5.6317532e-01f, -2.4617603e-02f, 4.9005356e-02f, 6.3337648e-01f, -8.0725664e-01f, -9.3408749e-03f, 1.3131893e+00f},
};
const float B2[48] PROGMEM = {
    2.4677290e-01f, 1.5999761e-01f, 1.0675767e-01f, 1.1088338e-01f, 7.3823117e-02f, 3.3597654e-01f, -1.3177054e-01f, 5.3023678e-01f, 3.4366277e-01f, 2.0419750e-01f, 1.8395534e-01f, -2.8024144e-02f, 3.4030508e-02f, 9.6418172e-02f, 6.0171708e-03f, 3.4435791e-01f, 5.9062533e-02f, -2.0991908e-02f, 2.6793203e-01f, 2.7788842e-01f, 4.1442999e-01f, 3.1533077e-01f, -1.2932973e-02f, 6.7952350e-02f, 2.9784396e-01f, 2.6291502e-01f, -2.3211135e-01f, 1.6725823e-01f, -9.7261399e-02f, -1.4138503e-01f, 2.4098301e-01f, 1.6909702e-01f, 1.3296913e-01f, -4.3736750e-01f, 2.8535813e-01f, 4.1957855e-01f, 1.2883125e-01f, -1.5129952e-01f, 1.8314944e-01f, -1.8509774e-01f, -1.6010854e-02f, 1.0502106e-01f, 3.7993318e-01f, 1.0091527e-01f, -3.9297376e-02f, -9.0578049e-02f, 5.7783596e-02f, 1.6100135e-01f
};

const float W_ADV[9][48] PROGMEM = {
    {-6.8334639e-02f, -7.2686113e-02f, -1.3418394e-02f, 1.9368438e-02f, -2.4653420e-01f, 9.6957721e-02f, 4.6809871e-02f, -1.8256891e-01f, -1.3717741e-01f, -4.3755297e-02f, -3.0638573e-01f, 1.1057814e-01f, -1.4960086e-01f, -8.6340703e-02f, 1.3391790e-01f, -4.3080151e-02f, -3.0507973e-01f, -1.1653877e-01f, -2.1142992e-01f, -4.0418106e-01f, -3.3138636e-03f, 9.9241704e-02f, 1.4772475e-01f, 2.5345722e-02f, -1.8234989e-01f, -4.9314736e-03f, 4.6126524e-01f, 2.2627547e-02f, 1.9476928e-03f, 3.1723729e-01f, 3.2489818e-02f, -7.7720378e-03f, 3.3131868e-01f, 1.2309831e-01f, 1.2312111e-01f, 2.3652140e-02f, 3.7176900e-02f, -1.9658722e-01f, -8.4358267e-04f, 7.4865820e-04f, -9.3470022e-02f, 2.0973911e-03f, -3.3938566e-01f, 4.4904128e-02f, 1.1063125e-01f, -9.7973037e-01f, 1.0384680e-01f, 1.3368060e-01f},
    {-8.6089090e-02f, 9.8460868e-02f, -3.4844127e-02f, 1.3832410e-01f, -2.0794244e-01f, 2.2045283e-02f, -3.4696374e-02f, -1.3277552e-01f, -1.7600664e-01f, -1.0095566e-01f, -3.6692187e-01f, -1.5350975e-01f, -6.0742591e-02f, -7.6246811e-03f, 7.4590944e-02f, 9.2460595e-02f, -2.5841016e-01f, 4.8601422e-02f, -1.5223743e-01f, -1.0229471e-01f, 3.1851582e-02f, 7.9510637e-02f, 2.1632573e-01f, -5.2321665e-02f, 4.3453186e-04f, -1.0038532e-01f, 3.9234278e-01f, -1.4476480e-02f, 3.5700276e-02f, 2.8350827e-01f, 3.4083679e-02f, 1.2102351e-01f, 2.4521434e-01f, 6.8735696e-02f, 3.1577465e-01f, -6.8778478e-02f, -2.0289612e-01f, -3.4656549e-01f, 1.2231380e-01f, -2.6396915e-01f, 4.4619158e-02f, 2.7212929e-03f, -2.4185330e-01f, -7.2073974e-02f, 9.6627265e-02f, -4.5139077e-01f, -1.0361927e-01f, 5.1719476e-02f},
    {2.0093085e-02f, 1.5519387e-01f, -3.7791139e-01f, 2.6001787e-01f, -4.0797865e-01f, -3.7571019e-03f, -2.3025058e-02f, 5.1476445e-02f, -2.6190045e-01f, -2.4597046e-03f, -1.5632965e-01f, -1.7716274e-01f, -1.1922443e-01f, -7.5993270e-02f, 9.0189330e-02f, 1.0728685e-01f, -4.4727579e-01f, 9.5839165e-03f, -2.1366748e-01f, -2.4383284e-02f, 2.0978360e-01f, -2.0156825e-01f, 1.3051951e-01f, 1.9325550e-01f, -3.8259063e-02f, 1.6582105e-01f, 3.4251177e-01f, 6.1320722e-02f, -1.4034306e-01f, 2.3746718e-01f, -5.4145794e-02f, -9.9964596e-02f, 1.5805900e-01f, 2.7620661e-01f, 3.4783104e-01f, -1.3342354e-01f, -4.2958957e-01f, -1.6532610e-01f, 4.5367572e-02f, -3.3584613e-01f, 5.3624310e-02f, -1.9332555e-01f, -9.1991469e-02f, -1.0612574e-01f, 1.8097337e-01f, -9.4352037e-01f, -7.2262160e-02f, 5.4338742e-03f},
    {-1.6507362e-01f, 1.1326583e-01f, 1.5325363e-01f, 7.2191365e-02f, -1.1947982e-01f, -2.2539863e-02f, -1.1097302e-02f, -1.2176918e-01f, -5.5933639e-02f, -2.9186768e-02f, -1.5649427e-01f, 1.6464747e-01f, -1.9814669e-01f, 1.0421044e-01f, 1.5492119e-01f, 1.1678510e-01f, -3.3351725e-01f, 2.0552417e-02f, -1.9847742e-01f, -2.3343016e-01f, -1.3168526e-01f, -1.2534995e-01f, 1.8936983e-01f, 7.9182768e-03f, 3.3711456e-02f, -9.8962948e-02f, 1.7675285e-01f, 4.6808511e-02f, -8.9906983e-02f, 2.0012483e-01f, -3.1175342e-01f, -1.6953205e-01f, 1.7555346e-01f, 3.2821080e-01f, 4.7159933e-02f, -2.9967943e-01f, 7.5209670e-02f, -2.2204271e-01f, -9.8016690e-03f, 2.1573777e-01f, -1.4099771e-01f, 1.3219112e-01f, -5.7470150e-02f, -1.5052629e-01f, 2.0894407e-01f, -1.3725995e+00f, 1.6722739e-01f, 7.4510783e-02f},
    {-1.5391031e-01f, -2.6069263e-01f, -1.4628106e-02f, 7.4623130e-02f, -1.1268801e-02f, 4.1238140e-02f, -7.2608881e-02f, -5.3948931e-02f, -4.5424640e-02f, -9.8144300e-02f, -1.7210019e-01f, 2.0168954e-01f, -1.0469884e-01f, 5.7250671e-02f, 4.2276632e-02f, 4.1894764e-02f, -2.6571286e-01f, -5.4413345e-02f, -1.1612918e-01f, -9.5689468e-02f, 3.7956815e-02f, -1.2823153e-01f, 1.3546993e-01f, -1.3216417e-01f, -1.2536812e-01f, 1.9875675e-02f, 1.2088057e-01f, 1.7897268e-01f, 5.3870998e-02f, 1.3378318e-01f, -1.0527217e-01f, 1.1755246e-01f, 3.0045745e-01f, 1.9084939e-01f, 4.9415216e-02f, -2.8489769e-02f, 1.2472709e-01f, -2.9079479e-01f, -2.6905846e-02f, 4.6474166e-02f, -1.6483109e-01f, 1.2079024e-02f, -2.0184188e-01f, -1.0524236e-01f, -2.8536422e-02f, -1.9225240e+00f, -1.2025293e-01f, 1.6679136e-01f},
    {4.4263548e-01f, -2.4482794e-03f, -1.5538053e-01f, -1.1447905e-01f, 2.1067272e-01f, -2.7317026e-01f, 6.1753970e-02f, -1.1599755e-02f, 1.3493711e-01f, -1.3521646e-01f, -4.6972179e-01f, -3.6824781e-01f, 3.4503043e-01f, 6.2065106e-02f, 3.0250253e-02f, -1.6381815e-01f, -3.9487314e-01f, -1.6974617e-02f, -2.4867009e-02f, 6.3032037e-01f, 3.7912545e-01f, 3.2073673e-02f, 8.9959487e-02f, -1.8633081e-02f, 4.4330921e-02f, -1.8117408e-01f, -4.4516048e-01f, 1.2306958e-01f, 6.7204744e-02f, 3.0502227e-01f, 2.6821399e-01f, -1.0979385e-01f, 3.8430873e-02f, -1.6413674e-01f, 3.8967445e-01f, -1.2278438e-01f, -4.0755138e-01f, 1.6085324e-01f, 1.7758873e-01f, -5.5746990e-01f, 1.6603655e-01f, -1.7523126e-01f, 1.8965382e-02f, 9.2288941e-02f, -1.2949108e-01f, 2.3032205e+00f, -1.8733476e-01f, 4.2934995e-02f},
    {-2.2800153e-01f, -1.7336383e-01f, 8.3261453e-02f, -1.2728752e-01f, 2.6344480e-02f, 4.9682338e-02f, -3.1632312e-02f, -4.4659048e-01f, -1.0232925e-01f, -1.3242243e-01f, -9.4966248e-02f, 2.5820753e-01f, -4.6551877e-01f, -3.7496164e-02f, 3.2105300e-01f, 1.7605732e-01f, -5.3091145e-01f, 9.9726669e-02f, -2.3821191e-01f, -7.5978780e-01f, -1.7389099e-01f, -1.4650561e-01f, -6.9127479e-03f, 2.7418208e-01f, -1.3629895e-01f, -1.3669996e-01f, 4.5623139e-01f, 2.0867781e-01f, 2.4230380e-02f, 1.9006564e-01f, -2.3674861e-01f, -5.8107194e-02f, 4.3239835e-01f, 3.6986554e-01f, -2.7031285e-01f, -1.8443696e-01f, 4.5553559e-01f, -2.3975533e-01f, -4.3802774e-01f, 5.8418685e-01f, 1.8002894e-02f, -5.9637461e-02f, 2.7254792e-02f, -1.9499274e-01f, 1.7447919e-01f, -6.6711503e-01f, -3.5973080e-02f, 1.7678384e-01f},
    {-4.0594494e-01f, 4.3416828e-02f, 6.4966172e-02f, -4.5199436e-01f, 2.8861052e-01f, -2.8573537e-02f, -8.3636276e-02f, -3.0925837e-01f, -3.2454076e-01f, 6.7807950e-02f, 1.0118636e-01f, 2.3749234e-01f, 2.3172677e-01f, -1.6530685e-02f, -9.9171184e-02f, -3.2700416e-01f, 6.0851443e-01f, 7.7109560e-02f, 1.2398782e-01f, -2.3729967e-01f, -3.0308235e-01f, -8.6669020e-02f, 1.8198870e-01f, -3.7159416e-01f, -1.2506932e-01f, -8.9355610e-02f, -3.3805296e-01f, 1.7016129e-01f, -1.0588074e-01f, -1.6902521e-01f, 7.3467955e-02f, 8.1385849e-03f, 3.0611965e-01f, 2.0213838e-01f, 8.5596696e-02f, -6.3712560e-02f, 4.1207662e-01f, -7.6978736e-02f, -1.9814074e-02f, 2.5494602e-01f, -3.0850854e-02f, 5.1363941e-02f, -1.4648736e-01f, 1.6584823e-01f, 6.8387717e-02f, -7.2158557e-01f, -8.5863806e-02f, 2.3607983e-01f},
    {-8.7025613e-02f, -7.5330004e-02f, -1.8005004e-02f, -9.9741668e-02f, -1.8906355e-01f, -1.5983611e-01f, 1.7080933e-02f, 7.4600197e-02f, 1.1600611e-01f, -2.3126575e-01f, 1.3608772e-02f, 2.4392200e-01f, 2.1817908e-01f, 1.6353324e-01f, -1.9161883e-01f, 1.5919613e-02f, -5.0630014e-02f, 8.1668846e-02f, -6.8218604e-02f, 1.0105897e-01f, -9.4033159e-02f, 3.7569053e-02f, -1.8220772e-01f, -8.6600833e-02f, -2.1185258e-02f, 1.7731413e-01f, 1.7008950e-01f, 1.2612632e-01f, -9.3943089e-02f, 2.8669219e-02f, -9.5697155e-04f, -1.6276841e-01f, 2.2140442e-01f, -2.4682745e-01f, 4.4033423e-02f, -9.4435453e-02f, 9.5012046e-02f, 2.0183557e-01f, 1.6476902e-01f, -9.4829440e-02f, -4.9512923e-02f, 9.5342040e-02f, -6.4063042e-02f, -1.6671427e-01f, -1.4057368e-01f, -1.8678452e-01f, -7.7706620e-02f, 1.4943692e-01f},
};
const float B_ADV[9] PROGMEM = {
    -1.0837624e-02f, -1.9781487e-03f, 9.0805903e-02f, -2.2996856e-01f, -7.7062068e-03f, 2.3345867e-02f, -1.0403272e-03f, 5.8894727e-02f, -2.0501416e-03f
};

// === Action lookup table ============================================
// idx -> (left_motor, right_motor) in [-1, +1].
const float ACTION_MAP[N_ACTIONS][2] PROGMEM = {
    { -1.0f, -1.0f },
    { -1.0f, +0.0f },
    { -1.0f, +1.0f },
    { +0.0f, -1.0f },
    { +0.0f, +0.0f },
    { +0.0f, +1.0f },
    { +1.0f, -1.0f },
    { +1.0f, +0.0f },
    { +1.0f, +1.0f },
};

inline float relu(float x) { return x > 0.0f ? x : 0.0f; }

inline uint8_t predict_action(const float in[INPUT_DIM]) {
    float h1_act[H1_DIM];
    for (uint8_t i = 0; i < H1_DIM; ++i) {
        float s = pgm_read_float(&B1[i]);
        for (uint8_t j = 0; j < INPUT_DIM; ++j) {
            s += pgm_read_float(&W1[i][j]) * in[j];
        }
        h1_act[i] = relu(s);
    }
    float h2_act[H2_DIM];
    for (uint8_t i = 0; i < H2_DIM; ++i) {
        float s = pgm_read_float(&B2[i]);
        for (uint8_t j = 0; j < H1_DIM; ++j) {
            s += pgm_read_float(&W2[i][j]) * h1_act[j];
        }
        h2_act[i] = relu(s);
    }
    // Advantage head, argmax. No mean subtraction needed: it shifts
    // all advantages by the same constant so doesn't affect argmax.
    float best = -1e30f;
    uint8_t best_idx = 0;
    for (uint8_t a = 0; a < N_ACTIONS; ++a) {
        float s = pgm_read_float(&B_ADV[a]);
        for (uint8_t j = 0; j < H2_DIM; ++j) {
            s += pgm_read_float(&W_ADV[a][j]) * h2_act[j];
        }
        if (s > best) { best = s; best_idx = a; }
    }
    return best_idx;
}

inline void action_to_motors(uint8_t idx, float &left, float &right) {
    left  = pgm_read_float(&ACTION_MAP[idx][0]);
    right = pgm_read_float(&ACTION_MAP[idx][1]);
}

// === Self-test ========================================================
// 10 (obs, expected_action_idx) pairs computed in Python with the
// same forward pass. A healthy port should return 0 mismatches.

constexpr uint8_t SELFTEST_N = 10;
const float SELFTEST_INPUTS[SELFTEST_N][INPUT_DIM] PROGMEM = {
    {7.8225148e-01f, 6.7148674e-01f, 2.3738091e-01f, -1.0000000e+00f, 1.0000000e+00f, 0.0000000e+00f, 1.4332956e-01f, 7.4653471e-01f, 8.6538607e-01f, 4.8182386e-01f, 5.0768394e-02f, -8.8474256e-01f},
    {1.7946133e-01f, 3.4662366e-01f, 1.5211000e-01f, -1.0000000e+00f, 1.0000000e+00f, 0.0000000e+00f, 3.9290157e-01f, 6.5500844e-01f, 5.5542082e-01f, -2.9195219e-02f, -6.1865038e-01f, -6.1099815e-01f},
    {3.1142953e-01f, 2.3900652e-01f, 5.4355729e-01f, -1.0000000e+00f, 1.0000000e+00f, 1.0000000e+00f, -5.3043431e-01f, -2.7833596e-01f, 7.0500332e-01f, -5.1973093e-02f, 5.0509667e-01f, -1.4835399e-01f},
    {9.1770852e-01f, 4.4426471e-01f, 7.6028407e-01f, 0.0000000e+00f, 0.0000000e+00f, 1.0000000e+00f, -9.8425424e-01f, 9.8568243e-01f, 9.2982268e-01f, -6.5235782e-01f, -8.4295207e-01f, -2.9143834e-01f},
    {5.7528079e-01f, 5.1188409e-01f, 6.5716028e-01f, -1.0000000e+00f, 1.0000000e+00f, 0.0000000e+00f, -7.2411954e-01f, 4.3545893e-01f, 9.2670482e-01f, 1.1951599e-01f, -3.7339160e-01f, -7.2163242e-01f},
    {9.4673002e-01f, 9.1530371e-01f, 7.2023469e-01f, 1.0000000e+00f, 0.0000000e+00f, 0.0000000e+00f, 5.6610703e-01f, 6.3411391e-01f, 6.5358496e-01f, -9.8341811e-01f, 1.9169524e-01f, -7.4409179e-02f},
    {1.2275448e-01f, 9.0934145e-01f, 7.1328205e-01f, 1.0000000e+00f, 0.0000000e+00f, 1.0000000e+00f, -5.2487588e-01f, -4.0719056e-01f, 2.2874308e-01f, -8.0669004e-01f, 1.3147777e-01f, -3.5990253e-01f},
    {3.5330293e-01f, 2.2136687e-01f, 9.1407830e-01f, 0.0000000e+00f, 0.0000000e+00f, 1.0000000e+00f, 2.8983837e-01f, -5.0780815e-01f, 6.0755247e-01f, -1.6074504e-01f, 9.9483973e-01f, -3.6827701e-01f},
    {8.1568706e-01f, 3.4031337e-01f, 9.6281809e-01f, 0.0000000e+00f, 0.0000000e+00f, 0.0000000e+00f, 4.2568028e-01f, -4.7530776e-01f, 7.2169608e-01f, 6.9610435e-01f, 3.8970238e-01f, 4.3196616e-01f},
    {6.8378705e-01f, 3.6398761e-02f, 3.8488835e-01f, 0.0000000e+00f, 1.0000000e+00f, 0.0000000e+00f, -2.7225539e-01f, 7.0990585e-02f, 4.5971435e-01f, -8.5018849e-01f, -8.9478368e-01f, -8.8307381e-01f},
};
const uint8_t SELFTEST_EXPECTED[SELFTEST_N] PROGMEM = {
    7, 7, 7, 8, 7, 7, 6, 8, 4, 3
};

inline uint8_t verify_self_test() {
    uint8_t mismatches = 0;
    for (uint8_t k = 0; k < SELFTEST_N; ++k) {
        float in[INPUT_DIM];
        for (uint8_t j = 0; j < INPUT_DIM; ++j) {
            in[j] = pgm_read_float(&SELFTEST_INPUTS[k][j]);
        }
        uint8_t got = predict_action(in);
        uint8_t expected = pgm_read_byte(&SELFTEST_EXPECTED[k]);
        if (got != expected) ++mismatches;
    }
    return mismatches;
}

}  // namespace mini_sumo_ai
